{
  "timestamp": "20260109_163506",
  "generation": 0,
  "step": 3571,
  "best_fitness": 931.2,
  "count": 10,
  "networks": [
    {
      "fitness": 931.3,
      "food_collected": 5,
      "distance_traveled": 378.0,
      "generation": 2,
      "brain": {
        "input_size": 4,
        "hidden_size": 8,
        "output_size": 4,
        "weights_input_hidden": [
          [
            1.2619851036999938,
            -0.05160202773523005,
            -0.3350450990562527,
            0.20848795454089172,
            0.12627910130703074,
            0.8555672822352173,
            0.755337287940627,
            0.07916851414107347
          ],
          [
            0.072866637238992,
            0.09361277782484001,
            0.38695289464599447,
            -0.44158491620016727,
            0.0466250023287431,
            0.5532497008374446,
            -0.26898796111896023,
            0.4547174891368907
          ],
          [
            -0.03301896632902062,
            0.42372067470257235,
            0.8029716446680855,
            -0.4721580877100199,
            -1.0038472114724446,
            -1.283550421264173,
            1.024761531143251,
            -0.07184660571086303
          ],
          [
            -0.7414166177478,
            0.5035858504500638,
            -0.012973693736462592,
            0.04151010423298544,
            -0.7199518772347022,
            -0.3149781259027138,
            0.7887978339035556,
            -0.7400723792492926
          ]
        ],
        "weights_hidden_output": [
          [
            0.4558877960739547,
            -0.10748191025228387,
            0.5678639583695969,
            -0.187283782180247
          ],
          [
            0.1920176565038134,
            -0.5633799057910673,
            0.6526315805636089,
            -0.9756282201205484
          ],
          [
            -0.11846425002022379,
            0.3020941014763505,
            -0.22867129968829217,
            -0.389427397889862
          ],
          [
            0.5194301231005288,
            0.6600352986254172,
            0.24493229224816265,
            0.5368433823319194
          ],
          [
            0.7267900987739189,
            0.43140384598112846,
            0.15033476369538096,
            -0.1375566349189558
          ],
          [
            -0.04271073999652425,
            -0.24503107407758823,
            -1.3945682697001596,
            -0.4100027684096113
          ],
          [
            -0.10678929804448953,
            0.6405843576820064,
            -0.08337470011874756,
            0.480368279810677
          ],
          [
            -0.47777240108153485,
            0.4298272745507767,
            0.606754024055831,
            -0.1873280836888707
          ]
        ],
        "bias_hidden": [
          0.0,
          0.0,
          0.0,
          0.0,
          0.0,
          0.0,
          0.0,
          0.0
        ],
        "bias_output": [
          0.0,
          0.0,
          0.0,
          0.0
        ]
      }
    },
    {
      "fitness": 812.5,
      "food_collected": 4,
      "distance_traveled": 375.0,
      "generation": 8,
      "brain": {
        "input_size": 4,
        "hidden_size": 8,
        "output_size": 4,
        "weights_input_hidden": [
          [
            0.22151896240401203,
            0.2742820712378911,
            0.31727797888853077,
            -0.44066926917756244,
            0.2859525885954659,
            -0.2705351836205625,
            -0.5800800736634222,
            -0.5122498122319238
          ],
          [
            -0.6434340823020962,
            -0.641780603450129,
            -0.8212544297577842,
            0.26897679726411655,
            -0.39985360047535273,
            0.37562188315043443,
            0.026403346994272835,
            -0.3400103778978564
          ],
          [
            -0.07112800589123346,
            -0.09968964390642678,
            -0.8251379760309915,
            0.15485327006445923,
            0.35740730627927636,
            -0.5501666682038853,
            0.4305279295085654,
            0.08143690496436118
          ],
          [
            -0.13176006694973053,
            0.02128076363626404,
            0.039090668758577723,
            0.025458598223432605,
            0.11570254070521947,
            0.2636253015903964,
            -0.20002261586445189,
            -0.4975448406519717
          ]
        ],
        "weights_hidden_output": [
          [
            1.5715547565968677,
            -0.6665971386061118,
            -0.2342115994676669,
            -0.31438231978612674
          ],
          [
            -0.9974997711226994,
            0.2799481912983808,
            0.6299573460172542,
            0.11458367930542254
          ],
          [
            0.025988836791729975,
            0.10563034305676867,
            0.4868537553033992,
            0.23898398015836084
          ],
          [
            -0.2904555869514105,
            0.14329388258675355,
            0.239840046914093,
            -0.13819348318258567
          ],
          [
            -0.36299447253519895,
            -1.1626002667039619,
            0.2322235052487303,
            -0.7029830009611944
          ],
          [
            0.2668496881485872,
            0.704424076588316,
            -1.2588168856017339,
            -0.03543823160327178
          ],
          [
            0.006370419029183071,
            0.46222738497213584,
            0.45763342864593154,
            -0.45013393452071976
          ],
          [
            0.3323532692135156,
            0.3130134164667807,
            0.23354362677723936,
            -0.13901303777225643
          ]
        ],
        "bias_hidden": [
          0.0,
          0.0,
          0.0,
          0.0,
          0.0,
          0.0,
          0.0,
          0.0
        ],
        "bias_output": [
          0.0,
          0.0,
          0.0,
          0.0
        ]
      }
    },
    {
      "fitness": 802.6,
      "food_collected": 4,
      "distance_traveled": 366.0,
      "generation": 4,
      "brain": {
        "input_size": 4,
        "hidden_size": 8,
        "output_size": 4,
        "weights_input_hidden": [
          [
            -0.03330736661589506,
            0.2742820712378911,
            0.31727797888853077,
            -0.44066926917756244,
            0.03503234804750655,
            -0.23860268484159283,
            -0.5800800736634222,
            -0.5122498122319238
          ],
          [
            -0.29881850760122924,
            -0.6025069509004018,
            -0.8212544297577842,
            0.26897679726411655,
            -0.12221181995423797,
            0.10561518437893376,
            -0.021124787153778125,
            -0.4651302303318958
          ],
          [
            0.3121123938075094,
            -0.1448594561607443,
            -0.0617914310459059,
            0.15485327006445923,
            0.29158351287975814,
            -0.5501666682038853,
            0.4305279295085654,
            0.08143690496436118
          ],
          [
            -0.3523863150841252,
            0.02128076363626404,
            -0.14456669066749347,
            0.10260158916125675,
            0.3131790274024676,
            0.1625668401848232,
            0.1257223877845414,
            -0.4975448406519717
          ]
        ],
        "weights_hidden_output": [
          [
            1.5285879163928846,
            -0.18061148605791527,
            -0.2342115994676669,
            -0.31438231978612674
          ],
          [
            -0.5170554213716,
            0.5042239760460762,
            0.6380968670391252,
            0.11458367930542254
          ],
          [
            0.0462933153345011,
            0.03705965384998269,
            0.4868537553033992,
            0.34848590953166403
          ],
          [
            -0.2904555869514105,
            0.14329388258675355,
            -0.028967503947214368,
            -0.13819348318258567
          ],
          [
            -0.5592592858303171,
            -1.1626002667039619,
            0.09808061939427254,
            -0.6576350603930871
          ],
          [
            0.095984462505312,
            0.6619298290090226,
            -1.1996766333773237,
            -0.03543823160327178
          ],
          [
            0.006370419029183071,
            0.1936948411900233,
            0.45763342864593154,
            -0.45013393452071976
          ],
          [
            0.3323532692135156,
            0.3130134164667807,
            0.23354362677723936,
            -0.034697860720693904
          ]
        ],
        "bias_hidden": [
          0.0,
          0.0,
          0.0,
          0.0,
          0.0,
          0.0,
          0.0,
          0.0
        ],
        "bias_output": [
          0.0,
          0.0,
          0.0,
          0.0
        ]
      }
    },
    {
      "fitness": 716.9,
      "food_collected": 3,
      "distance_traveled": 379.0,
      "generation": 7,
      "brain": {
        "input_size": 4,
        "hidden_size": 8,
        "output_size": 4,
        "weights_input_hidden": [
          [
            0.22151896240401203,
            0.2742820712378911,
            0.31727797888853077,
            -0.44066926917756244,
            0.2859525885954659,
            -0.2705351836205625,
            -0.5800800736634222,
            -0.5122498122319238
          ],
          [
            -0.6434340823020962,
            -0.6025069509004018,
            -0.8212544297577842,
            0.26897679726411655,
            -0.39985360047535273,
            0.37562188315043443,
            0.026403346994272835,
            -0.3400103778978564
          ],
          [
            -0.07112800589123346,
            -0.09968964390642678,
            -0.8251379760309915,
            0.15485327006445923,
            0.35740730627927636,
            -0.5501666682038853,
            0.4305279295085654,
            0.08143690496436118
          ],
          [
            0.06056338090485271,
            0.02128076363626404,
            0.039090668758577723,
            0.025458598223432605,
            0.11570254070521947,
            0.1625668401848232,
            -0.20002261586445189,
            -0.4975448406519717
          ]
        ],
        "weights_hidden_output": [
          [
            1.5715547565968677,
            -0.6665971386061118,
            -0.2342115994676669,
            -0.31438231978612674
          ],
          [
            -0.9974997711226994,
            0.2799481912983808,
            0.6299573460172542,
            0.11458367930542254
          ],
          [
            0.2146767550857443,
            0.10563034305676867,
            0.4868537553033992,
            0.23898398015836084
          ],
          [
            -0.2904555869514105,
            0.14329388258675355,
            0.239840046914093,
            -0.13819348318258567
          ],
          [
            -0.36299447253519895,
            -1.1626002667039619,
            0.2322235052487303,
            -0.7029830009611944
          ],
          [
            0.2668496881485872,
            0.704424076588316,
            -1.2588168856017339,
            -0.03543823160327178
          ],
          [
            0.006370419029183071,
            0.46222738497213584,
            0.45763342864593154,
            -0.45013393452071976
          ],
          [
            0.3323532692135156,
            0.3130134164667807,
            0.23354362677723936,
            -0.13901303777225643
          ]
        ],
        "bias_hidden": [
          0.0,
          0.0,
          0.0,
          0.0,
          0.0,
          0.0,
          0.0,
          0.0
        ],
        "bias_output": [
          0.0,
          0.0,
          0.0,
          0.0
        ]
      }
    },
    {
      "fitness": 626.7,
      "food_collected": 3,
      "distance_traveled": 297.0,
      "generation": 6,
      "brain": {
        "input_size": 4,
        "hidden_size": 8,
        "output_size": 4,
        "weights_input_hidden": [
          [
            0.22151896240401203,
            0.2742820712378911,
            0.31727797888853077,
            -0.44066926917756244,
            0.03503234804750655,
            -0.2705351836205625,
            -0.5800800736634222,
            -0.5122498122319238
          ],
          [
            -0.6434340823020962,
            -0.6025069509004018,
            -0.8212544297577842,
            0.2680954694965172,
            -0.39985360047535273,
            0.11768187138257076,
            0.026403346994272835,
            -0.18406192818906902
          ],
          [
            -0.07112800589123346,
            -0.09968964390642678,
            -0.6197721140137111,
            0.21655856027450857,
            0.29158351287975814,
            -0.5501666682038853,
            0.4305279295085654,
            0.08143690496436118
          ],
          [
            0.06056338090485271,
            0.02128076363626404,
            -0.14456669066749347,
            0.1970504472918343,
            0.11570254070521947,
            0.1625668401848232,
            -0.20002261586445189,
            -0.4975448406519717
          ]
        ],
        "weights_hidden_output": [
          [
            1.566521205102153,
            -0.6665971386061118,
            -0.2342115994676669,
            -0.31438231978612674
          ],
          [
            -0.6590883083910657,
            0.4690628872378516,
            0.579031201078894,
            0.11458367930542254
          ],
          [
            -0.12096465509463501,
            0.10563034305676867,
            0.39356857952603175,
            0.28141575280946796
          ],
          [
            -0.2904555869514105,
            0.14329388258675355,
            0.239840046914093,
            -0.5244387093032683
          ],
          [
            -0.6889108477117087,
            -1.1626002667039619,
            0.3284089326246953,
            -0.7029830009611944
          ],
          [
            0.2668496881485872,
            0.704424076588316,
            -1.2588168856017339,
            -0.03543823160327178
          ],
          [
            0.006370419029183071,
            0.20081818812648686,
            0.45763342864593154,
            -0.45013393452071976
          ],
          [
            0.3323532692135156,
            0.3130134164667807,
            0.23354362677723936,
            -0.034697860720693904
          ]
        ],
        "bias_hidden": [
          0.0,
          0.0,
          0.0,
          0.0,
          0.0,
          0.0,
          0.0,
          0.0
        ],
        "bias_output": [
          0.0,
          0.0,
          0.0,
          0.0
        ]
      }
    },
    {
      "fitness": 615.8,
      "food_collected": 2,
      "distance_traveled": 378.0,
      "generation": 1,
      "brain": {
        "input_size": 4,
        "hidden_size": 8,
        "output_size": 4,
        "weights_input_hidden": [
          [
            1.2619851036999938,
            0.0052310673582411735,
            -0.3350450990562527,
            0.20848795454089172,
            0.12627910130703074,
            0.8555672822352173,
            0.755337287940627,
            0.07916851414107347
          ],
          [
            0.072866637238992,
            0.09361277782484001,
            0.38695289464599447,
            -0.44158491620016727,
            0.0466250023287431,
            0.5532497008374446,
            -0.26898796111896023,
            0.4547174891368907
          ],
          [
            -0.03301896632902062,
            0.42372067470257235,
            0.8029716446680855,
            -0.4721580877100199,
            -0.7751703308750909,
            -1.283550421264173,
            1.024761531143251,
            -0.07184660571086303
          ],
          [
            -0.7414166177478,
            0.5035858504500638,
            -0.012973693736462592,
            0.04151010423298544,
            -0.7460982474349339,
            -0.3149781259027138,
            0.7887978339035556,
            -0.7400723792492926
          ]
        ],
        "weights_hidden_output": [
          [
            0.4558877960739547,
            -0.10748191025228387,
            0.5678639583695969,
            -0.187283782180247
          ],
          [
            0.1920176565038134,
            -0.5633799057910673,
            0.6526315805636089,
            -0.9756282201205484
          ],
          [
            -0.11846425002022379,
            0.3020941014763505,
            -0.22867129968829217,
            -0.389427397889862
          ],
          [
            0.25971840628566295,
            -0.19463294037301648,
            0.24493229224816265,
            0.5368433823319194
          ],
          [
            0.5652877251943405,
            0.43140384598112846,
            0.15033476369538096,
            -0.15285461131538086
          ],
          [
            -0.04271073999652425,
            -0.24503107407758823,
            -1.3945682697001596,
            -0.4100027684096113
          ],
          [
            -0.10678929804448953,
            0.6405843576820064,
            -0.08337470011874756,
            0.480368279810677
          ],
          [
            -0.47777240108153485,
            0.4298272745507767,
            0.606754024055831,
            -0.3464439613281226
          ]
        ],
        "bias_hidden": [
          0.0,
          0.0,
          0.0,
          0.0,
          0.0,
          0.0,
          0.0,
          0.0
        ],
        "bias_output": [
          0.0,
          0.0,
          0.0,
          0.0
        ]
      }
    },
    {
      "fitness": 604.8,
      "food_collected": 2,
      "distance_traveled": 368.0,
      "generation": 4,
      "brain": {
        "input_size": 4,
        "hidden_size": 8,
        "output_size": 4,
        "weights_input_hidden": [
          [
            -0.03330736661589506,
            0.2742820712378911,
            0.06301754292246403,
            -0.44066926917756244,
            -0.0662683634329535,
            -0.21398615292435777,
            -0.5800800736634222,
            -0.5122498122319238
          ],
          [
            -0.29881850760122924,
            -0.6025069509004018,
            -0.8212544297577842,
            0.26897679726411655,
            -0.12221181995423797,
            0.10561518437893376,
            -0.021124787153778125,
            -0.18406192818906902
          ],
          [
            0.3121123938075094,
            -0.1448594561607443,
            -0.518373586257315,
            0.15485327006445923,
            0.29158351287975814,
            -0.5501666682038853,
            0.4305279295085654,
            0.08143690496436118
          ],
          [
            -0.3523863150841252,
            0.02128076363626404,
            -0.14456669066749347,
            0.10260158916125675,
            0.3131790274024676,
            0.1625668401848232,
            0.1257223877845414,
            -0.4975448406519717
          ]
        ],
        "weights_hidden_output": [
          [
            1.5285879163928846,
            -0.18061148605791527,
            -0.2342115994676669,
            -0.31438231978612674
          ],
          [
            -0.5170554213716,
            0.5225290741838422,
            0.3654844857902848,
            0.11458367930542254
          ],
          [
            0.0462933153345011,
            0.03705965384998269,
            0.4868537553033992,
            -0.05364852067739331
          ],
          [
            -0.2904555869514105,
            0.14329388258675355,
            -0.028967503947214368,
            -0.13819348318258567
          ],
          [
            -0.5592592858303171,
            -1.1626002667039619,
            0.09808061939427254,
            -0.7029830009611944
          ],
          [
            0.095984462505312,
            0.6987188132852102,
            -1.1996766333773237,
            -0.03543823160327178
          ],
          [
            0.006370419029183071,
            0.09930196763803746,
            0.45763342864593154,
            -0.45013393452071976
          ],
          [
            0.3323532692135156,
            0.3130134164667807,
            0.23354362677723936,
            -0.034697860720693904
          ]
        ],
        "bias_hidden": [
          0.0,
          0.0,
          0.0,
          0.0,
          0.0,
          0.0,
          0.0,
          0.0
        ],
        "bias_output": [
          0.0,
          0.0,
          0.0,
          0.0
        ]
      }
    },
    {
      "fitness": 586.0,
      "food_collected": 3,
      "distance_traveled": 260.0,
      "generation": 5,
      "brain": {
        "input_size": 4,
        "hidden_size": 8,
        "output_size": 4,
        "weights_input_hidden": [
          [
            0.12024415878877726,
            0.2742820712378911,
            0.31727797888853077,
            -0.3889887418592435,
            0.03503234804750655,
            -0.23860268484159283,
            -0.5800800736634222,
            -0.8109764527690574
          ],
          [
            -0.29881850760122924,
            -0.6025069509004018,
            -0.8212544297577842,
            0.26897679726411655,
            -0.12221181995423797,
            0.10561518437893376,
            -0.021124787153778125,
            -0.4651302303318958
          ],
          [
            0.3121123938075094,
            -0.1448594561607443,
            -0.0617914310459059,
            0.15485327006445923,
            0.29158351287975814,
            -0.5501666682038853,
            0.4660324316898715,
            0.08143690496436118
          ],
          [
            -0.3523863150841252,
            0.02128076363626404,
            -0.14456669066749347,
            -0.17247309109675338,
            0.3131790274024676,
            0.1625668401848232,
            0.1257223877845414,
            -0.4975448406519717
          ]
        ],
        "weights_hidden_output": [
          [
            1.5285879163928846,
            -0.18061148605791527,
            -0.2342115994676669,
            -0.31438231978612674
          ],
          [
            -0.8932835157903368,
            0.5042239760460762,
            0.6380968670391252,
            0.11458367930542254
          ],
          [
            0.0462933153345011,
            0.03705965384998269,
            0.4868537553033992,
            0.34848590953166403
          ],
          [
            -0.2904555869514105,
            0.14329388258675355,
            -0.028967503947214368,
            -0.13819348318258567
          ],
          [
            -0.4396575221767758,
            -1.1626002667039619,
            0.09808061939427254,
            -0.6576350603930871
          ],
          [
            0.095984462505312,
            0.6619298290090226,
            -1.1996766333773237,
            -0.03543823160327178
          ],
          [
            0.006370419029183071,
            0.1936948411900233,
            0.45763342864593154,
            -0.45013393452071976
          ],
          [
            0.3323532692135156,
            0.3130134164667807,
            0.23354362677723936,
            -0.034697860720693904
          ]
        ],
        "bias_hidden": [
          0.0,
          0.0,
          0.0,
          0.0,
          0.0,
          0.0,
          0.0,
          0.0
        ],
        "bias_output": [
          0.0,
          0.0,
          0.0,
          0.0
        ]
      }
    },
    {
      "fitness": 526.5,
      "food_collected": 3,
      "distance_traveled": 188.0,
      "generation": 6,
      "brain": {
        "input_size": 4,
        "hidden_size": 8,
        "output_size": 4,
        "weights_input_hidden": [
          [
            0.22151896240401203,
            0.2742820712378911,
            0.31727797888853077,
            -0.6497926795320177,
            0.03503234804750655,
            -0.4504040748663623,
            -0.5800800736634222,
            -0.5122498122319238
          ],
          [
            -0.6434340823020962,
            -0.6025069509004018,
            -0.8212544297577842,
            0.26897679726411655,
            -0.39985360047535273,
            0.11768187138257076,
            0.026403346994272835,
            -0.18406192818906902
          ],
          [
            -0.07112800589123346,
            -0.09968964390642678,
            -0.6197721140137111,
            0.15485327006445923,
            0.29158351287975814,
            -0.5501666682038853,
            0.584463804656759,
            -0.2714268914900476
          ],
          [
            0.4351673456655031,
            0.02128076363626404,
            -0.14456669066749347,
            0.1970504472918343,
            0.11570254070521947,
            0.08142252601727779,
            -0.20002261586445189,
            -0.4975448406519717
          ]
        ],
        "weights_hidden_output": [
          [
            1.566521205102153,
            -0.6665971386061118,
            -0.2342115994676669,
            -0.31438231978612674
          ],
          [
            -0.6590883083910657,
            0.4690628872378516,
            0.5126215288109391,
            -0.2579638180780569
          ],
          [
            -0.12096465509463501,
            0.10563034305676867,
            0.4868537553033992,
            0.23898398015836084
          ],
          [
            -0.2904555869514105,
            0.14329388258675355,
            0.239840046914093,
            -0.13819348318258567
          ],
          [
            -0.17299627227207842,
            -1.1626002667039619,
            0.3284089326246953,
            -0.7029830009611944
          ],
          [
            0.2668496881485872,
            0.704424076588316,
            -1.8169953514548398,
            -0.03543823160327178
          ],
          [
            0.006370419029183071,
            0.4257401928522232,
            0.40538589428890487,
            -0.45013393452071976
          ],
          [
            0.3138610117820044,
            0.2423128188192954,
            0.23354362677723936,
            -0.034697860720693904
          ]
        ],
        "bias_hidden": [
          0.0,
          0.0,
          0.0,
          0.0,
          0.0,
          0.0,
          0.0,
          0.0
        ],
        "bias_output": [
          0.0,
          0.0,
          0.0,
          0.0
        ]
      }
    },
    {
      "fitness": 473.9,
      "food_collected": 2,
      "distance_traveled": 249.0,
      "generation": 6,
      "brain": {
        "input_size": 4,
        "hidden_size": 8,
        "output_size": 4,
        "weights_input_hidden": [
          [
            0.22151896240401203,
            0.2742820712378911,
            0.31727797888853077,
            -0.6799607096770879,
            0.03503234804750655,
            -0.2705351836205625,
            -0.5800800736634222,
            -0.5122498122319238
          ],
          [
            -0.6434340823020962,
            -0.6025069509004018,
            -0.8212544297577842,
            0.26897679726411655,
            -0.39985360047535273,
            0.11768187138257076,
            0.026403346994272835,
            -0.18406192818906902
          ],
          [
            -0.07112800589123346,
            -0.09968964390642678,
            -0.6197721140137111,
            0.05174098488752116,
            0.29158351287975814,
            -0.5501666682038853,
            0.4305279295085654,
            0.08143690496436118
          ],
          [
            0.06056338090485271,
            0.02128076363626404,
            -0.14456669066749347,
            0.1970504472918343,
            0.11570254070521947,
            0.1625668401848232,
            -0.2659397943454075,
            -0.4975448406519717
          ]
        ],
        "weights_hidden_output": [
          [
            1.566521205102153,
            -0.6665971386061118,
            -0.2342115994676669,
            -0.31438231978612674
          ],
          [
            -0.6129874970698017,
            0.4690628872378516,
            0.579031201078894,
            0.11458367930542254
          ],
          [
            -0.12096465509463501,
            0.10563034305676867,
            0.4868537553033992,
            0.2696266450813388
          ],
          [
            -0.2904555869514105,
            0.14329388258675355,
            0.239840046914093,
            -0.13819348318258567
          ],
          [
            -0.36299447253519895,
            -1.1626002667039619,
            0.3284089326246953,
            -0.729871426011206
          ],
          [
            0.2668496881485872,
            0.704424076588316,
            -0.9175197685726333,
            -0.03543823160327178
          ],
          [
            0.006370419029183071,
            0.1936948411900233,
            0.45763342864593154,
            -0.29020185602919885
          ],
          [
            0.3323532692135156,
            0.3130134164667807,
            0.23354362677723936,
            -0.034697860720693904
          ]
        ],
        "bias_hidden": [
          0.0,
          0.0,
          0.0,
          0.0,
          0.0,
          0.0,
          0.0,
          0.0
        ],
        "bias_output": [
          0.0,
          0.0,
          0.0,
          0.0
        ]
      }
    }
  ]
}