{
  "timestamp": "20260109_160626",
  "generation": 0,
  "step": 3147,
  "best_fitness": 536.6,
  "count": 10,
  "networks": [
    {
      "fitness": 537.7,
      "food_collected": 2,
      "distance_traveled": 307.0,
      "generation": 2,
      "brain": {
        "input_size": 4,
        "hidden_size": 8,
        "output_size": 4,
        "weights_input_hidden": [
          [
            0.6974936553803537,
            0.2893750277348467,
            0.1475543530190845,
            -0.0735367370965443,
            0.08874336474325233,
            0.4769039306343451,
            0.3610581704914661,
            -1.4293600005131182
          ],
          [
            0.3954332706942529,
            -1.0921643892388413,
            -1.0715580505734543,
            -0.4489797228325434,
            -0.989633614202047,
            0.85384788597371,
            -0.5699270067596353,
            0.2806658475841534
          ],
          [
            0.26521645933641746,
            0.3398674663874831,
            0.059309667968935394,
            0.3287858536981455,
            0.41727496139747294,
            -0.15905349585040945,
            -0.15962571134755044,
            -0.44147030188727765
          ],
          [
            -0.09998733325149724,
            0.07437210342679587,
            -0.4292517538873792,
            -0.9655025250404455,
            -0.06049619852398718,
            -0.04168745403111225,
            0.23267645951356494,
            -0.05093364719694662
          ]
        ],
        "weights_hidden_output": [
          [
            0.4035961355698072,
            0.5248787313518564,
            -0.9964210028919618,
            -0.9007007206198911
          ],
          [
            -1.1834055760736937,
            0.15178010887695143,
            -0.9277880155216078,
            -0.02275103379174235
          ],
          [
            -0.08026540210536166,
            -0.38872975276243016,
            0.09417519480620126,
            -0.2435964164880253
          ],
          [
            0.5646725567618205,
            -0.0740235321800029,
            -0.3787566289214209,
            -0.28892805710054476
          ],
          [
            0.1988743899752852,
            0.7812462621293063,
            0.30529259001008585,
            -0.5673776986717539
          ],
          [
            0.29284206616911673,
            -0.9275370259587963,
            0.095003158527475,
            0.9539271130266272
          ],
          [
            0.15099330176975073,
            0.30431435666685935,
            -0.0290862431603678,
            -0.023657316982770984
          ],
          [
            -0.07556911183796261,
            -0.2298735323012532,
            0.2229126620931424,
            0.09634995705485153
          ]
        ],
        "bias_hidden": [
          0.0,
          0.0,
          0.0,
          0.0,
          0.0,
          0.0,
          0.0,
          0.0
        ],
        "bias_output": [
          0.0,
          0.0,
          0.0,
          0.0
        ]
      }
    },
    {
      "fitness": 494.2,
      "food_collected": 2,
      "distance_traveled": 253.0,
      "generation": 3,
      "brain": {
        "input_size": 4,
        "hidden_size": 8,
        "output_size": 4,
        "weights_input_hidden": [
          [
            0.5427180442815858,
            0.24190345292067764,
            0.16079213572986714,
            0.9192533313349712,
            0.4468599127841088,
            0.10578998442457002,
            1.346304030510564,
            0.24693942464373925
          ],
          [
            -0.5004796288830987,
            0.07746285839245777,
            -0.7465609750752271,
            -0.25351015193982074,
            -0.23510938524755137,
            0.27580617004895164,
            -0.189717989606733,
            0.7470588798582254
          ],
          [
            -0.219526073856034,
            -0.4326249807539741,
            0.1971793051636913,
            -0.6948245115284714,
            0.2893577369944355,
            -0.16731703344529653,
            0.5474970567124136,
            -0.5278220799435915
          ],
          [
            -0.2660880546167653,
            1.0748092917462615,
            -0.07054586835380755,
            0.008888387053048862,
            -0.050946220411533676,
            0.1765702580284964,
            0.23197798484334814,
            -0.2672127820693697
          ]
        ],
        "weights_hidden_output": [
          [
            0.4703405352202503,
            -0.9882532814945468,
            0.04556519161240435,
            -0.0608143509411136
          ],
          [
            -0.014613745175807097,
            0.18872793819993833,
            0.12892296369111142,
            -0.8138179972501959
          ],
          [
            0.2367807248822331,
            -0.397320406644609,
            -0.8796145218899319,
            -0.002066006475341279
          ],
          [
            -1.0034163337710476,
            -0.9882278758781678,
            0.337052903715124,
            0.9896876873458762
          ],
          [
            0.12888383656505084,
            0.45042438907939264,
            0.2679362514198464,
            0.42023287687551486
          ],
          [
            -0.4179551588654375,
            0.1753300926621187,
            0.36140086519770737,
            0.01806822986772366
          ],
          [
            -0.14901561207363145,
            0.20744343924827402,
            1.0194249438147198,
            -0.3753986413456994
          ],
          [
            0.704005148715591,
            0.014807352767322554,
            0.11673478535927112,
            -0.4169673795795367
          ]
        ],
        "bias_hidden": [
          0.0,
          0.0,
          0.0,
          0.0,
          0.0,
          0.0,
          0.0,
          0.0
        ],
        "bias_output": [
          0.0,
          0.0,
          0.0,
          0.0
        ]
      }
    },
    {
      "fitness": 459.6,
      "food_collected": 2,
      "distance_traveled": 223.0,
      "generation": 3,
      "brain": {
        "input_size": 4,
        "hidden_size": 8,
        "output_size": 4,
        "weights_input_hidden": [
          [
            0.5427180442815858,
            0.24190345292067764,
            -0.04149751247573666,
            0.9009515571114782,
            0.4468599127841088,
            0.10578998442457002,
            1.346304030510564,
            0.24693942464373925
          ],
          [
            -0.5004796288830987,
            -0.047628268242737026,
            -0.7465609750752271,
            -0.25351015193982074,
            -0.23510938524755137,
            0.27580617004895164,
            -0.32533122795671116,
            0.8128308024496057
          ],
          [
            -0.219526073856034,
            -0.4326249807539741,
            0.1971793051636913,
            -0.6948245115284714,
            0.2893577369944355,
            0.17318714033804516,
            0.5474970567124136,
            -0.2666042634646746
          ],
          [
            -0.2660880546167653,
            1.0154896912425098,
            0.22787305242343825,
            0.008888387053048862,
            -0.050946220411533676,
            0.24815375333374118,
            0.2836019349259228,
            -0.4288086840805702
          ]
        ],
        "weights_hidden_output": [
          [
            0.2637130754382426,
            -0.9882532814945468,
            0.04556519161240435,
            -0.0608143509411136
          ],
          [
            0.20613012258261984,
            0.18872793819993833,
            0.12892296369111142,
            -0.8138179972501959
          ],
          [
            0.2367807248822331,
            -0.397320406644609,
            -0.8796145218899319,
            -0.002066006475341279
          ],
          [
            -0.9602068830276023,
            -0.9882278758781678,
            0.337052903715124,
            1.238464756774297
          ],
          [
            0.2743820129773589,
            0.45042438907939264,
            0.2679362514198464,
            0.42023287687551486
          ],
          [
            -0.4179551588654375,
            0.1753300926621187,
            0.36140086519770737,
            0.01806822986772366
          ],
          [
            -0.14901561207363145,
            0.20744343924827402,
            1.0194249438147198,
            -0.3753986413456994
          ],
          [
            0.5493177953225233,
            0.014807352767322554,
            0.11673478535927112,
            -0.4169673795795367
          ]
        ],
        "bias_hidden": [
          0.0,
          0.0,
          0.0,
          0.0,
          0.0,
          0.0,
          0.0,
          0.0
        ],
        "bias_output": [
          0.0,
          0.0,
          0.0,
          0.0
        ]
      }
    },
    {
      "fitness": 420.6,
      "food_collected": 2,
      "distance_traveled": 189.0,
      "generation": 2,
      "brain": {
        "input_size": 4,
        "hidden_size": 8,
        "output_size": 4,
        "weights_input_hidden": [
          [
            0.368159057598925,
            -0.5903185522327395,
            0.35885524525944024,
            -0.018604898840189524,
            -0.06958849887321901,
            -0.12327445440151799,
            0.004956532715085596,
            0.19299655796335152
          ],
          [
            -0.9524394550506838,
            -0.4066958270632544,
            0.17147180679987806,
            -0.08748571606291221,
            -0.34730724133009677,
            -0.726631290754313,
            -0.73567902092835,
            0.484390770223632
          ],
          [
            0.5850622866283692,
            0.5119235585139197,
            0.48897819248698526,
            -0.8070835594551932,
            0.6009663765816486,
            0.15718577491993782,
            -0.15231685650246216,
            -1.129940718774005
          ],
          [
            0.19066972550641195,
            0.4518634421264227,
            -0.4534197073938023,
            -0.0884977003487491,
            -0.07584997207310884,
            -0.40126186245326884,
            0.10672665951407094,
            0.26113953548677626
          ]
        ],
        "weights_hidden_output": [
          [
            -0.17588436069350663,
            -0.019795597917355273,
            0.3790626883626227,
            -0.08327694427283419
          ],
          [
            -0.13241101927885657,
            -1.8170487420557258,
            -0.30734194343471954,
            -0.22266983686257602
          ],
          [
            0.03063414360656,
            -0.24181990286191798,
            0.007311422005229303,
            0.31312256786971837
          ],
          [
            0.019993629317322577,
            -0.1934910335557074,
            -0.21084029387358297,
            -0.23450700313409975
          ],
          [
            -0.608607111567775,
            -0.7264724509551332,
            0.33620045182877145,
            -1.0425614981719988
          ],
          [
            -0.3199085591091088,
            -0.5732977367540693,
            -0.4236616945137315,
            0.4028729598591861
          ],
          [
            -0.3326135462349607,
            -0.6159105328199366,
            -0.899337149967198,
            0.2601644512723989
          ],
          [
            0.16419102336054758,
            -0.40141720568781997,
            -0.22214553559855074,
            0.0618892396724324
          ]
        ],
        "bias_hidden": [
          0.0,
          0.0,
          0.0,
          0.0,
          0.0,
          0.0,
          0.0,
          0.0
        ],
        "bias_output": [
          0.0,
          0.0,
          0.0,
          0.0
        ]
      }
    },
    {
      "fitness": 413.2,
      "food_collected": 2,
      "distance_traveled": 178.0,
      "generation": 3,
      "brain": {
        "input_size": 4,
        "hidden_size": 8,
        "output_size": 4,
        "weights_input_hidden": [
          [
            0.6974936553803537,
            0.5300255781302479,
            0.1475543530190845,
            -0.0735367370965443,
            0.08874336474325233,
            0.4769039306343451,
            0.3610581704914661,
            -1.4293600005131182
          ],
          [
            0.3954332706942529,
            -1.159944966819939,
            -1.0715580505734543,
            -0.4489797228325434,
            -1.3094167638852858,
            0.85384788597371,
            -0.5699270067596353,
            0.2806658475841534
          ],
          [
            0.26521645933641746,
            0.3398674663874831,
            0.059309667968935394,
            0.3287858536981455,
            0.41727496139747294,
            -0.15905349585040945,
            -0.15962571134755044,
            -0.44147030188727765
          ],
          [
            -0.09998733325149724,
            0.07437210342679587,
            -0.6521167111290669,
            -0.9655025250404455,
            0.19075253611418574,
            -0.04168745403111225,
            -0.023106782182494318,
            -0.05093364719694662
          ]
        ],
        "weights_hidden_output": [
          [
            0.4035961355698072,
            0.5248787313518564,
            -0.7711957539359039,
            -0.7259051654435694
          ],
          [
            -1.2987861892206556,
            0.15178010887695143,
            -0.9277880155216078,
            -0.02275103379174235
          ],
          [
            -0.08026540210536166,
            -0.38872975276243016,
            0.09417519480620126,
            -0.2435964164880253
          ],
          [
            0.5646725567618205,
            -0.0740235321800029,
            -0.3787566289214209,
            -0.28892805710054476
          ],
          [
            0.1988743899752852,
            0.7812462621293063,
            0.30529259001008585,
            -0.5673776986717539
          ],
          [
            0.29284206616911673,
            -0.9275370259587963,
            0.095003158527475,
            1.1698105373958363
          ],
          [
            0.15099330176975073,
            0.30431435666685935,
            0.0028430212796604773,
            -0.023657316982770984
          ],
          [
            -0.07556911183796261,
            -0.43243933032063486,
            0.2229126620931424,
            0.09634995705485153
          ]
        ],
        "bias_hidden": [
          0.0,
          0.0,
          0.0,
          0.0,
          0.0,
          0.0,
          0.0,
          0.0
        ],
        "bias_output": [
          0.0,
          0.0,
          0.0,
          0.0
        ]
      }
    },
    {
      "fitness": 390.4,
      "food_collected": 1,
      "distance_traveled": 264.0,
      "generation": 4,
      "brain": {
        "input_size": 4,
        "hidden_size": 8,
        "output_size": 4,
        "weights_input_hidden": [
          [
            0.9130338009506971,
            0.24190345292067764,
            -0.04149751247573666,
            0.9009515571114782,
            0.4468599127841088,
            0.10578998442457002,
            1.346304030510564,
            0.24693942464373925
          ],
          [
            -0.5004796288830987,
            -0.047628268242737026,
            -0.7465609750752271,
            -0.25351015193982074,
            -0.23510938524755137,
            0.27580617004895164,
            -0.32533122795671116,
            0.8128308024496057
          ],
          [
            -0.219526073856034,
            -0.4326249807539741,
            0.1971793051636913,
            -0.6948245115284714,
            0.30905175536169366,
            0.17318714033804516,
            0.5474970567124136,
            -0.2666042634646746
          ],
          [
            -0.2660880546167653,
            1.0154896912425098,
            0.22787305242343825,
            0.008888387053048862,
            -0.050946220411533676,
            0.24815375333374118,
            0.2836019349259228,
            -0.4288086840805702
          ]
        ],
        "weights_hidden_output": [
          [
            0.2637130754382426,
            -0.6914551790044233,
            0.04556519161240435,
            -0.0608143509411136
          ],
          [
            0.20613012258261984,
            0.18872793819993833,
            0.12892296369111142,
            -0.8138179972501959
          ],
          [
            0.2367807248822331,
            -0.397320406644609,
            -0.8796145218899319,
            -0.002066006475341279
          ],
          [
            -0.8031670228452854,
            -0.9882278758781678,
            0.337052903715124,
            1.238464756774297
          ],
          [
            0.2743820129773589,
            0.45042438907939264,
            0.2679362514198464,
            0.42023287687551486
          ],
          [
            -0.4179551588654375,
            0.1753300926621187,
            0.36140086519770737,
            0.01806822986772366
          ],
          [
            -0.14901561207363145,
            0.2050315646395174,
            1.0194249438147198,
            -0.3753986413456994
          ],
          [
            0.5493177953225233,
            0.014807352767322554,
            0.11673478535927112,
            -0.4169673795795367
          ]
        ],
        "bias_hidden": [
          0.0,
          0.0,
          0.0,
          0.0,
          0.0,
          0.0,
          0.0,
          0.0
        ],
        "bias_output": [
          0.0,
          0.0,
          0.0,
          0.0
        ]
      }
    },
    {
      "fitness": 365.0,
      "food_collected": 1,
      "distance_traveled": 237.0,
      "generation": 2,
      "brain": {
        "input_size": 4,
        "hidden_size": 8,
        "output_size": 4,
        "weights_input_hidden": [
          [
            0.6974936553803537,
            0.5300255781302479,
            0.1475543530190845,
            -0.0735367370965443,
            0.08874336474325233,
            0.4769039306343451,
            0.3610581704914661,
            -1.4293600005131182
          ],
          [
            0.3954332706942529,
            -1.0921643892388413,
            -1.0715580505734543,
            -0.4489797228325434,
            -1.3094167638852858,
            0.85384788597371,
            -0.5699270067596353,
            0.2806658475841534
          ],
          [
            0.26521645933641746,
            0.3398674663874831,
            0.059309667968935394,
            0.3287858536981455,
            0.41727496139747294,
            -0.15905349585040945,
            -0.15962571134755044,
            -0.44147030188727765
          ],
          [
            -0.09998733325149724,
            0.07437210342679587,
            -0.6521167111290669,
            -0.9655025250404455,
            -0.06049619852398718,
            -0.04168745403111225,
            0.23267645951356494,
            -0.05093364719694662
          ]
        ],
        "weights_hidden_output": [
          [
            0.4035961355698072,
            0.5248787313518564,
            -0.7711957539359039,
            -0.7259051654435694
          ],
          [
            -1.2987861892206556,
            0.15178010887695143,
            -0.9277880155216078,
            -0.02275103379174235
          ],
          [
            -0.08026540210536166,
            -0.38872975276243016,
            0.09417519480620126,
            -0.2435964164880253
          ],
          [
            0.5646725567618205,
            -0.0740235321800029,
            -0.3787566289214209,
            -0.28892805710054476
          ],
          [
            0.1988743899752852,
            0.7812462621293063,
            0.30529259001008585,
            -0.5673776986717539
          ],
          [
            0.29284206616911673,
            -0.9275370259587963,
            0.095003158527475,
            0.8717792362766219
          ],
          [
            0.15099330176975073,
            0.30431435666685935,
            0.0028430212796604773,
            -0.023657316982770984
          ],
          [
            -0.07556911183796261,
            -0.43243933032063486,
            0.2229126620931424,
            0.09634995705485153
          ]
        ],
        "bias_hidden": [
          0.0,
          0.0,
          0.0,
          0.0,
          0.0,
          0.0,
          0.0,
          0.0
        ],
        "bias_output": [
          0.0,
          0.0,
          0.0,
          0.0
        ]
      }
    },
    {
      "fitness": 355.2,
      "food_collected": 1,
      "distance_traveled": 232.0,
      "generation": 2,
      "brain": {
        "input_size": 4,
        "hidden_size": 8,
        "output_size": 4,
        "weights_input_hidden": [
          [
            0.6974936553803537,
            0.2893750277348467,
            0.1475543530190845,
            -0.0735367370965443,
            0.2469122440662297,
            0.4769039306343451,
            0.3610581704914661,
            -1.4293600005131182
          ],
          [
            0.3954332706942529,
            -1.0921643892388413,
            -1.0715580505734543,
            -0.1569218313360829,
            -0.989633614202047,
            0.85384788597371,
            -0.5699270067596353,
            0.2806658475841534
          ],
          [
            0.26521645933641746,
            0.3398674663874831,
            0.059309667968935394,
            0.3287858536981455,
            0.41727496139747294,
            -0.15905349585040945,
            -0.15962571134755044,
            -0.44147030188727765
          ],
          [
            -0.09998733325149724,
            0.07437210342679587,
            -0.4292517538873792,
            -0.9655025250404455,
            -0.06049619852398718,
            -0.04168745403111225,
            0.23267645951356494,
            -0.05093364719694662
          ]
        ],
        "weights_hidden_output": [
          [
            0.4035961355698072,
            0.5248787313518564,
            -0.8491083342872849,
            -0.7259051654435694
          ],
          [
            -1.2987861892206556,
            0.15178010887695143,
            -0.9277880155216078,
            -0.02275103379174235
          ],
          [
            -0.08026540210536166,
            -0.38872975276243016,
            0.09417519480620126,
            -0.2435964164880253
          ],
          [
            0.5910645432604885,
            -0.0740235321800029,
            -0.3787566289214209,
            -0.28892805710054476
          ],
          [
            0.1988743899752852,
            0.7812462621293063,
            0.30529259001008585,
            -0.603180648188085
          ],
          [
            0.29284206616911673,
            -0.9275370259587963,
            0.095003158527475,
            0.9539271130266272
          ],
          [
            0.15099330176975073,
            0.706314503335078,
            0.08948483038367079,
            -0.023657316982770984
          ],
          [
            -0.07556911183796261,
            -0.2298735323012532,
            0.2229126620931424,
            0.09634995705485153
          ]
        ],
        "bias_hidden": [
          0.0,
          0.0,
          0.0,
          0.0,
          0.0,
          0.0,
          0.0,
          0.0
        ],
        "bias_output": [
          0.0,
          0.0,
          0.0,
          0.0
        ]
      }
    },
    {
      "fitness": 331.4,
      "food_collected": 1,
      "distance_traveled": 207.0,
      "generation": 4,
      "brain": {
        "input_size": 4,
        "hidden_size": 8,
        "output_size": 4,
        "weights_input_hidden": [
          [
            0.5427180442815858,
            0.24190345292067764,
            0.16079213572986714,
            0.9192533313349712,
            0.4468599127841088,
            0.10578998442457002,
            1.346304030510564,
            0.24693942464373925
          ],
          [
            -0.356717032221625,
            0.07746285839245777,
            -0.7465609750752271,
            -0.25351015193982074,
            -0.23510938524755137,
            0.021089042620459686,
            -0.189717989606733,
            0.7470588798582254
          ],
          [
            -0.219526073856034,
            -0.4326249807539741,
            0.1971793051636913,
            -0.6948245115284714,
            0.2893577369944355,
            -0.17951445087104792,
            0.5474970567124136,
            -0.5278220799435915
          ],
          [
            -0.2660880546167653,
            1.0748092917462615,
            -0.07054586835380755,
            0.008888387053048862,
            -0.20499071169055957,
            0.1765702580284964,
            0.23197798484334814,
            -0.2672127820693697
          ]
        ],
        "weights_hidden_output": [
          [
            0.33639806145176854,
            -1.1557915340306189,
            0.04556519161240435,
            -0.0608143509411136
          ],
          [
            -0.014613745175807097,
            0.18872793819993833,
            0.12892296369111142,
            -0.8138179972501959
          ],
          [
            0.2367807248822331,
            -0.397320406644609,
            -0.8796145218899319,
            -0.002066006475341279
          ],
          [
            -1.0034163337710476,
            -0.9882278758781678,
            0.337052903715124,
            0.9201016927268791
          ],
          [
            0.12888383656505084,
            0.45042438907939264,
            0.2679362514198464,
            0.3096357686690619
          ],
          [
            -0.4179551588654375,
            0.1753300926621187,
            0.36140086519770737,
            0.01806822986772366
          ],
          [
            -0.14901561207363145,
            0.20744343924827402,
            1.0194249438147198,
            -0.03256825729600632
          ],
          [
            0.704005148715591,
            0.014807352767322554,
            0.11673478535927112,
            -0.4169673795795367
          ]
        ],
        "bias_hidden": [
          0.0,
          0.0,
          0.0,
          0.0,
          0.0,
          0.0,
          0.0,
          0.0
        ],
        "bias_output": [
          0.0,
          0.0,
          0.0,
          0.0
        ]
      }
    },
    {
      "fitness": 322.7,
      "food_collected": 1,
      "distance_traveled": 192.0,
      "generation": 4,
      "brain": {
        "input_size": 4,
        "hidden_size": 8,
        "output_size": 4,
        "weights_input_hidden": [
          [
            0.1491106032690046,
            0.24190345292067764,
            0.13857283008586183,
            0.9192533313349712,
            0.4468599127841088,
            0.10578998442457002,
            1.346304030510564,
            0.24693942464373925
          ],
          [
            -0.5004796288830987,
            0.45794075711087395,
            -0.7465609750752271,
            -0.25351015193982074,
            -0.23510938524755137,
            0.27580617004895164,
            -0.189717989606733,
            0.7470588798582254
          ],
          [
            -0.219526073856034,
            -0.4326249807539741,
            0.1971793051636913,
            -0.6948245115284714,
            0.2893577369944355,
            -0.15704032091733972,
            0.5474970567124136,
            -0.5278220799435915
          ],
          [
            -0.2660880546167653,
            0.9521285029866289,
            -0.07054586835380755,
            0.008888387053048862,
            -0.050946220411533676,
            0.1765702580284964,
            0.23197798484334814,
            -0.2672127820693697
          ]
        ],
        "weights_hidden_output": [
          [
            0.4703405352202503,
            -0.9882532814945468,
            0.04556519161240435,
            -0.0608143509411136
          ],
          [
            -0.014613745175807097,
            0.18872793819993833,
            0.12892296369111142,
            -0.8138179972501959
          ],
          [
            0.2367807248822331,
            -0.397320406644609,
            -0.8796145218899319,
            -0.002066006475341279
          ],
          [
            -1.0034163337710476,
            -0.9882278758781678,
            0.337052903715124,
            0.9896876873458762
          ],
          [
            0.12888383656505084,
            0.45042438907939264,
            0.2679362514198464,
            0.42023287687551486
          ],
          [
            -0.4179551588654375,
            0.1753300926621187,
            0.36140086519770737,
            0.01806822986772366
          ],
          [
            -0.14901561207363145,
            0.20744343924827402,
            1.0194249438147198,
            -0.3753986413456994
          ],
          [
            0.704005148715591,
            0.014807352767322554,
            0.11673478535927112,
            -0.4169673795795367
          ]
        ],
        "bias_hidden": [
          0.0,
          0.0,
          0.0,
          0.0,
          0.0,
          0.0,
          0.0,
          0.0
        ],
        "bias_output": [
          0.0,
          0.0,
          0.0,
          0.0
        ]
      }
    }
  ]
}