{
  "timestamp": "20260109_161731",
  "generation": 0,
  "step": 3329,
  "best_fitness": 622.3,
  "count": 10,
  "networks": [
    {
      "fitness": 623.4,
      "food_collected": 3,
      "distance_traveled": 294.0,
      "generation": 3,
      "brain": {
        "input_size": 4,
        "hidden_size": 8,
        "output_size": 4,
        "weights_input_hidden": [
          [
            0.024116442388387102,
            -0.7902007708079996,
            -0.6762061882396688,
            0.27654506219575165,
            -0.21056117105330696,
            1.3169195293526907,
            0.108108381047573,
            -0.5033637590202469
          ],
          [
            0.17103308894392663,
            -0.16248442918252737,
            0.06870028999983793,
            1.1584010774919449,
            -0.6079208122543064,
            1.0271866596396229,
            -0.05022747226813505,
            0.23967546338356263
          ],
          [
            0.20380575487218042,
            -0.06078000400183753,
            -0.13090754030835935,
            0.5926678120598313,
            -0.2577629551426631,
            0.25509022038242196,
            0.6796845161316797,
            0.2090632207316837
          ],
          [
            -0.41497691468429415,
            0.7501360077827794,
            -0.6053963358541712,
            -0.3775035247062855,
            0.3578264997729272,
            1.060448055909653,
            0.42925608129326487,
            -0.04942447352727714
          ]
        ],
        "weights_hidden_output": [
          [
            -0.5291286902299096,
            0.6138775896102672,
            0.333729603046463,
            0.06051759345172927
          ],
          [
            0.32820157334651384,
            0.17533475411461974,
            -0.2622983286217724,
            0.139163166999409
          ],
          [
            0.03811129535545221,
            -0.047362153665093804,
            0.34387956210975584,
            -0.525594681301316
          ],
          [
            -0.18400275791845894,
            -0.17216125616726607,
            0.3796664664421575,
            0.6288678707494845
          ],
          [
            0.19038028214565125,
            0.5377751436013396,
            0.10742431352474163,
            -0.17971505821006972
          ],
          [
            -0.24445757349554986,
            0.2542986035032951,
            0.680155513154173,
            -0.09410859126327673
          ],
          [
            -0.02746006626697749,
            0.5526555815543872,
            -0.1680749610170463,
            0.3591774925744799
          ],
          [
            -0.06960402121265817,
            0.31402329497303855,
            -0.22598186622682429,
            -1.0340319735431942
          ]
        ],
        "bias_hidden": [
          0.0,
          0.0,
          0.0,
          0.0,
          0.0,
          0.0,
          0.0,
          0.0
        ],
        "bias_output": [
          0.0,
          0.0,
          0.0,
          0.0
        ]
      }
    },
    {
      "fitness": 534.4,
      "food_collected": 2,
      "distance_traveled": 304.0,
      "generation": 2,
      "brain": {
        "input_size": 4,
        "hidden_size": 8,
        "output_size": 4,
        "weights_input_hidden": [
          [
            -0.12781004918989264,
            0.3853534732202105,
            -0.7330757558649774,
            -0.6860509966216979,
            0.41363397513143335,
            0.4810135112813583,
            0.12875562034474153,
            -0.3265081090357487
          ],
          [
            -0.502928367187325,
            -0.3650689514868153,
            0.06177364761586601,
            -0.08282351217449291,
            -0.4943336533633994,
            0.6944308878827233,
            0.27521482375572287,
            -0.1929872564007796
          ],
          [
            -1.0175838820015426,
            -0.06687966653185501,
            -0.6478901437826107,
            -0.36546704700401883,
            0.881518154162492,
            0.7792130176986692,
            -0.3415696633969765,
            0.061415129595998444
          ],
          [
            0.13978661920347657,
            0.17019650351494203,
            0.1928786652655509,
            -0.596049556337811,
            -0.39529152778982496,
            -0.537957034262413,
            -0.21599886620420705,
            -0.11481684653551492
          ]
        ],
        "weights_hidden_output": [
          [
            -0.18479607722147265,
            0.8304807146349604,
            0.5543814790045762,
            0.3503322343793316
          ],
          [
            -0.2987014357582494,
            -0.6102087221259302,
            0.27259024943318766,
            -0.29853166274132376
          ],
          [
            -0.17010380129346506,
            0.45647409687685403,
            0.07917424638328331,
            -0.11475044419785897
          ],
          [
            0.06380844157894643,
            -0.29359971171655097,
            -0.6437963187854409,
            0.5537878825190424
          ],
          [
            -0.895951513250962,
            -0.6468212852886012,
            0.6723990219228012,
            -0.8753993696221505
          ],
          [
            -0.5158413771024632,
            0.4012601447704852,
            -0.17630972685676674,
            0.1676935837869638
          ],
          [
            -0.36405461218837776,
            -0.37821989279751383,
            -0.3581268228711866,
            0.027657668790548706
          ],
          [
            -0.4904933530408703,
            0.009729816999262418,
            0.5572315004678077,
            -0.28819212553017215
          ]
        ],
        "bias_hidden": [
          0.0,
          0.0,
          0.0,
          0.0,
          0.0,
          0.0,
          0.0,
          0.0
        ],
        "bias_output": [
          0.0,
          0.0,
          0.0,
          0.0
        ]
      }
    },
    {
      "fitness": 513.5,
      "food_collected": 2,
      "distance_traveled": 282.0,
      "generation": 5,
      "brain": {
        "input_size": 4,
        "hidden_size": 8,
        "output_size": 4,
        "weights_input_hidden": [
          [
            -0.3044496632933764,
            0.05903921841942863,
            -0.7330757558649774,
            -0.901536962417557,
            0.41363397513143335,
            0.4736659220749153,
            0.32816778999010865,
            0.19335393286093616
          ],
          [
            -0.502928367187325,
            -0.3650689514868153,
            0.06177364761586601,
            0.102175290014456,
            -0.4943336533633994,
            0.771226089122153,
            0.34387184975381296,
            -0.1929872564007796
          ],
          [
            -0.7008824670265301,
            -0.47213070166592297,
            -0.5611327378450278,
            -0.36546704700401883,
            0.881518154162492,
            0.7792130176986692,
            -0.30611307210675526,
            0.061415129595998444
          ],
          [
            0.13978661920347657,
            0.17019650351494203,
            0.1928786652655509,
            -0.596049556337811,
            -0.4724023491210858,
            -0.40783116453071716,
            -0.2841915524562405,
            -0.012427868334733694
          ]
        ],
        "weights_hidden_output": [
          [
            -0.18479607722147265,
            0.8304807146349604,
            0.727515898465447,
            0.3503322343793316
          ],
          [
            -0.318535402749377,
            -0.5069882537911979,
            0.6547250101922079,
            -0.29853166274132376
          ],
          [
            -0.4077443169908592,
            0.40392233200442706,
            0.07917424638328331,
            -0.24030235153657553
          ],
          [
            0.06380844157894643,
            -0.2753343958635577,
            -0.6539380132103325,
            0.731925313083345
          ],
          [
            -0.895951513250962,
            -0.6468212852886012,
            0.5715243929956698,
            -0.8753993696221505
          ],
          [
            -0.5994470572491368,
            0.5849341486953339,
            -0.20485315917014435,
            -0.01605466303012365
          ],
          [
            -0.36405461218837776,
            -0.37821989279751383,
            -0.14138470693930016,
            0.26200833886777763
          ],
          [
            -0.4904933530408703,
            0.009729816999262418,
            0.5912184670706974,
            -0.17114649653642328
          ]
        ],
        "bias_hidden": [
          0.0,
          0.0,
          0.0,
          0.0,
          0.0,
          0.0,
          0.0,
          0.0
        ],
        "bias_output": [
          0.0,
          0.0,
          0.0,
          0.0
        ]
      }
    },
    {
      "fitness": 510.6,
      "food_collected": 3,
      "distance_traveled": 175.0,
      "generation": 6,
      "brain": {
        "input_size": 4,
        "hidden_size": 8,
        "output_size": 4,
        "weights_input_hidden": [
          [
            -0.3044496632933764,
            0.05903921841942863,
            -0.7330757558649774,
            -0.901536962417557,
            0.41363397513143335,
            0.4736659220749153,
            0.32816778999010865,
            0.19335393286093616
          ],
          [
            -0.2649039001393447,
            -0.3650689514868153,
            0.06177364761586601,
            0.102175290014456,
            -0.4943336533633994,
            0.771226089122153,
            0.34387184975381296,
            -0.1929872564007796
          ],
          [
            -0.7008824670265301,
            -0.47213070166592297,
            -0.38277748728355027,
            -0.36546704700401883,
            0.881518154162492,
            0.7792130176986692,
            -0.30611307210675526,
            0.061415129595998444
          ],
          [
            0.13978661920347657,
            0.17019650351494203,
            0.1928786652655509,
            -0.596049556337811,
            -0.4724023491210858,
            -0.40783116453071716,
            -0.2841915524562405,
            -0.012427868334733694
          ]
        ],
        "weights_hidden_output": [
          [
            0.046815347528614076,
            0.8304807146349604,
            0.727515898465447,
            0.3503322343793316
          ],
          [
            -0.318535402749377,
            -0.7851392358673541,
            0.3141574151606383,
            -0.29853166274132376
          ],
          [
            -0.4077443169908592,
            0.40392233200442706,
            0.07917424638328331,
            -0.24030235153657553
          ],
          [
            0.06380844157894643,
            -0.2753343958635577,
            -0.6539380132103325,
            0.731925313083345
          ],
          [
            -0.895951513250962,
            -0.6468212852886012,
            0.5715243929956698,
            -0.8753993696221505
          ],
          [
            -0.5994470572491368,
            0.5849341486953339,
            -0.33312029392623266,
            0.45422406923050224
          ],
          [
            -0.36405461218837776,
            -0.37821989279751383,
            -0.14138470693930016,
            0.26200833886777763
          ],
          [
            -0.4904933530408703,
            0.009729816999262418,
            0.5912184670706974,
            -0.0004868894482558117
          ]
        ],
        "bias_hidden": [
          0.0,
          0.0,
          0.0,
          0.0,
          0.0,
          0.0,
          0.0,
          0.0
        ],
        "bias_output": [
          0.0,
          0.0,
          0.0,
          0.0
        ]
      }
    },
    {
      "fitness": 489.7,
      "food_collected": 3,
      "distance_traveled": 160.0,
      "generation": 5,
      "brain": {
        "input_size": 4,
        "hidden_size": 8,
        "output_size": 4,
        "weights_input_hidden": [
          [
            -0.10566462439436553,
            0.05903921841942863,
            -0.7330757558649774,
            -0.901536962417557,
            0.41363397513143335,
            0.4736659220749153,
            0.32816778999010865,
            0.19335393286093616
          ],
          [
            -0.6407260480629962,
            -0.3650689514868153,
            0.06177364761586601,
            0.102175290014456,
            -0.4943336533633994,
            0.771226089122153,
            0.34387184975381296,
            -0.1929872564007796
          ],
          [
            -0.816942440364785,
            -0.30388229874905304,
            -0.54004316324814,
            -0.36546704700401883,
            0.881518154162492,
            0.7792130176986692,
            -0.30611307210675526,
            0.061415129595998444
          ],
          [
            0.13978661920347657,
            0.17019650351494203,
            0.1928786652655509,
            -0.596049556337811,
            -0.4724023491210858,
            -0.40783116453071716,
            -0.28115439257587743,
            -0.012427868334733694
          ]
        ],
        "weights_hidden_output": [
          [
            -0.18479607722147265,
            0.8304807146349604,
            0.9683670776491092,
            0.3503322343793316
          ],
          [
            -0.318535402749377,
            -0.5069882537911979,
            0.6547250101922079,
            -0.29853166274132376
          ],
          [
            -0.4077443169908592,
            0.40392233200442706,
            0.07917424638328331,
            -0.14848180552538545
          ],
          [
            0.06380844157894643,
            -0.21977613503789328,
            -0.6539380132103325,
            0.731925313083345
          ],
          [
            -0.895951513250962,
            -0.6468212852886012,
            0.5715243929956698,
            -0.8753993696221505
          ],
          [
            -0.5994470572491368,
            0.630105265524365,
            -0.20485315917014435,
            -0.01605466303012365
          ],
          [
            -0.36405461218837776,
            -0.37821989279751383,
            -0.3581268228711866,
            0.26200833886777763
          ],
          [
            -0.4904933530408703,
            0.009729816999262418,
            0.5912184670706974,
            -0.4296285209941217
          ]
        ],
        "bias_hidden": [
          0.0,
          0.0,
          0.0,
          0.0,
          0.0,
          0.0,
          0.0,
          0.0
        ],
        "bias_output": [
          0.0,
          0.0,
          0.0,
          0.0
        ]
      }
    },
    {
      "fitness": 454.1,
      "food_collected": 2,
      "distance_traveled": 231.0,
      "generation": 3,
      "brain": {
        "input_size": 4,
        "hidden_size": 8,
        "output_size": 4,
        "weights_input_hidden": [
          [
            -0.3044496632933764,
            0.02182133992931448,
            -0.7330757558649774,
            -0.901536962417557,
            0.41363397513143335,
            0.4736659220749153,
            0.32816778999010865,
            0.06502771538639608
          ],
          [
            -0.502928367187325,
            -0.3650689514868153,
            0.06177364761586601,
            0.102175290014456,
            -0.4943336533633994,
            0.771226089122153,
            0.27521482375572287,
            -0.1929872564007796
          ],
          [
            -0.8216686781380401,
            -0.30388229874905304,
            -0.5611327378450278,
            -0.36546704700401883,
            0.881518154162492,
            0.7792130176986692,
            -0.30611307210675526,
            0.061415129595998444
          ],
          [
            0.13978661920347657,
            0.17019650351494203,
            0.1928786652655509,
            -0.596049556337811,
            -0.39529152778982496,
            -0.40783116453071716,
            -0.28115439257587743,
            0.0692576803600131
          ]
        ],
        "weights_hidden_output": [
          [
            -0.18479607722147265,
            0.8304807146349604,
            0.9683670776491092,
            0.3503322343793316
          ],
          [
            -0.2987014357582494,
            -0.5069882537911979,
            0.6547250101922079,
            -0.29853166274132376
          ],
          [
            -0.4077443169908592,
            0.40392233200442706,
            0.07917424638328331,
            -0.24030235153657553
          ],
          [
            0.06380844157894643,
            -0.21977613503789328,
            -0.6539380132103325,
            0.731925313083345
          ],
          [
            -0.895951513250962,
            -0.6468212852886012,
            0.5715243929956698,
            -0.8753993696221505
          ],
          [
            -0.5158413771024632,
            0.5849341486953339,
            -0.20485315917014435,
            -0.01605466303012365
          ],
          [
            -0.36405461218837776,
            -0.37821989279751383,
            -0.3581268228711866,
            0.26200833886777763
          ],
          [
            -0.4904933530408703,
            0.009729816999262418,
            0.5912184670706974,
            -0.17114649653642328
          ]
        ],
        "bias_hidden": [
          0.0,
          0.0,
          0.0,
          0.0,
          0.0,
          0.0,
          0.0,
          0.0
        ],
        "bias_output": [
          0.0,
          0.0,
          0.0,
          0.0
        ]
      }
    },
    {
      "fitness": 452.6,
      "food_collected": 2,
      "distance_traveled": 212.0,
      "generation": 1,
      "brain": {
        "input_size": 4,
        "hidden_size": 8,
        "output_size": 4,
        "weights_input_hidden": [
          [
            -0.12029616046279017,
            -0.7902007708079996,
            -0.6762061882396688,
            0.27654506219575165,
            -0.21056117105330696,
            1.300102370092204,
            0.108108381047573,
            -0.5033637590202469
          ],
          [
            0.17103308894392663,
            0.03593224980005638,
            0.06870028999983793,
            1.1584010774919449,
            -0.7543064768776485,
            1.0271866596396229,
            -0.05022747226813505,
            0.23967546338356263
          ],
          [
            0.20380575487218042,
            -0.06078000400183753,
            -0.13090754030835935,
            0.6486947678870695,
            -0.1217511051105931,
            0.25509022038242196,
            0.3901131105688166,
            0.2090632207316837
          ],
          [
            -0.3934771688390696,
            0.7501360077827794,
            -0.37345683762581466,
            -0.3775035247062855,
            0.3578264997729272,
            0.8801305898820568,
            0.42925608129326487,
            -0.04942447352727714
          ]
        ],
        "weights_hidden_output": [
          [
            -0.5291286902299096,
            0.4713833856973408,
            0.333729603046463,
            0.06051759345172927
          ],
          [
            0.2875299770393657,
            0.17533475411461974,
            -0.35473648841087263,
            0.139163166999409
          ],
          [
            0.18503247798112984,
            -0.047362153665093804,
            0.34387956210975584,
            -0.3632251752687603
          ],
          [
            -0.18400275791845894,
            -0.17216125616726607,
            0.3796664664421575,
            0.6288678707494845
          ],
          [
            0.19038028214565125,
            0.43338249096851245,
            0.5430849422504764,
            -0.2643828186213822
          ],
          [
            -0.03033854145451601,
            0.10599702119735353,
            0.680155513154173,
            -0.09410859126327673
          ],
          [
            -0.02746006626697749,
            0.5526555815543872,
            -0.1680749610170463,
            0.3591774925744799
          ],
          [
            -0.06960402121265817,
            -0.10079191710198104,
            -0.22598186622682429,
            -0.8069440716331968
          ]
        ],
        "bias_hidden": [
          0.0,
          0.0,
          0.0,
          0.0,
          0.0,
          0.0,
          0.0,
          0.0
        ],
        "bias_output": [
          0.0,
          0.0,
          0.0,
          0.0
        ]
      }
    },
    {
      "fitness": 433.0,
      "food_collected": 2,
      "distance_traveled": 199.0,
      "generation": 2,
      "brain": {
        "input_size": 4,
        "hidden_size": 8,
        "output_size": 4,
        "weights_input_hidden": [
          [
            0.024116442388387102,
            -0.7902007708079996,
            -0.6762061882396688,
            0.27654506219575165,
            -0.21056117105330696,
            1.3169195293526907,
            0.108108381047573,
            -0.5033637590202469
          ],
          [
            0.17103308894392663,
            -0.16248442918252737,
            0.06870028999983793,
            1.1584010774919449,
            -0.7543064768776485,
            1.0271866596396229,
            -0.05022747226813505,
            0.23967546338356263
          ],
          [
            0.20380575487218042,
            -0.06078000400183753,
            -0.13090754030835935,
            0.6486947678870695,
            -0.2577629551426631,
            0.25509022038242196,
            0.6796845161316797,
            0.2090632207316837
          ],
          [
            -0.3934771688390696,
            0.7501360077827794,
            -0.6053963358541712,
            -0.3775035247062855,
            0.3578264997729272,
            1.060448055909653,
            0.42925608129326487,
            -0.04942447352727714
          ]
        ],
        "weights_hidden_output": [
          [
            -0.5291286902299096,
            0.6138775896102672,
            0.333729603046463,
            0.06051759345172927
          ],
          [
            0.32820157334651384,
            0.17533475411461974,
            -0.2622983286217724,
            0.139163166999409
          ],
          [
            0.18503247798112984,
            -0.047362153665093804,
            0.34387956210975584,
            -0.525594681301316
          ],
          [
            -0.18400275791845894,
            -0.17216125616726607,
            0.3796664664421575,
            0.6288678707494845
          ],
          [
            0.19038028214565125,
            0.5377751436013396,
            0.10742431352474163,
            -0.17971505821006972
          ],
          [
            -0.06868231644708321,
            0.2542986035032951,
            0.680155513154173,
            -0.09410859126327673
          ],
          [
            -0.02746006626697749,
            0.5526555815543872,
            -0.1680749610170463,
            0.3591774925744799
          ],
          [
            -0.06960402121265817,
            0.31402329497303855,
            -0.22598186622682429,
            -1.0340319735431942
          ]
        ],
        "bias_hidden": [
          0.0,
          0.0,
          0.0,
          0.0,
          0.0,
          0.0,
          0.0,
          0.0
        ],
        "bias_output": [
          0.0,
          0.0,
          0.0,
          0.0
        ]
      }
    },
    {
      "fitness": 429.5,
      "food_collected": 2,
      "distance_traveled": 201.0,
      "generation": 2,
      "brain": {
        "input_size": 4,
        "hidden_size": 8,
        "output_size": 4,
        "weights_input_hidden": [
          [
            -0.12029616046279017,
            -0.9380671051889454,
            -0.6762061882396688,
            0.27654506219575165,
            -0.21056117105330696,
            1.300102370092204,
            0.108108381047573,
            -0.5033637590202469
          ],
          [
            0.17103308894392663,
            0.03593224980005638,
            0.06870028999983793,
            1.1584010774919449,
            -0.7543064768776485,
            1.0271866596396229,
            -0.05022747226813505,
            0.23967546338356263
          ],
          [
            0.20380575487218042,
            -0.06078000400183753,
            -0.13090754030835935,
            0.6486947678870695,
            -0.1217511051105931,
            0.25509022038242196,
            0.3901131105688166,
            0.2090632207316837
          ],
          [
            -0.3934771688390696,
            0.7501360077827794,
            -0.37345683762581466,
            -0.3775035247062855,
            0.3578264997729272,
            0.8801305898820568,
            0.42925608129326487,
            -0.04942447352727714
          ]
        ],
        "weights_hidden_output": [
          [
            -0.5291286902299096,
            0.4713833856973408,
            0.420594033534817,
            0.06051759345172927
          ],
          [
            0.23977337190563683,
            0.17533475411461974,
            -0.35473648841087263,
            0.139163166999409
          ],
          [
            0.18503247798112984,
            -0.047362153665093804,
            0.34387956210975584,
            -0.3632251752687603
          ],
          [
            -0.18400275791845894,
            -0.15563225778831793,
            0.3796664664421575,
            0.6288678707494845
          ],
          [
            0.19038028214565125,
            0.43338249096851245,
            0.5430849422504764,
            -0.2643828186213822
          ],
          [
            -0.03033854145451601,
            0.10599702119735353,
            0.680155513154173,
            -0.09410859126327673
          ],
          [
            -0.02746006626697749,
            0.49447657230219,
            -0.1680749610170463,
            0.3591774925744799
          ],
          [
            0.2465222057258134,
            -0.10079191710198104,
            -0.22598186622682429,
            -0.7762726104218092
          ]
        ],
        "bias_hidden": [
          0.0,
          0.0,
          0.0,
          0.0,
          0.0,
          0.0,
          0.0,
          0.0
        ],
        "bias_output": [
          0.0,
          0.0,
          0.0,
          0.0
        ]
      }
    },
    {
      "fitness": 417.9,
      "food_collected": 1,
      "distance_traveled": 289.0,
      "generation": 4,
      "brain": {
        "input_size": 4,
        "hidden_size": 8,
        "output_size": 4,
        "weights_input_hidden": [
          [
            -0.12781004918989264,
            0.02182133992931448,
            -0.7330757558649774,
            -0.901536962417557,
            -0.15249766094345726,
            0.4810135112813583,
            0.32816778999010865,
            0.06502771538639608
          ],
          [
            -0.502928367187325,
            -0.3650689514868153,
            0.06177364761586601,
            -0.08282351217449291,
            -0.4943336533633994,
            0.771226089122153,
            0.27521482375572287,
            -0.1929872564007796
          ],
          [
            -0.8216686781380401,
            -0.06687966653185501,
            -0.5611327378450278,
            -0.36546704700401883,
            0.881518154162492,
            1.0514144880357976,
            -0.30611307210675526,
            0.061415129595998444
          ],
          [
            0.13978661920347657,
            0.17019650351494203,
            0.1928786652655509,
            -0.596049556337811,
            -0.38345962775332015,
            -0.537957034262413,
            -0.28115439257587743,
            0.0692576803600131
          ]
        ],
        "weights_hidden_output": [
          [
            -0.18479607722147265,
            0.8304807146349604,
            1.25049788620582,
            0.3503322343793316
          ],
          [
            -0.3128440312398201,
            -0.5069882537911979,
            0.27259024943318766,
            -0.29853166274132376
          ],
          [
            -0.4077443169908592,
            0.40392233200442706,
            -0.05000236259570119,
            -0.11475044419785897
          ],
          [
            0.06380844157894643,
            0.15161945906726593,
            -0.6539380132103325,
            0.5537878825190424
          ],
          [
            -0.8521014954933581,
            -0.6468212852886012,
            0.5439349889883514,
            -0.6489469531510139
          ],
          [
            -0.5158413771024632,
            0.5849341486953339,
            -0.20485315917014435,
            -0.01605466303012365
          ],
          [
            -0.4919394995363182,
            -0.37821989279751383,
            -0.3581268228711866,
            0.26200833886777763
          ],
          [
            -0.3294222249363343,
            0.009729816999262418,
            0.5912184670706974,
            -0.17114649653642328
          ]
        ],
        "bias_hidden": [
          0.0,
          0.0,
          0.0,
          0.0,
          0.0,
          0.0,
          0.0,
          0.0
        ],
        "bias_output": [
          0.0,
          0.0,
          0.0,
          0.0
        ]
      }
    }
  ]
}