{
  "timestamp": "20260109_194628",
  "generation": 7,
  "step": 1600,
  "best_fitness": 200.0,
  "count": 5,
  "networks": [
    {
      "fitness": 200.0,
      "food_collected": 1,
      "distance_traveled": 200.0,
      "brain": {
        "input_size": 5,
        "hidden_size": 8,
        "output_size": 4,
        "weights_input_hidden": [
          [
            0.25025429655604464,
            0.0013341380664396425,
            -0.7042682586023244,
            0.06820186458626092,
            -0.6260764915307473,
            0.005580930477564137,
            -0.4223639038411588,
            -0.3157432142409246
          ],
          [
            -0.2561336452830378,
            -0.020805625714988632,
            -0.0865051331115133,
            1.2168654810947288,
            -0.5167935530180352,
            0.4698721320727996,
            -0.12737016346865554,
            0.02732440769010493
          ],
          [
            -0.2754052987503147,
            -1.1901605741860495,
            0.10722996151666411,
            -0.7787832008290874,
            0.4584988987478421,
            0.2837472149805376,
            0.000243129287799534,
            -0.6993286695729897
          ],
          [
            -1.034832328503574,
            0.41516757287697303,
            0.6067967896079589,
            0.10812241241071538,
            -0.40779869294548743,
            -0.011934929009678373,
            -0.20004736710350185,
            0.8426017254440434
          ],
          [
            -0.27432564295835443,
            -0.06742434298075965,
            0.39661775675989086,
            -0.04408362960593185,
            0.11082205300363518,
            -0.5173627501537571,
            -0.6033557402478041,
            0.5881738147467426
          ]
        ],
        "weights_hidden_output": [
          [
            0.11400646071369919,
            1.3818880692288502,
            0.24701122748338616,
            0.4327549704452977
          ],
          [
            0.012234779832976541,
            0.044452239008338404,
            -0.2974504047290996,
            0.15980726313803423
          ],
          [
            0.35172714662086335,
            -0.21113227316973188,
            0.01616823508358211,
            -0.4765632609957245
          ],
          [
            0.12236625433288506,
            0.07998516802076368,
            0.28816622489720145,
            0.36598347296348144
          ],
          [
            0.33713067396378493,
            0.6214742012046973,
            -0.16393208046982105,
            -0.4167262373807044
          ],
          [
            0.5949229900622487,
            0.4257961330532084,
            -0.14777929079830593,
            -0.7482234841099118
          ],
          [
            -0.12651005272029828,
            -0.7909993276920395,
            0.2969995089902715,
            0.1442529051553612
          ],
          [
            0.7859008434036082,
            0.07084199842644956,
            0.3135735766448884,
            -0.7186293474975427
          ]
        ],
        "bias_hidden": [
          0.0,
          0.0,
          0.0,
          0.0,
          0.0,
          0.0,
          0.0,
          0.0
        ],
        "bias_output": [
          0.0,
          0.0,
          0.0,
          0.0
        ]
      }
    },
    {
      "fitness": 188.0,
      "food_collected": 1,
      "distance_traveled": 188.0,
      "brain": {
        "input_size": 5,
        "hidden_size": 8,
        "output_size": 4,
        "weights_input_hidden": [
          [
            0.25025429655604464,
            0.0013341380664396425,
            -0.7042682586023244,
            0.06820186458626092,
            -0.6260764915307473,
            0.005580930477564137,
            -0.3075729554077462,
            -0.3157432142409246
          ],
          [
            -0.2561336452830378,
            -0.020805625714988632,
            -0.0865051331115133,
            1.2168654810947288,
            -0.5167935530180352,
            0.44627156723099154,
            -0.12737016346865554,
            0.02732440769010493
          ],
          [
            -0.3444954089848876,
            -1.1102456099214435,
            0.10722996151666411,
            -0.7787832008290874,
            0.4584988987478421,
            0.2837472149805376,
            0.000243129287799534,
            -0.810432537060945
          ],
          [
            -1.034832328503574,
            0.41516757287697303,
            0.6067967896079589,
            0.10812241241071538,
            -0.40779869294548743,
            -0.011934929009678373,
            -0.20004736710350185,
            0.8426017254440434
          ],
          [
            -0.27432564295835443,
            -0.06742434298075965,
            0.4067596690086827,
            -0.04408362960593185,
            0.11082205300363518,
            -0.5173627501537571,
            -0.6033557402478041,
            0.5881738147467426
          ]
        ],
        "weights_hidden_output": [
          [
            0.11400646071369919,
            1.3818880692288502,
            0.14351599478559382,
            0.4327549704452977
          ],
          [
            0.012234779832976541,
            0.044452239008338404,
            -0.2974504047290996,
            0.15980726313803423
          ],
          [
            0.35172714662086335,
            -0.21113227316973188,
            0.01616823508358211,
            -0.4765632609957245
          ],
          [
            0.039455204879724516,
            0.07998516802076368,
            0.28816622489720145,
            0.36598347296348144
          ],
          [
            0.3087789219190576,
            0.6214742012046973,
            -0.16393208046982105,
            -0.4167262373807044
          ],
          [
            0.5949229900622487,
            0.4257961330532084,
            -0.14777929079830593,
            -0.7482234841099118
          ],
          [
            -0.12651005272029828,
            -0.7909993276920395,
            0.2969995089902715,
            0.1442529051553612
          ],
          [
            0.7859008434036082,
            0.07084199842644956,
            0.3135735766448884,
            -0.7186293474975427
          ]
        ],
        "bias_hidden": [
          0.0,
          0.0,
          0.0,
          0.0,
          0.0,
          0.0,
          0.0,
          0.0
        ],
        "bias_output": [
          0.0,
          0.0,
          0.0,
          0.0
        ]
      }
    },
    {
      "fitness": 47.0,
      "food_collected": 1,
      "distance_traveled": 47.0,
      "brain": {
        "input_size": 5,
        "hidden_size": 8,
        "output_size": 4,
        "weights_input_hidden": [
          [
            0.25025429655604464,
            0.0013341380664396425,
            -0.7042682586023244,
            0.06820186458626092,
            -0.6260764915307473,
            0.005580930477564137,
            -0.3075729554077462,
            -0.3157432142409246
          ],
          [
            -0.2561336452830378,
            -0.020805625714988632,
            -0.0865051331115133,
            1.2168654810947288,
            -0.5292152531040288,
            0.44627156723099154,
            -0.1312213835239597,
            0.02732440769010493
          ],
          [
            -0.3444954089848876,
            -1.1102456099214435,
            0.10722996151666411,
            -0.7787832008290874,
            0.4584988987478421,
            0.2837472149805376,
            0.000243129287799534,
            -0.810432537060945
          ],
          [
            -1.034832328503574,
            0.41516757287697303,
            0.6067967896079589,
            0.10812241241071538,
            -0.520925691735714,
            -0.011934929009678373,
            -0.20004736710350185,
            0.8426017254440434
          ],
          [
            -0.27432564295835443,
            -0.06742434298075965,
            0.4067596690086827,
            -0.04408362960593185,
            0.11082205300363518,
            -0.5173627501537571,
            -0.6033557402478041,
            0.3752713877817053
          ]
        ],
        "weights_hidden_output": [
          [
            0.11400646071369919,
            1.3818880692288502,
            0.14351599478559382,
            0.4327549704452977
          ],
          [
            0.012234779832976541,
            0.044452239008338404,
            -0.2974504047290996,
            0.15980726313803423
          ],
          [
            0.35172714662086335,
            -0.21113227316973188,
            0.01616823508358211,
            -0.4765632609957245
          ],
          [
            0.039455204879724516,
            0.07998516802076368,
            0.28816622489720145,
            0.36598347296348144
          ],
          [
            0.3087789219190576,
            0.6214742012046973,
            -0.16393208046982105,
            -0.4167262373807044
          ],
          [
            0.5949229900622487,
            0.4257961330532084,
            -0.14777929079830593,
            -0.6618281537400611
          ],
          [
            -0.12651005272029828,
            -0.7909993276920395,
            0.2969995089902715,
            0.1442529051553612
          ],
          [
            0.7859008434036082,
            0.045992951511420084,
            0.3135735766448884,
            -0.7186293474975427
          ]
        ],
        "bias_hidden": [
          0.0,
          0.0,
          0.0,
          0.0,
          0.0,
          0.0,
          0.0,
          0.0
        ],
        "bias_output": [
          0.0,
          0.0,
          0.0,
          0.0
        ]
      }
    },
    {
      "fitness": 0.0,
      "food_collected": 0,
      "distance_traveled": 0.0,
      "brain": {
        "input_size": 5,
        "hidden_size": 8,
        "output_size": 4,
        "weights_input_hidden": [
          [
            -0.11411968078142559,
            0.7394986392285213,
            -0.6898862208909896,
            0.13277325382029775,
            0.47121586345069394,
            -0.0010371952933150264,
            -0.069666750626334,
            -0.9269090337532742
          ],
          [
            -0.16500400359885778,
            -0.7873281721792622,
            -0.835502500049528,
            0.28809532136639066,
            -0.006898161116051216,
            0.4299727188124097,
            0.4142874565046705,
            0.10686066381945515
          ],
          [
            0.8032916618247847,
            0.5959176126228326,
            -0.8894326011615151,
            0.7631259372648087,
            -0.05215237506575433,
            -0.2811714504669403,
            0.4832661362078745,
            0.11690602731415432
          ],
          [
            -0.17983158535099678,
            -0.3314538769582734,
            0.08628045709658015,
            -0.7801315705176376,
            -0.2029834211063381,
            -0.292027092897717,
            0.29436176515686446,
            0.30850407188007534
          ],
          [
            0.25562503985252555,
            -0.3600341424516713,
            -0.08589280731198069,
            0.41610216103744346,
            0.3165129596981755,
            -0.5104886226771359,
            -0.8787417178868018,
            0.6654474736367958
          ]
        ],
        "weights_hidden_output": [
          [
            0.00402179202933586,
            0.1667167936317176,
            0.06846145335499185,
            0.25646891884287926
          ],
          [
            0.06238962361084431,
            -0.2661871325199564,
            -0.2638605862901013,
            0.20990893076722208
          ],
          [
            0.2269350851657398,
            0.3260224158248235,
            0.9100234824253818,
            -0.20507577186989567
          ],
          [
            -0.06771636453124522,
            0.1677639496490006,
            0.03358916927144062,
            0.21617405107924567
          ],
          [
            0.640160040028367,
            -0.0013743149678724083,
            0.5214300462781523,
            0.22793616293036628
          ],
          [
            0.15706119819703188,
            -0.32150779359926096,
            -0.2921430258251599,
            -0.16888676288315896
          ],
          [
            -0.3501499407592684,
            -0.1513870901072504,
            -0.2644386644711714,
            0.24683517149865752
          ],
          [
            -0.4702184979079563,
            -0.3774729461760625,
            -0.4483374835476937,
            0.333628493350279
          ]
        ],
        "bias_hidden": [
          0.0,
          0.0,
          0.0,
          0.0,
          0.0,
          0.0,
          0.0,
          0.0
        ],
        "bias_output": [
          0.0,
          0.0,
          0.0,
          0.0
        ]
      }
    },
    {
      "fitness": 0.0,
      "food_collected": 0,
      "distance_traveled": 0.0,
      "brain": {
        "input_size": 5,
        "hidden_size": 8,
        "output_size": 4,
        "weights_input_hidden": [
          [
            0.2334089484032345,
            0.3355521688974916,
            0.43401802428125374,
            0.41340689220742854,
            0.6840530952301447,
            -0.2522103632224623,
            -0.6728839532424158,
            -0.04855615332946791
          ],
          [
            0.9240721126651784,
            0.15462170446301085,
            0.21035704928092538,
            0.1719776376171372,
            0.07088235959614629,
            0.11389009312557452,
            -0.2088380831011014,
            0.30853044846978195
          ],
          [
            0.46849091695510575,
            -0.03220009751279976,
            -0.4637344674111677,
            -0.5720657738637984,
            -0.733327211105099,
            -0.11707234170508841,
            -0.16502992836232325,
            -0.006271792503667937
          ],
          [
            -0.3466190782188695,
            -0.11806963318142331,
            -0.6086031398592394,
            -0.31932089642419176,
            -0.6319896309189283,
            -0.9811775998169403,
            -0.3196293201734425,
            0.029741799348105537
          ],
          [
            -0.01635551466234527,
            0.79411255075433,
            0.006905211307322245,
            -0.7849012337772407,
            -0.04240954236773289,
            -0.09262177392829873,
            -0.12990004668686006,
            0.7630676586516049
          ]
        ],
        "weights_hidden_output": [
          [
            0.6793756380531443,
            0.32559921027792776,
            -0.209575859581598,
            -0.24732665507668763
          ],
          [
            -0.22790246880383822,
            0.8032506847679441,
            -0.08854283879883679,
            0.3217169782475448
          ],
          [
            0.03789754503573696,
            -0.6118966112481743,
            0.3726621642724687,
            0.09497319548345111
          ],
          [
            -0.859397717440575,
            0.6609657024741419,
            -0.10682004027927904,
            -0.45473037862255383
          ],
          [
            -0.2908392267510347,
            -0.24750437298694405,
            0.2547823954120582,
            0.460782195384166
          ],
          [
            0.31241244741160096,
            -0.4357816918459585,
            0.4471747138333636,
            -0.5277356179692538
          ],
          [
            0.4060340447145713,
            0.3854668230830138,
            -0.30251188052027994,
            0.5677339949803378
          ],
          [
            0.2491192095302329,
            0.0907056628890886,
            0.31517947091609677,
            0.7901425146640804
          ]
        ],
        "bias_hidden": [
          0.0,
          0.0,
          0.0,
          0.0,
          0.0,
          0.0,
          0.0,
          0.0
        ],
        "bias_output": [
          0.0,
          0.0,
          0.0,
          0.0
        ]
      }
    }
  ]
}