{
  "timestamp": "20260109_194622",
  "generation": 2,
  "step": 600,
  "best_fitness": 200.0,
  "count": 5,
  "networks": [
    {
      "fitness": 200.0,
      "food_collected": 1,
      "distance_traveled": 200.0,
      "brain": {
        "input_size": 5,
        "hidden_size": 8,
        "output_size": 4,
        "weights_input_hidden": [
          [
            0.17036135820923004,
            -0.9064978173049071,
            0.4439257827412204,
            0.30915226706307875,
            0.6017796981312907,
            1.2317986554198188,
            -0.024311762786169856,
            0.05747915006146815
          ],
          [
            -0.08468745501869146,
            -0.03572990992495931,
            -1.645708408791655,
            0.12878872370673322,
            0.06405165140371531,
            0.3894919251340874,
            -0.1020950386730685,
            0.22450044269391572
          ],
          [
            -0.8766083525531083,
            -0.27273588633111395,
            0.1911655900721275,
            1.2951315814833924,
            0.26225327029409706,
            -0.6310450328978489,
            -0.6289809096030219,
            -0.4695289145475491
          ],
          [
            -0.33743712832039485,
            -0.4654680216143323,
            -0.23817848447827064,
            1.00068735587088,
            -0.059370331422806524,
            0.5939142088641852,
            -0.4544405155242042,
            0.5475498445848779
          ],
          [
            0.5513525846989138,
            0.4394891336081454,
            -0.15527714265090675,
            0.7718643541602412,
            -0.4890715370531364,
            0.3846118065643527,
            -0.7786449627437952,
            -0.3751672961893442
          ]
        ],
        "weights_hidden_output": [
          [
            -0.049967739767230575,
            0.7916390576130081,
            0.2538429624232123,
            -0.164762744932494
          ],
          [
            -0.1454394815455383,
            -0.004450640949915794,
            0.07024621511787854,
            0.04423275169927223
          ],
          [
            -0.4969706927031259,
            -0.6426609310702346,
            0.1606982011960066,
            -0.9651762546798646
          ],
          [
            -0.3585391279616853,
            0.22915130108597312,
            0.04711210690195746,
            -0.5707487805353242
          ],
          [
            -0.20993466409740694,
            -0.05757322145957562,
            -0.5693157310171197,
            1.0414245693035373
          ],
          [
            -0.6594712253865903,
            0.053130487182785666,
            0.6938749078760409,
            0.3189385372604639
          ],
          [
            0.016153533434411626,
            -0.7474465052265861,
            0.4831439212793011,
            0.4769083519938654
          ],
          [
            0.6474820675513463,
            0.5406493593678728,
            0.2722423478037836,
            -0.15416026071819328
          ]
        ],
        "bias_hidden": [
          0.0,
          0.0,
          0.0,
          0.0,
          0.0,
          0.0,
          0.0,
          0.0
        ],
        "bias_output": [
          0.0,
          0.0,
          0.0,
          0.0
        ]
      }
    },
    {
      "fitness": 200.0,
      "food_collected": 1,
      "distance_traveled": 200.0,
      "brain": {
        "input_size": 5,
        "hidden_size": 8,
        "output_size": 4,
        "weights_input_hidden": [
          [
            0.2579207423338025,
            -0.12713996830337515,
            0.14951035307625604,
            -0.24476905430649276,
            0.21501639893303195,
            0.8170860568717891,
            -0.22684536228008945,
            -0.02440423176398877
          ],
          [
            0.01030605154522228,
            0.4136044622203515,
            0.17344844427579884,
            -1.054020095597356,
            0.8054256482132145,
            0.48955884214797407,
            -0.016143780249364054,
            -0.3485263260316347
          ],
          [
            0.05521749973291208,
            0.7561422738937785,
            -0.1116544501550378,
            -0.13631516787199102,
            0.00888713876547487,
            0.2455413510596245,
            -0.5123408045959276,
            0.17599234297694177
          ],
          [
            0.20290050932384174,
            -0.112961712157866,
            -0.11038763962619882,
            -0.07210826684138173,
            0.41469542867548354,
            -0.049965802110413834,
            0.4467167149583963,
            -0.809820435062935
          ],
          [
            -0.40874209768243414,
            -1.0467817837988478,
            0.011224310310662837,
            0.5379929648679428,
            0.573967538162365,
            0.681017103269694,
            0.4844408932599818,
            0.6848513656638976
          ]
        ],
        "weights_hidden_output": [
          [
            0.3292368482236818,
            -0.5239372230750086,
            0.9625658503815221,
            0.01669824304809608
          ],
          [
            -0.2452697557682553,
            -0.01979375591359564,
            0.009164058630997923,
            -0.09800470762263441
          ],
          [
            0.2731324096071558,
            -0.5949376863252973,
            -0.30082517185726265,
            0.09425319439790054
          ],
          [
            0.7221033505855811,
            -0.5959909228523567,
            0.7486864315376688,
            -0.5293919827471986
          ],
          [
            -0.6162851775064307,
            0.5987157156419752,
            -0.2403797185186046,
            -0.34588955730391113
          ],
          [
            -0.4072618191678725,
            -0.33413157321630593,
            -0.920667412805749,
            0.425899531403921
          ],
          [
            -0.18240797530578287,
            0.5952787516737656,
            -0.4355525239500307,
            0.18404127907575465
          ],
          [
            -0.269801883958822,
            0.06625906667481016,
            0.2643801298283826,
            -0.539035046346239
          ]
        ],
        "bias_hidden": [
          0.0,
          0.0,
          0.0,
          0.0,
          0.0,
          0.0,
          0.0,
          0.0
        ],
        "bias_output": [
          0.0,
          0.0,
          0.0,
          0.0
        ]
      }
    },
    {
      "fitness": 165.0,
      "food_collected": 2,
      "distance_traveled": 165.0,
      "brain": {
        "input_size": 5,
        "hidden_size": 8,
        "output_size": 4,
        "weights_input_hidden": [
          [
            -0.14190190774193415,
            -0.04960991994558802,
            1.1985143229217794,
            -0.6110256733713761,
            0.7759001421014587,
            -0.23368577045900327,
            0.21760038865612671,
            0.6448480311103097
          ],
          [
            -0.47941812856390487,
            0.06503707062854684,
            -1.0371795440176563,
            0.7519388889144883,
            0.5762796172850788,
            -0.3661868210231376,
            -1.1136000122677772,
            -0.21778239264966817
          ],
          [
            0.6000021221948489,
            0.6749083804987542,
            -0.19795230441380263,
            0.5307038487878074,
            -0.15347932322262217,
            -0.6102346739834985,
            -0.489911901520276,
            -0.12606635161182556
          ],
          [
            0.5142714437917651,
            -0.12911166642908842,
            0.17775764457134346,
            -0.6077839773188396,
            -0.1932818656273252,
            -0.6935762585821069,
            -0.1892783046418798,
            -0.584555752321823
          ],
          [
            0.21347173589656213,
            -0.09244408420823334,
            -0.196917476939341,
            -0.5499546692397781,
            -0.23054580879257794,
            0.23372522892191827,
            -0.5373661892096906,
            0.24505769830257212
          ]
        ],
        "weights_hidden_output": [
          [
            -0.3249139331083586,
            0.33030236026724863,
            0.24876994373987898,
            -0.6202389284036808
          ],
          [
            -0.3916011758232399,
            0.7199625164438463,
            -0.14763696676648366,
            0.44065826476766407
          ],
          [
            0.4979010551479977,
            0.5601215958404473,
            -0.5393867552283422,
            0.24590061320800266
          ],
          [
            0.6231144022794104,
            0.31723618019616356,
            -0.3540245210049905,
            -0.7839421850020241
          ],
          [
            -0.8787696980810329,
            -0.356791502841384,
            1.1011423471533648,
            0.295499680586843
          ],
          [
            0.1663017660448226,
            -0.04374080066888115,
            -0.6400915666514155,
            0.7063076068377946
          ],
          [
            -0.15991498334055504,
            0.1433099017351698,
            -0.4458682842989517,
            0.32480726140249877
          ],
          [
            0.34183999038593177,
            0.12562313694944985,
            0.5466019287536802,
            -0.03408771942936303
          ]
        ],
        "bias_hidden": [
          0.0,
          0.0,
          0.0,
          0.0,
          0.0,
          0.0,
          0.0,
          0.0
        ],
        "bias_output": [
          0.0,
          0.0,
          0.0,
          0.0
        ]
      }
    },
    {
      "fitness": 0.0,
      "food_collected": 0,
      "distance_traveled": 0.0,
      "brain": {
        "input_size": 5,
        "hidden_size": 8,
        "output_size": 4,
        "weights_input_hidden": [
          [
            -0.21235722627282871,
            0.37556916258091066,
            0.08427145381424948,
            0.07122693132321006,
            -0.07052094920526217,
            -0.12799221710077027,
            -0.6832450289913361,
            -0.38904107473328486
          ],
          [
            0.24833814052381042,
            0.3817414354607823,
            0.3456557594763841,
            0.3945567934627935,
            -0.6819096467642024,
            -1.223927554639888,
            -0.22407057469863936,
            0.36436900250334675
          ],
          [
            0.03769624371563367,
            -0.12214504142289703,
            0.3844989342425609,
            0.34574793870470305,
            0.3131325634005096,
            -0.17224369116044105,
            0.15273072637681043,
            -0.6350961505495741
          ],
          [
            -0.46519748501101066,
            0.6407610973163935,
            -0.02169364682170082,
            0.15299890285619377,
            0.6562773509547467,
            -0.4652814746456534,
            0.8765880323563369,
            0.9621299830669104
          ],
          [
            -0.10335197385873712,
            0.06152374256411116,
            0.3176687400492083,
            0.04143675974298002,
            0.7138462709401564,
            -0.5818733091990465,
            0.26671981765272273,
            -0.5727222305098701
          ]
        ],
        "weights_hidden_output": [
          [
            -0.4371098085660658,
            1.251754807115833,
            -0.292823196473545,
            -0.40358921114306984
          ],
          [
            0.4621527537522153,
            0.24043709861886223,
            -0.04175890883880628,
            0.10422951596434452
          ],
          [
            -1.210890921063495,
            -0.40094601343870145,
            0.35968143590832197,
            0.4055138709561363
          ],
          [
            0.16259317310685198,
            -0.43846920930030064,
            0.3126674427819774,
            -0.2558394735483065
          ],
          [
            0.21945278913135027,
            0.13089300771067236,
            -0.09273604894681801,
            0.10926159538542587
          ],
          [
            0.11982412373888554,
            0.7463194607761084,
            -0.38763855522760315,
            -0.5019714793620231
          ],
          [
            -0.023732223968692682,
            -0.6076735350839173,
            -0.6065865210003893,
            -0.2383724384049447
          ],
          [
            0.15511229465602727,
            0.48106167322233667,
            -0.04030419550788212,
            0.09901846937296573
          ]
        ],
        "bias_hidden": [
          0.0,
          0.0,
          0.0,
          0.0,
          0.0,
          0.0,
          0.0,
          0.0
        ],
        "bias_output": [
          0.0,
          0.0,
          0.0,
          0.0
        ]
      }
    },
    {
      "fitness": 0.0,
      "food_collected": 0,
      "distance_traveled": 0.0,
      "brain": {
        "input_size": 5,
        "hidden_size": 8,
        "output_size": 4,
        "weights_input_hidden": [
          [
            0.3652729993342864,
            -0.15414582450212314,
            0.5379557057870054,
            -0.16094992968281266,
            0.11533534582403558,
            -0.4699034125666446,
            -0.5878946637725185,
            0.07114588168257818
          ],
          [
            0.34327407426914797,
            0.25390408483050086,
            -0.9519675484541437,
            -0.015198592372861041,
            -0.4237584571834668,
            -0.9286525513501116,
            1.0195867886623124,
            -0.47374295970015684
          ],
          [
            -0.5791014999504027,
            0.1541868463804952,
            -0.4155055562097179,
            0.3226213960529557,
            -0.38574394727116235,
            0.4712210853147235,
            -0.6631786556958303,
            0.3266726363199123
          ],
          [
            -1.2309383590977692,
            0.6856078237963399,
            0.5726634866619016,
            0.8305191413105149,
            -0.07060985306613812,
            -0.9091590015366925,
            -0.7861592245199422,
            0.08333126455649617
          ],
          [
            0.27884682226788304,
            -0.5059940625002552,
            0.1375282371830764,
            0.1553287650884631,
            -0.2756201967816726,
            -0.16985378378266813,
            -0.6694350315833897,
            0.02795801610509151
          ]
        ],
        "weights_hidden_output": [
          [
            -0.6109737363599844,
            0.34010143486850924,
            -0.7969757548370501,
            0.4293315914091537
          ],
          [
            -0.26614259366145404,
            0.2942819298184322,
            0.19576261982169255,
            0.15361253519772525
          ],
          [
            0.052191707068602954,
            -0.2192597663391103,
            -0.6006333415722279,
            0.682814135798646
          ],
          [
            0.1168309204770029,
            0.9672981411022301,
            0.07428140004370516,
            -0.34876401662546475
          ],
          [
            0.026387445133319306,
            0.6216944347652347,
            -0.6322054148999678,
            0.24461299899297556
          ],
          [
            0.3044255875987255,
            -0.03963841377360869,
            -0.8434050235302131,
            -0.11825759940100442
          ],
          [
            0.2466641731675118,
            0.5871867270617516,
            0.6662091065314485,
            0.0989486168529767
          ],
          [
            0.6187577277134244,
            -0.1681452760252565,
            0.2443333343315435,
            -0.07167616756670589
          ]
        ],
        "bias_hidden": [
          0.0,
          0.0,
          0.0,
          0.0,
          0.0,
          0.0,
          0.0,
          0.0
        ],
        "bias_output": [
          0.0,
          0.0,
          0.0,
          0.0
        ]
      }
    }
  ]
}