{
  "timestamp": "20260109_194624",
  "generation": 4,
  "step": 1000,
  "best_fitness": 0.0,
  "count": 5,
  "networks": [
    {
      "fitness": 0.0,
      "food_collected": 0,
      "distance_traveled": 0.0,
      "brain": {
        "input_size": 5,
        "hidden_size": 8,
        "output_size": 4,
        "weights_input_hidden": [
          [
            -0.6406709301903906,
            -0.3560668325881238,
            0.2669328016529713,
            -0.9731529487947025,
            -0.2854070360989714,
            0.3584786872165601,
            0.11747320720289053,
            0.031610719941395825
          ],
          [
            -0.39344065218804763,
            -0.19113892574663105,
            -0.872208771550152,
            -0.20862802273814696,
            0.035868479724587614,
            -0.17925037656942022,
            0.04064911073167006,
            -0.8496691496995505
          ],
          [
            0.2697422975117355,
            -0.11969669720687694,
            -0.8947475843183239,
            -0.7087047281585146,
            -0.14557387584183032,
            -0.18753977243386089,
            0.6864418736204108,
            -0.9345318378399198
          ],
          [
            -0.7600858745472815,
            1.0525185205593892,
            -0.5333379222843183,
            -0.18030876857175696,
            -0.39630332458309064,
            0.13520364206607605,
            0.453849290110205,
            0.27736674006376594
          ],
          [
            0.5631155392164054,
            0.0728515949652803,
            -0.4839206604902896,
            0.622155474841719,
            -0.0008982981502092036,
            0.7450031842559682,
            -0.21197274707497507,
            -0.20136290496508677
          ]
        ],
        "weights_hidden_output": [
          [
            0.19792361855905363,
            0.44341502639559116,
            0.26109149314020047,
            -0.2378504203583089
          ],
          [
            1.079952414624491,
            0.6381225543098848,
            0.41661867765368266,
            -1.059569536964749
          ],
          [
            0.011275195313120946,
            0.19059035243519734,
            0.2587620251749249,
            -0.40936287402420685
          ],
          [
            -0.7719963483360125,
            -0.6313346660956245,
            -0.2526615054213785,
            -0.33707427037700344
          ],
          [
            -0.5786845511611822,
            -0.1994784336290517,
            -0.35380755810185593,
            -0.6223745498698863
          ],
          [
            0.27850410785058183,
            -0.09764572424535016,
            -0.49325946761662387,
            -0.7475996492862154
          ],
          [
            0.6578236338187211,
            -0.8393532294147673,
            -0.2403681463422379,
            0.2845484760243969
          ],
          [
            -0.1824990343698659,
            0.6247588248696456,
            0.23016034564873922,
            0.14617260356538544
          ]
        ],
        "bias_hidden": [
          0.0,
          0.0,
          0.0,
          0.0,
          0.0,
          0.0,
          0.0,
          0.0
        ],
        "bias_output": [
          0.0,
          0.0,
          0.0,
          0.0
        ]
      }
    },
    {
      "fitness": 0.0,
      "food_collected": 0,
      "distance_traveled": 0.0,
      "brain": {
        "input_size": 5,
        "hidden_size": 8,
        "output_size": 4,
        "weights_input_hidden": [
          [
            -0.0026103772128999005,
            -0.31011605914524554,
            -0.575632872245105,
            -0.6777776533050692,
            0.31830338271561526,
            -0.28501544016931013,
            -0.3503351764034132,
            0.19348958401740754
          ],
          [
            0.8076302205059721,
            -0.7340269186169238,
            -0.677937443032849,
            -0.6803652050305063,
            0.27164794944633014,
            -0.5310149475718553,
            1.012996698261975,
            -0.049899033775474506
          ],
          [
            0.1676259215054801,
            0.766306644780557,
            -0.08994070103202477,
            -0.4022246727438829,
            1.0339439625804465,
            0.6219501745679978,
            0.444588123422143,
            0.630330332494253
          ],
          [
            -0.6423916095036023,
            1.003901311564508,
            0.3272536003722133,
            0.1360229341082462,
            -0.36452980763104265,
            0.10981528135974822,
            -0.24382423218880395,
            -0.07057462178309788
          ],
          [
            -0.6830188195714628,
            -0.3004019651485878,
            0.3656147058641294,
            -0.39672009853989526,
            -0.00964452325048588,
            0.4520625700707522,
            -0.11634858742020882,
            -0.7224359970477038
          ]
        ],
        "weights_hidden_output": [
          [
            0.6470037304660119,
            -0.5647623686767002,
            -0.4051466038425992,
            -0.2513451354683373
          ],
          [
            -0.0013181268165711614,
            -0.37020246291327935,
            1.523266761023314,
            0.26498907274254174
          ],
          [
            -0.4972369431773763,
            -0.6594779457273376,
            -0.38915445307696483,
            -0.1846091058658925
          ],
          [
            -0.27057907793301045,
            0.9269732415731069,
            -0.03577651915605967,
            -0.18077261584419899
          ],
          [
            0.007217831743879734,
            0.44027657213746124,
            -0.21697009500053832,
            0.42570515610421766
          ],
          [
            0.31617066108625747,
            -0.3510932068632988,
            -0.024046814986271477,
            -0.5603254869712347
          ],
          [
            -1.2909896317035514,
            -0.2094269333157814,
            0.49825341563043524,
            -0.03087683843082968
          ],
          [
            0.3378388945880699,
            -0.013706295448492502,
            1.2636104489013984,
            0.6197595750037012
          ]
        ],
        "bias_hidden": [
          0.0,
          0.0,
          0.0,
          0.0,
          0.0,
          0.0,
          0.0,
          0.0
        ],
        "bias_output": [
          0.0,
          0.0,
          0.0,
          0.0
        ]
      }
    },
    {
      "fitness": 0.0,
      "food_collected": 0,
      "distance_traveled": 0.0,
      "brain": {
        "input_size": 5,
        "hidden_size": 8,
        "output_size": 4,
        "weights_input_hidden": [
          [
            -0.5479442765487684,
            -0.034473054161810214,
            -0.6361773477980674,
            -0.038636147925258164,
            0.06600850321933392,
            -0.712242738769023,
            -0.029814777355579417,
            0.08847138651545756
          ],
          [
            -0.19449729726798945,
            0.6649445199237713,
            0.38160289073578263,
            0.2622740218141608,
            -0.0028463761389564747,
            0.5529968199151651,
            -1.0677709422067792,
            -0.6181782948693167
          ],
          [
            -0.3017660927921375,
            0.6040048843549389,
            0.713500701590392,
            -1.2420054570972174,
            0.6088147829953692,
            -0.23880883372384187,
            -0.2217050010446706,
            -0.5428511218338117
          ],
          [
            0.6219113968823877,
            0.11435219065981415,
            1.2221521600273952,
            -0.22062970262980394,
            -0.094644178147473,
            -0.36931091878280786,
            0.2546595873800136,
            -0.4381545495489722
          ],
          [
            0.6210332637199819,
            -0.30071048768687614,
            -0.31088686327261944,
            0.19129495289082946,
            -0.11743981731107234,
            -0.29853146294890315,
            0.9064204442327338,
            -0.31660665992687753
          ]
        ],
        "weights_hidden_output": [
          [
            -0.5334612237340219,
            0.5697284770094289,
            -0.40519131382540513,
            -0.18565063641827845
          ],
          [
            0.16745327562921855,
            0.14819506973034843,
            0.08852868214710678,
            0.5212669683087126
          ],
          [
            -0.14964001858878362,
            -0.011241541557084544,
            0.3884828248153309,
            0.29600909483385496
          ],
          [
            -0.6983362170533737,
            0.5165372530132104,
            0.33624779192292586,
            -0.4979962618264874
          ],
          [
            -0.689604039268671,
            0.029066471631886658,
            -0.18512109895761603,
            0.2337464000963
          ],
          [
            0.9911612114401348,
            0.5731620638907722,
            -1.155188154641763,
            -0.38090026742476835
          ],
          [
            0.23398228926576978,
            0.07306883593201635,
            -0.023393947081001464,
            -0.19712078935475916
          ],
          [
            -0.014603233804999958,
            -0.4235106071101468,
            -0.2430610809567365,
            0.5915073193565943
          ]
        ],
        "bias_hidden": [
          0.0,
          0.0,
          0.0,
          0.0,
          0.0,
          0.0,
          0.0,
          0.0
        ],
        "bias_output": [
          0.0,
          0.0,
          0.0,
          0.0
        ]
      }
    },
    {
      "fitness": 0.0,
      "food_collected": 0,
      "distance_traveled": 0.0,
      "brain": {
        "input_size": 5,
        "hidden_size": 8,
        "output_size": 4,
        "weights_input_hidden": [
          [
            -0.6198988036002832,
            -0.7312605045057697,
            -0.07848273370113684,
            -0.12601925736202826,
            -0.06699985224352482,
            0.005170069566206737,
            -0.6362499162417264,
            -0.2863410706893272
          ],
          [
            -0.3378673813260473,
            0.09157646549210882,
            -0.7859954245139822,
            0.410487300467167,
            -0.12120559217314479,
            1.038068458082825,
            0.5719155522445966,
            0.32816247714422125
          ],
          [
            -0.5886113044406645,
            -0.03883445298499397,
            -0.28583325825569905,
            0.6248931614281256,
            0.30269940030188597,
            0.06225961548663093,
            0.4001798889785686,
            -0.7441411495641244
          ],
          [
            0.48165715463300973,
            -0.44637437811409597,
            -0.5331051509200952,
            -0.20545301888224735,
            -0.38361311168471635,
            -0.15426626028592177,
            0.9511051076690177,
            0.7802665275867421
          ],
          [
            0.30894068076920056,
            -0.2635504389739444,
            0.4438183963451699,
            -0.8947505499091628,
            0.8581472889101818,
            -0.0034593722597906717,
            -0.1057501826092924,
            0.29993968327571807
          ]
        ],
        "weights_hidden_output": [
          [
            0.3516097655018664,
            0.45173424627726505,
            -0.8920744468205705,
            -0.7722838496532983
          ],
          [
            -0.9063962863988285,
            0.4140047858961748,
            -0.2184176486333851,
            0.05961621552466702
          ],
          [
            -0.1913655972115425,
            0.09578780367667422,
            -0.40280102843719406,
            -0.03955052339606469
          ],
          [
            -0.19542321939916016,
            0.14195947258828218,
            0.949855786729679,
            -0.21132831904206373
          ],
          [
            0.30936350383105227,
            -0.2196576713683523,
            -0.40624457938218944,
            0.04654276048550128
          ],
          [
            0.24782968099754882,
            0.06942218104623585,
            0.4235070383822927,
            0.19827380835614594
          ],
          [
            -0.5129345514970651,
            -0.3999800515750003,
            -0.2427216808503794,
            0.09565177079681686
          ],
          [
            0.48545621899785435,
            0.28428797099941583,
            0.3899542376818409,
            -0.12133572648489363
          ]
        ],
        "bias_hidden": [
          0.0,
          0.0,
          0.0,
          0.0,
          0.0,
          0.0,
          0.0,
          0.0
        ],
        "bias_output": [
          0.0,
          0.0,
          0.0,
          0.0
        ]
      }
    },
    {
      "fitness": 0.0,
      "food_collected": 0,
      "distance_traveled": 0.0,
      "brain": {
        "input_size": 5,
        "hidden_size": 8,
        "output_size": 4,
        "weights_input_hidden": [
          [
            0.8814743531294372,
            0.30101669502289546,
            -0.9224218644527117,
            0.8942488687647401,
            0.2663595315167962,
            0.2535248516793695,
            0.012518412174105811,
            -0.13126639060689885
          ],
          [
            1.0148591283104271,
            0.7533775448105832,
            -0.11609250618324513,
            0.3072650161329328,
            -0.4126359370187652,
            -0.08190248811334605,
            -0.2927506231824255,
            -0.3470627313780147
          ],
          [
            -0.254534094795074,
            -0.11334993519744475,
            0.8708510404799229,
            0.651147202781379,
            -0.08498157693963462,
            -1.2013454672137271,
            0.6332370059445059,
            -0.7295026776434888
          ],
          [
            0.28553022841139825,
            0.9412135388497646,
            -0.05713444247984503,
            -0.0723562489474508,
            0.32864192972318235,
            0.11095928815471745,
            -0.46342455428817236,
            -0.27126666944847333
          ],
          [
            1.0527391173225116,
            -0.7863254166511583,
            -0.6281363599525012,
            0.152654699160897,
            1.1454864585198354,
            0.19799456650735311,
            -0.6256663555344002,
            0.26732509117259934
          ]
        ],
        "weights_hidden_output": [
          [
            -1.0428053652467268,
            0.6115097430413903,
            -0.2901613496877556,
            -0.413647403604733
          ],
          [
            0.30166347834985185,
            -0.7630329561082971,
            0.48481390589293694,
            -0.4690874612941329
          ],
          [
            0.7224021859219728,
            -0.22785794189910727,
            -0.06650454600428911,
            0.20069745482922552
          ],
          [
            0.3082303082642236,
            -0.22600403953035159,
            0.5206302694509256,
            0.36807041356398024
          ],
          [
            -0.12855356202904744,
            0.8884211528195091,
            0.3037905982294964,
            0.4572725560512169
          ],
          [
            -0.10926608238764014,
            0.6177169247641534,
            -0.26712469006877315,
            0.07980013155439904
          ],
          [
            0.24328508195288395,
            0.28066445815885716,
            -0.3935343540016612,
            0.43595094954680624
          ],
          [
            -0.040560785023204905,
            -0.3748468869403733,
            0.33201795253434313,
            -0.30323702626979576
          ]
        ],
        "bias_hidden": [
          0.0,
          0.0,
          0.0,
          0.0,
          0.0,
          0.0,
          0.0,
          0.0
        ],
        "bias_output": [
          0.0,
          0.0,
          0.0,
          0.0
        ]
      }
    }
  ]
}