{
  "timestamp": "20260109_160138",
  "generation": 0,
  "step": 3075,
  "best_fitness": 494.1,
  "count": 10,
  "networks": [
    {
      "fitness": 494.2,
      "food_collected": 2,
      "distance_traveled": 265.0,
      "generation": 1,
      "brain": {
        "input_size": 4,
        "hidden_size": 8,
        "output_size": 4,
        "weights_input_hidden": [
          [
            0.6445341755069823,
            -1.1342115883043011,
            -0.15328586933852295,
            0.1626464220945674,
            -0.5513897953438507,
            0.28053795175734403,
            0.6342901796674306,
            -0.06112691990403417
          ],
          [
            0.4618347114516885,
            0.4331926646072914,
            -0.15674040576218912,
            -0.6336042212998733,
            0.343642632558098,
            -0.3822498752394817,
            -0.6492967945454194,
            0.28397089442475115
          ],
          [
            -0.5639788183636323,
            -1.1561777119566636,
            -0.41926084350953946,
            0.26225886241663116,
            0.20220666969337645,
            -0.22044030263851086,
            -0.07433029796911944,
            -0.16578075891629704
          ],
          [
            -0.02443815916156754,
            -0.4888374464415469,
            -1.0349093689689077,
            -0.10080164019168583,
            -0.10034217475265972,
            0.22961175769367503,
            0.49811138391738335,
            -0.2393064711089858
          ]
        ],
        "weights_hidden_output": [
          [
            -0.6935705529790747,
            0.12291919342824364,
            -0.33137581486915785,
            0.5981215064589642
          ],
          [
            -0.6464465824893902,
            0.11660877646819638,
            0.1431714470032477,
            0.3830159388481239
          ],
          [
            -0.3594858714866245,
            -0.28128167430773204,
            -1.0640278450830591,
            -0.13397817610817767
          ],
          [
            0.9673487910451847,
            1.158202464317176,
            -0.1200787235434969,
            -1.6126421078407718
          ],
          [
            0.15405476222592687,
            0.008271495224254036,
            0.19444152683468194,
            -0.5552877639625454
          ],
          [
            0.49749405500434507,
            -0.18139557813504997,
            0.43998726103462554,
            -0.018064386523519212
          ],
          [
            -0.5531639913448965,
            -0.39029007424184353,
            -0.542689688419289,
            -0.09406709233953302
          ],
          [
            -0.6749122673103246,
            -0.6068620911769671,
            -0.6690783290832159,
            0.025897442470164657
          ]
        ],
        "bias_hidden": [
          0.0,
          0.0,
          0.0,
          0.0,
          0.0,
          0.0,
          0.0,
          0.0
        ],
        "bias_output": [
          0.0,
          0.0,
          0.0,
          0.0
        ]
      }
    },
    {
      "fitness": 482.3,
      "food_collected": 2,
      "distance_traveled": 241.0,
      "generation": 2,
      "brain": {
        "input_size": 4,
        "hidden_size": 8,
        "output_size": 4,
        "weights_input_hidden": [
          [
            0.6445341755069823,
            -1.1342115883043011,
            -0.15328586933852295,
            0.1626464220945674,
            -0.5513897953438507,
            0.4418452515475113,
            0.7781404042504817,
            -0.06112691990403417
          ],
          [
            0.27510297077044166,
            0.4942452309846941,
            -0.15674040576218912,
            -0.6336042212998733,
            0.4453153596204564,
            -0.3822498752394817,
            -0.6492967945454194,
            0.28397089442475115
          ],
          [
            -0.5639788183636323,
            -1.1561777119566636,
            -0.06397987312934704,
            0.26225886241663116,
            0.20220666969337645,
            -0.22044030263851086,
            0.30609861229893076,
            -0.16578075891629704
          ],
          [
            -0.02443815916156754,
            -0.4888374464415469,
            -0.7557746021562973,
            -0.13410077363929385,
            -0.09908573174853118,
            0.22961175769367503,
            0.49811138391738335,
            -0.2393064711089858
          ]
        ],
        "weights_hidden_output": [
          [
            -0.6935705529790747,
            0.03563940123005566,
            -0.33137581486915785,
            0.5981215064589642
          ],
          [
            -0.6464465824893902,
            0.11660877646819638,
            0.1973186459374925,
            0.3830159388481239
          ],
          [
            -0.3594858714866245,
            -0.28128167430773204,
            -1.0640278450830591,
            -0.13397817610817767
          ],
          [
            0.9673487910451847,
            1.158202464317176,
            -0.1200787235434969,
            -1.6126421078407718
          ],
          [
            0.15405476222592687,
            0.4340420418528117,
            0.15031851507057023,
            -0.5552877639625454
          ],
          [
            0.49749405500434507,
            0.040338901712328824,
            0.5745398025048295,
            0.04274304186691104
          ],
          [
            -0.5531639913448965,
            -0.5141450385621715,
            -0.37843572985983087,
            -0.09406709233953302
          ],
          [
            -0.6749122673103246,
            -0.6068620911769671,
            -0.6690783290832159,
            0.025897442470164657
          ]
        ],
        "bias_hidden": [
          0.0,
          0.0,
          0.0,
          0.0,
          0.0,
          0.0,
          0.0,
          0.0
        ],
        "bias_output": [
          0.0,
          0.0,
          0.0,
          0.0
        ]
      }
    },
    {
      "fitness": 475.4,
      "food_collected": 2,
      "distance_traveled": 249.0,
      "generation": 2,
      "brain": {
        "input_size": 4,
        "hidden_size": 8,
        "output_size": 4,
        "weights_input_hidden": [
          [
            0.02788515165292406,
            0.07871959460662385,
            -0.6126614666675166,
            0.5737074189052663,
            -0.2226022381157741,
            0.5703849908951423,
            0.03718016247931255,
            0.030031795379262257
          ],
          [
            -0.009888410110549145,
            0.24437022430084002,
            -0.19122026914272441,
            -0.2829086302027937,
            -0.23856578686168484,
            0.7992028915700662,
            0.7617852291669109,
            -0.09500819536736092
          ],
          [
            0.6884675737017477,
            -0.32764456762409144,
            -0.7668201581913958,
            -0.2639251741947119,
            -0.0536420287204903,
            -0.7811207240698183,
            0.8661227525325329,
            -0.2546053090749137
          ],
          [
            0.20104786941703037,
            0.9080135591697257,
            0.12705679148847773,
            -0.05227155428751783,
            0.14245118921493474,
            -0.9403821242599886,
            0.7236766263475392,
            0.09655336079193755
          ]
        ],
        "weights_hidden_output": [
          [
            0.38217357425503207,
            -0.6003495110659719,
            -0.19223236319770962,
            1.174200435760077
          ],
          [
            -0.3763195991741354,
            -0.13021220572283826,
            -0.053051102313525535,
            -0.4799703770295369
          ],
          [
            0.46583289969478425,
            1.152014052838647,
            0.4153445607511434,
            0.08397201479583428
          ],
          [
            0.39261119704902997,
            -0.7723709647526502,
            0.9093449831637834,
            0.1895518974417472
          ],
          [
            0.06194956498762978,
            1.3002024288325948,
            -0.23831525451680896,
            0.17130369417170058
          ],
          [
            -0.03531137625197525,
            -0.18367223981652347,
            0.17021244444323366,
            1.0232336413363268
          ],
          [
            -0.5473920705577768,
            -0.4609028928012559,
            0.39540341395801,
            0.4592507020194573
          ],
          [
            0.004765828922487819,
            1.0197304775093694,
            0.3163984763836986,
            -0.032137803685207245
          ]
        ],
        "bias_hidden": [
          0.0,
          0.0,
          0.0,
          0.0,
          0.0,
          0.0,
          0.0,
          0.0
        ],
        "bias_output": [
          0.0,
          0.0,
          0.0,
          0.0
        ]
      }
    },
    {
      "fitness": 474.4,
      "food_collected": 2,
      "distance_traveled": 237.0,
      "generation": 3,
      "brain": {
        "input_size": 4,
        "hidden_size": 8,
        "output_size": 4,
        "weights_input_hidden": [
          [
            0.02788515165292406,
            0.23081537399267898,
            -0.6126614666675166,
            0.5737074189052663,
            -0.2226022381157741,
            0.5703849908951423,
            0.03718016247931255,
            0.7205066885072373
          ],
          [
            -0.009888410110549145,
            0.24437022430084002,
            -0.19122026914272441,
            -0.2829086302027937,
            -0.07496312259677662,
            0.7885256007686072,
            0.7617852291669109,
            -0.09500819536736092
          ],
          [
            0.6425404575689663,
            -0.4853523279050409,
            -0.7668201581913958,
            -0.2639251741947119,
            -0.0536420287204903,
            -0.7811207240698183,
            0.8661227525325329,
            -0.2546053090749137
          ],
          [
            0.20104786941703037,
            0.9080135591697257,
            0.12705679148847773,
            -0.05227155428751783,
            0.14245118921493474,
            -0.9403821242599886,
            0.7236766263475392,
            0.09655336079193755
          ]
        ],
        "weights_hidden_output": [
          [
            0.38217357425503207,
            -0.6003495110659719,
            -0.19223236319770962,
            1.174200435760077
          ],
          [
            -0.3763195991741354,
            -0.13021220572283826,
            -0.28879203282396715,
            -0.4799703770295369
          ],
          [
            0.46583289969478425,
            1.152014052838647,
            0.4153445607511434,
            0.08397201479583428
          ],
          [
            0.39261119704902997,
            -0.9194936474222313,
            0.9093449831637834,
            0.1895518974417472
          ],
          [
            0.06194956498762978,
            1.3002024288325948,
            -0.23831525451680896,
            0.17130369417170058
          ],
          [
            -0.03531137625197525,
            -0.18367223981652347,
            0.17021244444323366,
            1.0232336413363268
          ],
          [
            -0.5473920705577768,
            -0.4609028928012559,
            0.15500901029010475,
            0.4592507020194573
          ],
          [
            0.004765828922487819,
            1.0197304775093694,
            0.3163984763836986,
            -0.032137803685207245
          ]
        ],
        "bias_hidden": [
          0.0,
          0.0,
          0.0,
          0.0,
          0.0,
          0.0,
          0.0,
          0.0
        ],
        "bias_output": [
          0.0,
          0.0,
          0.0,
          0.0
        ]
      }
    },
    {
      "fitness": 428.9,
      "food_collected": 1,
      "distance_traveled": 299.0,
      "generation": 1,
      "brain": {
        "input_size": 4,
        "hidden_size": 8,
        "output_size": 4,
        "weights_input_hidden": [
          [
            0.6445341755069823,
            -1.1342115883043011,
            -0.15328586933852295,
            0.1626464220945674,
            -0.5513897953438507,
            0.4418452515475113,
            0.7781404042504817,
            -0.06112691990403417
          ],
          [
            0.27510297077044166,
            0.4331926646072914,
            -0.15674040576218912,
            -0.6336042212998733,
            0.4453153596204564,
            -0.3822498752394817,
            -0.6492967945454194,
            0.28397089442475115
          ],
          [
            -0.5639788183636323,
            -1.1561777119566636,
            -0.06397987312934704,
            0.26225886241663116,
            0.20220666969337645,
            -0.22044030263851086,
            0.30609861229893076,
            -0.16578075891629704
          ],
          [
            -0.02443815916156754,
            -0.4888374464415469,
            -0.7557746021562973,
            -0.13410077363929385,
            -0.10034217475265972,
            0.22961175769367503,
            0.49811138391738335,
            -0.2393064711089858
          ]
        ],
        "weights_hidden_output": [
          [
            -0.6935705529790747,
            0.03563940123005566,
            -0.33137581486915785,
            0.5981215064589642
          ],
          [
            -0.6464465824893902,
            0.11660877646819638,
            0.1973186459374925,
            0.3830159388481239
          ],
          [
            -0.3594858714866245,
            -0.28128167430773204,
            -1.0640278450830591,
            -0.13397817610817767
          ],
          [
            0.9673487910451847,
            1.158202464317176,
            -0.1200787235434969,
            -1.6126421078407718
          ],
          [
            0.15405476222592687,
            0.4340420418528117,
            0.15031851507057023,
            -0.5552877639625454
          ],
          [
            0.49749405500434507,
            0.040338901712328824,
            0.43998726103462554,
            0.04274304186691104
          ],
          [
            -0.5531639913448965,
            -0.39029007424184353,
            -0.37843572985983087,
            -0.09406709233953302
          ],
          [
            -0.6749122673103246,
            -0.6068620911769671,
            -0.6690783290832159,
            0.025897442470164657
          ]
        ],
        "bias_hidden": [
          0.0,
          0.0,
          0.0,
          0.0,
          0.0,
          0.0,
          0.0,
          0.0
        ],
        "bias_output": [
          0.0,
          0.0,
          0.0,
          0.0
        ]
      }
    },
    {
      "fitness": 427.4,
      "food_collected": 2,
      "distance_traveled": 201.0,
      "generation": 2,
      "brain": {
        "input_size": 4,
        "hidden_size": 8,
        "output_size": 4,
        "weights_input_hidden": [
          [
            0.02788515165292406,
            0.07871959460662385,
            -0.6414568275629404,
            0.5737074189052663,
            -0.2226022381157741,
            0.5703849908951423,
            0.03718016247931255,
            -0.0848769126552617
          ],
          [
            0.37888466067473925,
            0.24437022430084002,
            -0.19122026914272441,
            -0.2829086302027937,
            -0.23856578686168484,
            0.7992028915700662,
            0.7617852291669109,
            -0.09500819536736092
          ],
          [
            0.6884675737017477,
            -0.32764456762409144,
            -0.7668201581913958,
            -0.2639251741947119,
            -0.0536420287204903,
            -0.7811207240698183,
            0.8661227525325329,
            -0.3342642520532837
          ],
          [
            0.20104786941703037,
            0.9080135591697257,
            0.12705679148847773,
            -0.05227155428751783,
            0.14245118921493474,
            -0.9403821242599886,
            0.7236766263475392,
            0.09655336079193755
          ]
        ],
        "weights_hidden_output": [
          [
            0.38217357425503207,
            -0.6003495110659719,
            -0.31672639737585506,
            1.1172639251580865
          ],
          [
            -0.3763195991741354,
            -0.13021220572283826,
            -0.053051102313525535,
            -0.4799703770295369
          ],
          [
            0.2618373913590978,
            1.1819568051921143,
            0.4153445607511434,
            0.08397201479583428
          ],
          [
            0.3329755234950434,
            -0.7723709647526502,
            0.9093449831637834,
            0.1895518974417472
          ],
          [
            0.06194956498762978,
            1.4984306101579574,
            -0.23831525451680896,
            0.17130369417170058
          ],
          [
            -0.03531137625197525,
            -0.18367223981652347,
            0.17021244444323366,
            1.0232336413363268
          ],
          [
            -0.5473920705577768,
            -0.4609028928012559,
            0.39540341395801,
            0.4592507020194573
          ],
          [
            0.00022621097578196837,
            1.0197304775093694,
            0.3163984763836986,
            -0.032137803685207245
          ]
        ],
        "bias_hidden": [
          0.0,
          0.0,
          0.0,
          0.0,
          0.0,
          0.0,
          0.0,
          0.0
        ],
        "bias_output": [
          0.0,
          0.0,
          0.0,
          0.0
        ]
      }
    },
    {
      "fitness": 391.5,
      "food_collected": 1,
      "distance_traveled": 265.0,
      "generation": 2,
      "brain": {
        "input_size": 4,
        "hidden_size": 8,
        "output_size": 4,
        "weights_input_hidden": [
          [
            0.35365512398645005,
            -0.7405865068695099,
            -1.1447035338494846,
            -0.594895080794964,
            1.1917786333730378,
            0.300272384553623,
            -0.5557684579761002,
            -0.838649650107818
          ],
          [
            0.5246468592970743,
            -0.9343514342830873,
            0.08895178314434672,
            -0.8423496745688378,
            -0.6725343561308003,
            -0.3923623338326845,
            0.6935216655750791,
            -1.21963935030656
          ],
          [
            -0.07322033623980992,
            0.4404849396399605,
            -0.24808443527678412,
            0.23629547633808445,
            -0.2112887274559732,
            0.38788125813036045,
            -0.6319042105057098,
            0.074333293375657
          ],
          [
            -0.2806294085921307,
            0.023670671419451745,
            0.0851629412011402,
            -0.7112831786906956,
            0.1404695701713094,
            -1.094702067280919,
            -0.003011837179767611,
            0.4131104940628387
          ]
        ],
        "weights_hidden_output": [
          [
            1.0107881436234971,
            -0.2903917756388761,
            -0.5700414247555541,
            -0.17252933253975278
          ],
          [
            -0.955433285560125,
            -0.07988626863505809,
            -0.557526269482381,
            0.12108489430124711
          ],
          [
            -0.3871914042179967,
            0.7032173472610209,
            0.7345770684261127,
            -0.32260128179378034
          ],
          [
            0.17535136030240103,
            -0.48359530512595267,
            -0.02126472251869598,
            0.045429562531086105
          ],
          [
            -0.037942858121064536,
            -0.17621273962558123,
            0.4080929207973694,
            0.5828702620676208
          ],
          [
            0.7034193309174678,
            1.1297487104625512,
            -0.4921038287586599,
            -0.2369637847396777
          ],
          [
            0.35121885732212355,
            0.21338279182547432,
            0.4204312016729254,
            0.5789060473958982
          ],
          [
            -0.35128439774818815,
            -0.265447704115857,
            -0.8094541928488642,
            0.043930125068055444
          ]
        ],
        "bias_hidden": [
          0.0,
          0.0,
          0.0,
          0.0,
          0.0,
          0.0,
          0.0,
          0.0
        ],
        "bias_output": [
          0.0,
          0.0,
          0.0,
          0.0
        ]
      }
    },
    {
      "fitness": 385.6,
      "food_collected": 1,
      "distance_traveled": 254.0,
      "generation": 3,
      "brain": {
        "input_size": 4,
        "hidden_size": 8,
        "output_size": 4,
        "weights_input_hidden": [
          [
            0.8070832940233146,
            -1.1342115883043011,
            -0.15328586933852295,
            0.1626464220945674,
            -0.5513897953438507,
            0.4418452515475113,
            0.7781404042504817,
            -0.06112691990403417
          ],
          [
            0.27510297077044166,
            0.4942452309846941,
            -0.15674040576218912,
            -0.6336042212998733,
            0.4453153596204564,
            -0.3822498752394817,
            -0.6492967945454194,
            0.28397089442475115
          ],
          [
            -0.758792952335805,
            -1.1561777119566636,
            -0.06397987312934704,
            0.26225886241663116,
            0.16871199545700258,
            -0.22044030263851086,
            0.30609861229893076,
            -0.16578075891629704
          ],
          [
            -0.02443815916156754,
            -0.4888374464415469,
            -0.7557746021562973,
            -0.13410077363929385,
            -0.09908573174853118,
            0.22961175769367503,
            0.49811138391738335,
            -0.2393064711089858
          ]
        ],
        "weights_hidden_output": [
          [
            -0.6935705529790747,
            0.03563940123005566,
            -0.33137581486915785,
            0.49668382229554553
          ],
          [
            -0.6464465824893902,
            0.11660877646819638,
            0.1973186459374925,
            0.3830159388481239
          ],
          [
            -0.3594858714866245,
            -0.28128167430773204,
            -1.0640278450830591,
            -0.13397817610817767
          ],
          [
            0.9673487910451847,
            1.158202464317176,
            -0.1200787235434969,
            -2.111642175185141
          ],
          [
            0.15405476222592687,
            0.5862979216226052,
            0.15031851507057023,
            -0.5552877639625454
          ],
          [
            0.49749405500434507,
            0.040338901712328824,
            0.5745398025048295,
            0.04274304186691104
          ],
          [
            -0.1911301523860709,
            -0.5141450385621715,
            -0.37843572985983087,
            -0.09406709233953302
          ],
          [
            -0.6749122673103246,
            -0.6068620911769671,
            -0.6690783290832159,
            0.025897442470164657
          ]
        ],
        "bias_hidden": [
          0.0,
          0.0,
          0.0,
          0.0,
          0.0,
          0.0,
          0.0,
          0.0
        ],
        "bias_output": [
          0.0,
          0.0,
          0.0,
          0.0
        ]
      }
    },
    {
      "fitness": 368.4,
      "food_collected": 1,
      "distance_traveled": 244.0,
      "generation": 1,
      "brain": {
        "input_size": 4,
        "hidden_size": 8,
        "output_size": 4,
        "weights_input_hidden": [
          [
            0.35365512398645005,
            -0.4035400162205935,
            -0.885873969765429,
            -0.594895080794964,
            1.1917786333730378,
            0.300272384553623,
            -0.5557684579761002,
            -0.838649650107818
          ],
          [
            0.5246468592970743,
            -0.9343514342830873,
            -0.06412255530346965,
            -0.8423496745688378,
            -0.6725343561308003,
            -0.3923623338326845,
            0.6935216655750791,
            -1.2583908063312441
          ],
          [
            -0.07322033623980992,
            0.4404849396399605,
            -0.24808443527678412,
            0.23629547633808445,
            -0.2112887274559732,
            0.4541843161563357,
            -0.49188237185020106,
            0.074333293375657
          ],
          [
            -0.23223147513364448,
            -0.060201767262876446,
            0.17405280522411093,
            -0.7112831786906956,
            0.042417784918550056,
            -0.7793713825348111,
            -0.003011837179767611,
            -0.019969876575996432
          ]
        ],
        "weights_hidden_output": [
          [
            1.0107881436234971,
            -0.2903917756388761,
            -0.5700414247555541,
            -0.17252933253975278
          ],
          [
            -0.955433285560125,
            -0.07988626863505809,
            -0.557526269482381,
            0.12108489430124711
          ],
          [
            -0.522429992640441,
            0.46245481451125414,
            0.7345770684261127,
            -0.32260128179378034
          ],
          [
            -0.03744887726116552,
            -0.48359530512595267,
            -0.02126472251869598,
            0.045429562531086105
          ],
          [
            -0.037942858121064536,
            -0.17621273962558123,
            0.10480177601095582,
            0.5828702620676208
          ],
          [
            0.7034193309174678,
            1.1297487104625512,
            -0.4921038287586599,
            -0.2369637847396777
          ],
          [
            0.5706227108504267,
            0.21338279182547432,
            0.4204312016729254,
            0.6070017889174998
          ],
          [
            -0.35128439774818815,
            -0.265447704115857,
            -0.8094541928488642,
            0.043930125068055444
          ]
        ],
        "bias_hidden": [
          0.0,
          0.0,
          0.0,
          0.0,
          0.0,
          0.0,
          0.0,
          0.0
        ],
        "bias_output": [
          0.0,
          0.0,
          0.0,
          0.0
        ]
      }
    },
    {
      "fitness": 355.5,
      "food_collected": 1,
      "distance_traveled": 226.0,
      "generation": 5,
      "brain": {
        "input_size": 4,
        "hidden_size": 8,
        "output_size": 4,
        "weights_input_hidden": [
          [
            0.02788515165292406,
            0.23081537399267898,
            -0.6126614666675166,
            0.5737074189052663,
            -0.2226022381157741,
            0.5703849908951423,
            0.03718016247931255,
            0.7205066885072373
          ],
          [
            -0.009888410110549145,
            0.00122843078970164,
            -0.19122026914272441,
            -0.16781712554574912,
            -0.07496312259677662,
            0.9566831676433454,
            0.7617852291669109,
            0.0018375793705952131
          ],
          [
            0.6425404575689663,
            -0.4853523279050409,
            -0.7668201581913958,
            -0.2639251741947119,
            -0.0536420287204903,
            -0.7811207240698183,
            0.8661227525325329,
            -0.2546053090749137
          ],
          [
            0.14408723116842437,
            0.9080135591697257,
            0.12705679148847773,
            -0.05227155428751783,
            0.14245118921493474,
            -0.9403821242599886,
            0.7236766263475392,
            0.09655336079193755
          ]
        ],
        "weights_hidden_output": [
          [
            0.38217357425503207,
            -0.6003495110659719,
            -0.19223236319770962,
            1.174200435760077
          ],
          [
            -0.3763195991741354,
            -0.13021220572283826,
            -0.28879203282396715,
            -0.4799703770295369
          ],
          [
            0.46583289969478425,
            1.152014052838647,
            0.4153445607511434,
            0.08397201479583428
          ],
          [
            0.39261119704902997,
            -0.9194936474222313,
            0.9093449831637834,
            0.1895518974417472
          ],
          [
            0.06194956498762978,
            1.3002024288325948,
            -0.23831525451680896,
            0.17130369417170058
          ],
          [
            -0.03531137625197525,
            -0.18367223981652347,
            0.17021244444323366,
            1.0232336413363268
          ],
          [
            -0.5473920705577768,
            -0.4609028928012559,
            0.051490603711422486,
            0.6213047947887811
          ],
          [
            -0.4002584363150977,
            1.0550370435995087,
            0.3163984763836986,
            -0.032137803685207245
          ]
        ],
        "bias_hidden": [
          0.0,
          0.0,
          0.0,
          0.0,
          0.0,
          0.0,
          0.0,
          0.0
        ],
        "bias_output": [
          0.0,
          0.0,
          0.0,
          0.0
        ]
      }
    }
  ]
}