{
  "timestamp": "20260109_160018",
  "generation": 0,
  "step": 2775,
  "best_fitness": 569.7,
  "count": 10,
  "networks": [
    {
      "fitness": 569.8,
      "food_collected": 3,
      "distance_traveled": 229.0,
      "generation": 2,
      "brain": {
        "input_size": 4,
        "hidden_size": 8,
        "output_size": 4,
        "weights_input_hidden": [
          [
            0.1052862375913261,
            0.4648982429244902,
            0.5061742360008514,
            -1.1335215652910178,
            -0.8795462783347529,
            -0.09453889830483861,
            -0.03936506694481629,
            -1.108024748976901
          ],
          [
            0.46571497405720147,
            -0.6451194966864651,
            0.20773347837089892,
            0.5295832891434276,
            0.02295961705202793,
            0.34712456526174545,
            0.04450343938748408,
            -0.7905000354881291
          ],
          [
            -0.6840341187141527,
            -0.6426433030275633,
            -0.18512199304790822,
            -0.7089337566913969,
            0.20048844752754416,
            0.7632368394390364,
            0.3507147716161603,
            0.4203171867163089
          ],
          [
            -0.7575518710850964,
            0.730400721283152,
            0.18488225368521458,
            -0.3906514363865713,
            -1.0178636781685273,
            -1.1918890485667273,
            -0.41559082217987825,
            -0.25579566183064495
          ]
        ],
        "weights_hidden_output": [
          [
            0.2677608658248946,
            0.3423663979988561,
            -0.12580587497738013,
            -0.6393965256991113
          ],
          [
            0.6215769013051398,
            -0.22769692523060067,
            -0.2912171202807652,
            -0.03745968419451244
          ],
          [
            -0.04987180822534726,
            0.2227163152312936,
            0.037546111056939,
            0.018601407822297723
          ],
          [
            -0.9967843953060026,
            0.09770302487133509,
            0.22530594855625527,
            -0.3500705185829975
          ],
          [
            0.5748167431232827,
            0.13744445360493965,
            -0.9423430596000704,
            -0.7430944612893859
          ],
          [
            -0.49078016992906875,
            -0.07362567362069068,
            0.29473745900662485,
            0.7005240271284778
          ],
          [
            0.3142889989559801,
            0.5186633251840967,
            0.848301696874541,
            -0.4361297324358161
          ],
          [
            1.0581932131538483,
            0.4496523171414468,
            0.0982800024517158,
            0.09337041459867752
          ]
        ],
        "bias_hidden": [
          0.0,
          0.0,
          0.0,
          0.0,
          0.0,
          0.0,
          0.0,
          0.0
        ],
        "bias_output": [
          0.0,
          0.0,
          0.0,
          0.0
        ]
      }
    },
    {
      "fitness": 516.0,
      "food_collected": 3,
      "distance_traveled": 179.0,
      "generation": 2,
      "brain": {
        "input_size": 4,
        "hidden_size": 8,
        "output_size": 4,
        "weights_input_hidden": [
          [
            -0.7213980088097776,
            -1.1419097696054499,
            0.056664796894439054,
            -0.7431653499138413,
            -0.7011812629025846,
            -0.6899520340654052,
            0.04321126325354285,
            0.11294320425028988
          ],
          [
            -0.12416022458788104,
            0.42476324417591566,
            0.19402662250950042,
            -0.25788390275074763,
            0.4579623563744561,
            0.36556354421554527,
            -0.07194490849081478,
            -0.13378706527023843
          ],
          [
            0.5277206651046924,
            -0.597593241524582,
            -0.061500332751749084,
            -0.13736739236250523,
            -0.08050884110879342,
            0.47823803609137583,
            -0.26600871210832355,
            0.6602932925032404
          ],
          [
            -1.042861562465085,
            -0.3136622696875718,
            0.15430221828764026,
            0.19754868924970867,
            0.2521813366312294,
            0.5274288892653748,
            0.08694397701089573,
            0.5068997416545711
          ]
        ],
        "weights_hidden_output": [
          [
            -0.07012870525007196,
            0.8668325890141794,
            0.3881101961297129,
            0.6157979183934728
          ],
          [
            0.15139631089488118,
            -0.17553552031371017,
            0.3323620042923877,
            0.1555116886914937
          ],
          [
            0.38947017841286874,
            -0.9149919151982492,
            0.3977169414093193,
            0.11767681961140046
          ],
          [
            -0.5652588092116715,
            -0.33142705231663877,
            0.19050354232653494,
            -0.5290264943658917
          ],
          [
            -0.8649460633870846,
            0.7053889681464353,
            -0.18947296277423342,
            0.7374254974997352
          ],
          [
            0.4914556223815382,
            -0.19220096708171577,
            0.30664702149814993,
            0.4008279860898446
          ],
          [
            -1.1704264854706026,
            0.5991214739373881,
            0.8505855658452576,
            0.4169526875548397
          ],
          [
            0.08077285204950556,
            0.5126722261275587,
            -0.4316212785017513,
            -0.5802643594091819
          ]
        ],
        "bias_hidden": [
          0.0,
          0.0,
          0.0,
          0.0,
          0.0,
          0.0,
          0.0,
          0.0
        ],
        "bias_output": [
          0.0,
          0.0,
          0.0,
          0.0
        ]
      }
    },
    {
      "fitness": 509.5,
      "food_collected": 3,
      "distance_traveled": 175.0,
      "generation": 3,
      "brain": {
        "input_size": 4,
        "hidden_size": 8,
        "output_size": 4,
        "weights_input_hidden": [
          [
            -0.7213980088097776,
            -1.1419097696054499,
            0.056664796894439054,
            -0.7431653499138413,
            -0.7011812629025846,
            -0.6899520340654052,
            0.04321126325354285,
            0.11294320425028988
          ],
          [
            -0.12416022458788104,
            0.42476324417591566,
            0.19402662250950042,
            -0.25788390275074763,
            0.4579623563744561,
            0.36556354421554527,
            -0.07194490849081478,
            -0.13378706527023843
          ],
          [
            0.5277206651046924,
            -0.597593241524582,
            -0.061500332751749084,
            -0.13736739236250523,
            -0.08050884110879342,
            0.47823803609137583,
            -0.26600871210832355,
            0.4963905778840141
          ],
          [
            -1.042861562465085,
            -0.3136622696875718,
            0.15430221828764026,
            0.19754868924970867,
            0.2521813366312294,
            0.5274288892653748,
            0.08694397701089573,
            0.5068997416545711
          ]
        ],
        "weights_hidden_output": [
          [
            -0.07012870525007196,
            0.8668325890141794,
            0.2605820939537403,
            0.6157979183934728
          ],
          [
            0.15139631089488118,
            -0.17553552031371017,
            0.3323620042923877,
            0.1555116886914937
          ],
          [
            0.4437181468688758,
            -0.9149919151982492,
            0.3977169414093193,
            0.11767681961140046
          ],
          [
            -0.5652588092116715,
            -0.33142705231663877,
            0.16026170845565735,
            -0.5290264943658917
          ],
          [
            -0.8649460633870846,
            0.7053889681464353,
            -0.18947296277423342,
            0.7374254974997352
          ],
          [
            0.4914556223815382,
            0.26642259424610293,
            0.30664702149814993,
            0.4008279860898446
          ],
          [
            -1.1704264854706026,
            0.5991214739373881,
            0.8505855658452576,
            0.1879479737984938
          ],
          [
            0.08077285204950556,
            0.6798189131213095,
            -0.4316212785017513,
            -0.5802643594091819
          ]
        ],
        "bias_hidden": [
          0.0,
          0.0,
          0.0,
          0.0,
          0.0,
          0.0,
          0.0,
          0.0
        ],
        "bias_output": [
          0.0,
          0.0,
          0.0,
          0.0
        ]
      }
    },
    {
      "fitness": 449.2,
      "food_collected": 2,
      "distance_traveled": 215.0,
      "generation": 2,
      "brain": {
        "input_size": 4,
        "hidden_size": 8,
        "output_size": 4,
        "weights_input_hidden": [
          [
            -0.2864617408411116,
            0.5822974539858254,
            -1.0500918492815776,
            0.5788215561908948,
            0.4390622799679617,
            0.8666903770761833,
            0.6836045123711304,
            0.358970383889285
          ],
          [
            -0.6531808659031189,
            -0.37541999326429276,
            -0.0560186302978908,
            -0.7534795587998098,
            -0.44254823765051565,
            0.595366038790517,
            -0.15364994440676047,
            0.2491211669952601
          ],
          [
            -0.5915027351411611,
            0.18788346961480085,
            0.5581248317566678,
            0.02366594385914635,
            -0.64735631320086,
            -0.11004067618963523,
            -0.4992571166097064,
            0.5513643925405975
          ],
          [
            -0.33534724101935515,
            0.015754353411638417,
            0.07353476698473287,
            0.14679727441206955,
            -0.6927346925558907,
            -0.3453068022242843,
            -0.013457058763806663,
            -0.3112134282170326
          ]
        ],
        "weights_hidden_output": [
          [
            -0.29895851699111886,
            0.3674897704178156,
            -0.5384636378428846,
            0.11789663334172924
          ],
          [
            -0.0789197897787578,
            0.12297187801985024,
            0.45724053661515235,
            0.35153826111094655
          ],
          [
            -0.3624498951513422,
            -0.6273192100764406,
            0.5842108239335637,
            0.27976099522120995
          ],
          [
            0.5118546618573485,
            0.4214256962053612,
            0.1421482214049551,
            0.06480246586212078
          ],
          [
            1.0529215678358332,
            0.6702883814417012,
            -0.4587395149048351,
            0.6765502928445919
          ],
          [
            0.3813555910261555,
            0.17930541815051992,
            0.3370786302828098,
            -0.3893166946281603
          ],
          [
            0.9873076988742588,
            0.6447397198283638,
            0.45408534595628797,
            -0.198818455483363
          ],
          [
            -0.2276429944093737,
            -0.44514670723897193,
            -0.14867420481003138,
            -0.5797010522978695
          ]
        ],
        "bias_hidden": [
          0.0,
          0.0,
          0.0,
          0.0,
          0.0,
          0.0,
          0.0,
          0.0
        ],
        "bias_output": [
          0.0,
          0.0,
          0.0,
          0.0
        ]
      }
    },
    {
      "fitness": 437.6,
      "food_collected": 2,
      "distance_traveled": 215.0,
      "generation": 1,
      "brain": {
        "input_size": 4,
        "hidden_size": 8,
        "output_size": 4,
        "weights_input_hidden": [
          [
            0.1052862375913261,
            0.4648982429244902,
            0.2620593621640215,
            -1.052342970399923,
            -0.8795462783347529,
            -0.09453889830483861,
            -0.03936506694481629,
            -1.108024748976901
          ],
          [
            0.46571497405720147,
            -0.6451194966864651,
            0.20773347837089892,
            0.5295832891434276,
            0.02295961705202793,
            0.34712456526174545,
            0.04450343938748408,
            -0.7905000354881291
          ],
          [
            -0.6840341187141527,
            -0.6426433030275633,
            -0.18512199304790822,
            -0.7089337566913969,
            0.20048844752754416,
            0.7632368394390364,
            0.3507147716161603,
            0.2610868478717186
          ],
          [
            -0.7575518710850964,
            0.730400721283152,
            -0.0881482161715785,
            -0.3906514363865713,
            -1.0178636781685273,
            -1.1918890485667273,
            -0.41559082217987825,
            -0.25579566183064495
          ]
        ],
        "weights_hidden_output": [
          [
            0.2677608658248946,
            0.3785567265443939,
            -0.12580587497738013,
            -0.6393965256991113
          ],
          [
            0.6215769013051398,
            -0.22769692523060067,
            -0.0791300504298409,
            -0.03745968419451244
          ],
          [
            0.013992550930409284,
            0.2227163152312936,
            0.037546111056939,
            0.018601407822297723
          ],
          [
            -0.9967843953060026,
            -0.05785413752745778,
            0.22530594855625527,
            -0.3500705185829975
          ],
          [
            0.5748167431232827,
            0.13744445360493965,
            -0.9915722213804157,
            -0.7430944612893859
          ],
          [
            -0.49078016992906875,
            -0.07362567362069068,
            0.29473745900662485,
            0.7005240271284778
          ],
          [
            0.3142889989559801,
            0.5551132543006051,
            0.848301696874541,
            -0.4361297324358161
          ],
          [
            1.0581932131538483,
            0.4496523171414468,
            0.0982800024517158,
            0.09337041459867752
          ]
        ],
        "bias_hidden": [
          0.0,
          0.0,
          0.0,
          0.0,
          0.0,
          0.0,
          0.0,
          0.0
        ],
        "bias_output": [
          0.0,
          0.0,
          0.0,
          0.0
        ]
      }
    },
    {
      "fitness": 427.2,
      "food_collected": 2,
      "distance_traveled": 190.0,
      "generation": 2,
      "brain": {
        "input_size": 4,
        "hidden_size": 8,
        "output_size": 4,
        "weights_input_hidden": [
          [
            -0.2864617408411116,
            0.5822974539858254,
            -1.0500918492815776,
            0.5788215561908948,
            0.4390622799679617,
            0.601532960261651,
            0.8082793749060566,
            0.358970383889285
          ],
          [
            -0.6531808659031189,
            -0.37541999326429276,
            -0.0560186302978908,
            -0.7534795587998098,
            -0.44254823765051565,
            0.6902824611615995,
            -0.15364994440676047,
            0.6540127610743074
          ],
          [
            -0.5915027351411611,
            0.18788346961480085,
            0.5581248317566678,
            0.02366594385914635,
            -0.7971942020774023,
            -0.11004067618963523,
            -0.27457899007295505,
            0.667053794805538
          ],
          [
            -0.33534724101935515,
            -0.004273688413931161,
            0.1132598409837802,
            0.4928627082520395,
            -0.5657353323718352,
            -0.44067609072403324,
            -0.013457058763806663,
            -0.18986777808380745
          ]
        ],
        "weights_hidden_output": [
          [
            -0.6360330745205207,
            0.3674897704178156,
            -0.5384636378428846,
            0.0844764470077872
          ],
          [
            -0.0789197897787578,
            0.13575498736249103,
            0.45724053661515235,
            0.35153826111094655
          ],
          [
            0.2627590316520939,
            -1.326057045260142,
            0.3625346408192637,
            0.27976099522120995
          ],
          [
            0.4065645639249907,
            0.4214256962053612,
            0.1421482214049551,
            0.06480246586212078
          ],
          [
            1.0529215678358332,
            0.6702883814417012,
            -0.3737771188065521,
            0.6765502928445919
          ],
          [
            0.5705827638141014,
            0.17930541815051992,
            0.13670806433965976,
            -0.4814297073550582
          ],
          [
            1.0237684381417957,
            0.6447397198283638,
            0.4381593225129622,
            -0.198818455483363
          ],
          [
            0.036501847278477495,
            -0.44514670723897193,
            -0.14867420481003138,
            -0.5797010522978695
          ]
        ],
        "bias_hidden": [
          0.0,
          0.0,
          0.0,
          0.0,
          0.0,
          0.0,
          0.0,
          0.0
        ],
        "bias_output": [
          0.0,
          0.0,
          0.0,
          0.0
        ]
      }
    },
    {
      "fitness": 390.4,
      "food_collected": 1,
      "distance_traveled": 264.0,
      "generation": 1,
      "brain": {
        "input_size": 4,
        "hidden_size": 8,
        "output_size": 4,
        "weights_input_hidden": [
          [
            0.35004955462626525,
            0.1294333529185612,
            0.9192988127641689,
            -0.3413146630323815,
            0.36131328031177684,
            0.2666911781574214,
            -0.1924214982927595,
            0.44856086966101
          ],
          [
            -0.19684648390124368,
            0.007563358088898862,
            -0.1882349361924983,
            0.30905925867861694,
            1.1438783088874573,
            0.6351821021761863,
            -0.34762784803394764,
            0.6120403504779143
          ],
          [
            0.7943622601201019,
            0.2253912905743857,
            -0.5961073687895705,
            0.21719785821147714,
            0.6152884689760838,
            0.21963491898481335,
            0.7940121414321543,
            0.3694046169684125
          ],
          [
            -0.4555038773945799,
            -0.2793716818498673,
            0.8169151899363712,
            -0.4252221626448389,
            -0.5491522676569595,
            -0.6870631521918583,
            -0.5019975661680256,
            -0.8137243551175359
          ]
        ],
        "weights_hidden_output": [
          [
            0.24145585571788253,
            -0.043699136642180975,
            0.4162155480796155,
            0.6990289078952653
          ],
          [
            0.196784470463433,
            0.22978978504368783,
            -0.03135000534799869,
            -0.3048699726825917
          ],
          [
            -1.1129171747012523,
            -0.21077015954681877,
            0.6643839019038844,
            -0.47103393429362317
          ],
          [
            1.0981694595995188,
            1.1347003416153947,
            0.13476041974251987,
            0.40404253972990806
          ],
          [
            0.7150831472733498,
            -0.1503695084266064,
            0.7839268289769937,
            0.25685560367598004
          ],
          [
            0.4044207953343743,
            -0.7378255510758791,
            -0.6966915073600933,
            0.004982588024931102
          ],
          [
            -0.3766513012499494,
            0.10768064989792284,
            -0.6073223584406977,
            0.1734490361545466
          ],
          [
            -0.6099375522451254,
            -0.4324021016593525,
            0.6140940406397091,
            0.22570000857468717
          ]
        ],
        "bias_hidden": [
          0.0,
          0.0,
          0.0,
          0.0,
          0.0,
          0.0,
          0.0,
          0.0
        ],
        "bias_output": [
          0.0,
          0.0,
          0.0,
          0.0
        ]
      }
    },
    {
      "fitness": 358.5,
      "food_collected": 1,
      "distance_traveled": 235.0,
      "generation": 1,
      "brain": {
        "input_size": 4,
        "hidden_size": 8,
        "output_size": 4,
        "weights_input_hidden": [
          [
            -0.2864617408411116,
            0.5822974539858254,
            -1.0500918492815776,
            0.5788215561908948,
            0.4390622799679617,
            0.601532960261651,
            0.6836045123711304,
            0.358970383889285
          ],
          [
            -0.6531808659031189,
            -0.37541999326429276,
            -0.0560186302978908,
            -0.7534795587998098,
            -0.44254823765051565,
            0.595366038790517,
            -0.15364994440676047,
            0.2491211669952601
          ],
          [
            -0.5915027351411611,
            0.18788346961480085,
            0.5581248317566678,
            0.02366594385914635,
            -0.64735631320086,
            -0.11004067618963523,
            -0.4992571166097064,
            0.5513643925405975
          ],
          [
            -0.33534724101935515,
            0.015754353411638417,
            0.07353476698473287,
            0.14679727441206955,
            -0.6927346925558907,
            -0.3453068022242843,
            -0.013457058763806663,
            -0.3112134282170326
          ]
        ],
        "weights_hidden_output": [
          [
            -0.29895851699111886,
            0.3674897704178156,
            -0.5384636378428846,
            0.11789663334172924
          ],
          [
            -0.0789197897787578,
            0.12297187801985024,
            0.45724053661515235,
            0.35153826111094655
          ],
          [
            -0.13365875792541498,
            -0.7165417896042001,
            0.5842108239335637,
            0.27976099522120995
          ],
          [
            0.4065645639249907,
            0.4214256962053612,
            0.1421482214049551,
            0.06480246586212078
          ],
          [
            1.0529215678358332,
            0.6702883814417012,
            -0.4587395149048351,
            0.6765502928445919
          ],
          [
            0.3813555910261555,
            0.17930541815051992,
            0.3370786302828098,
            -0.3893166946281603
          ],
          [
            0.9873076988742588,
            0.6447397198283638,
            0.45408534595628797,
            -0.198818455483363
          ],
          [
            -0.2276429944093737,
            -0.44514670723897193,
            -0.14867420481003138,
            -0.5797010522978695
          ]
        ],
        "bias_hidden": [
          0.0,
          0.0,
          0.0,
          0.0,
          0.0,
          0.0,
          0.0,
          0.0
        ],
        "bias_output": [
          0.0,
          0.0,
          0.0,
          0.0
        ]
      }
    },
    {
      "fitness": 355.2,
      "food_collected": 1,
      "distance_traveled": 232.0,
      "generation": 2,
      "brain": {
        "input_size": 4,
        "hidden_size": 8,
        "output_size": 4,
        "weights_input_hidden": [
          [
            0.35004955462626525,
            0.42687501464178434,
            0.5559477356229487,
            -0.3413146630323815,
            0.36131328031177684,
            0.2666911781574214,
            -0.18112126435001036,
            0.6026494959531266
          ],
          [
            -0.19684648390124368,
            0.007563358088898862,
            -0.1882349361924983,
            0.30905925867861694,
            1.1438783088874573,
            0.6351821021761863,
            -0.34762784803394764,
            0.6120403504779143
          ],
          [
            0.7943622601201019,
            0.21647283793556946,
            -0.5961073687895705,
            0.17023505991969076,
            0.6152884689760838,
            0.21963491898481335,
            0.7940121414321543,
            0.3694046169684125
          ],
          [
            -0.4555038773945799,
            -0.3714530265434974,
            0.8169151899363712,
            -0.4252221626448389,
            -0.38690607948574957,
            -0.6870631521918583,
            -0.5019975661680256,
            -1.0125659868650811
          ]
        ],
        "weights_hidden_output": [
          [
            0.24145585571788253,
            -0.043699136642180975,
            0.4162155480796155,
            0.6990289078952653
          ],
          [
            0.196784470463433,
            0.22978978504368783,
            -0.03135000534799869,
            -0.3048699726825917
          ],
          [
            -0.8699209621070454,
            -0.21077015954681877,
            0.6643839019038844,
            -0.47103393429362317
          ],
          [
            1.4377223320508639,
            1.1347003416153947,
            0.13476041974251987,
            0.38610902661102975
          ],
          [
            0.7150831472733498,
            -0.24672767889481334,
            0.7839268289769937,
            0.25685560367598004
          ],
          [
            0.4044207953343743,
            -0.7378255510758791,
            -0.6966915073600933,
            -0.23363658207688734
          ],
          [
            -0.09157421610996933,
            0.0764078485591912,
            -0.6073223584406977,
            0.1734490361545466
          ],
          [
            -0.6099375522451254,
            -0.4324021016593525,
            0.6140940406397091,
            0.22570000857468717
          ]
        ],
        "bias_hidden": [
          0.0,
          0.0,
          0.0,
          0.0,
          0.0,
          0.0,
          0.0,
          0.0
        ],
        "bias_output": [
          0.0,
          0.0,
          0.0,
          0.0
        ]
      }
    },
    {
      "fitness": 351.0,
      "food_collected": 2,
      "distance_traveled": 125.0,
      "generation": 4,
      "brain": {
        "input_size": 4,
        "hidden_size": 8,
        "output_size": 4,
        "weights_input_hidden": [
          [
            -0.7213980088097776,
            -1.1968686260253139,
            0.056664796894439054,
            -0.7431653499138413,
            -0.7011812629025846,
            -0.6899520340654052,
            0.2570737895483324,
            0.11294320425028988
          ],
          [
            -0.12416022458788104,
            0.42476324417591566,
            0.19402662250950042,
            -0.25788390275074763,
            0.47728837797243856,
            0.36556354421554527,
            -0.07194490849081478,
            -0.13378706527023843
          ],
          [
            0.5277206651046924,
            -0.597593241524582,
            -0.061500332751749084,
            -0.13736739236250523,
            -0.08050884110879342,
            0.47823803609137583,
            -0.26600871210832355,
            0.4963905778840141
          ],
          [
            -1.042861562465085,
            -0.3136622696875718,
            0.15430221828764026,
            0.19754868924970867,
            0.4539950759247699,
            0.3465897930839349,
            0.2679520769470054,
            0.5068997416545711
          ]
        ],
        "weights_hidden_output": [
          [
            -0.07012870525007196,
            0.8668325890141794,
            0.2605820939537403,
            0.49267435130528264
          ],
          [
            0.15139631089488118,
            -0.05494369592695657,
            0.3323620042923877,
            0.1555116886914937
          ],
          [
            0.4437181468688758,
            -0.9149919151982492,
            0.3977169414093193,
            0.11767681961140046
          ],
          [
            -0.5652588092116715,
            -0.33142705231663877,
            0.16026170845565735,
            -0.5290264943658917
          ],
          [
            -0.8649460633870846,
            0.7053889681464353,
            -0.31973949787021394,
            0.7374254974997352
          ],
          [
            0.4914556223815382,
            0.26642259424610293,
            0.30664702149814993,
            0.4008279860898446
          ],
          [
            -1.1704264854706026,
            0.5991214739373881,
            0.8505855658452576,
            0.1879479737984938
          ],
          [
            0.08077285204950556,
            0.6798189131213095,
            -0.4316212785017513,
            -0.5802643594091819
          ]
        ],
        "bias_hidden": [
          0.0,
          0.0,
          0.0,
          0.0,
          0.0,
          0.0,
          0.0,
          0.0
        ],
        "bias_output": [
          0.0,
          0.0,
          0.0,
          0.0
        ]
      }
    }
  ]
}