{
  "timestamp": "20260109_194634",
  "generation": 10,
  "step": 2200,
  "best_fitness": 200.0,
  "count": 5,
  "networks": [
    {
      "fitness": 200.0,
      "food_collected": 1,
      "distance_traveled": 200.0,
      "brain": {
        "input_size": 5,
        "hidden_size": 8,
        "output_size": 4,
        "weights_input_hidden": [
          [
            -0.5418671576457279,
            0.26141265476648556,
            -0.5879007512605976,
            0.15061524123473385,
            -0.7057907911642778,
            0.21365002603387284,
            0.5642193774908889,
            -0.3849287749143187
          ],
          [
            1.2564666819281014,
            -0.09789157934532146,
            -0.49390375146109716,
            -0.14333851088407212,
            -0.8361208732520109,
            -0.11239944129860462,
            0.4532706579749418,
            0.042672437664921264
          ],
          [
            0.12741595920485563,
            -0.18382611459214215,
            -0.30110264173397633,
            -0.2405631670816731,
            -1.5994064558199348,
            0.37463917591008195,
            0.7302613971216307,
            -0.03460406206877479
          ],
          [
            0.3814283490700266,
            -0.10224221369649608,
            0.5664092017393036,
            0.449270101371824,
            0.6582558646215009,
            -0.708838511309934,
            -0.15064810768247702,
            -0.19347302399729643
          ],
          [
            -0.21146031972857848,
            -0.6100910405025187,
            -0.27350922761643603,
            -0.26593215944319315,
            0.3408344855923737,
            0.2736990364576102,
            -0.20628205244303108,
            -0.8405219317894967
          ]
        ],
        "weights_hidden_output": [
          [
            -0.36847191564976994,
            0.4031676913296982,
            0.31470706686472055,
            0.3798104231061728
          ],
          [
            0.1410608281095438,
            -0.1888669021827905,
            -0.18877425304985143,
            0.37946893971126405
          ],
          [
            -0.14002843659987693,
            -0.908249779558467,
            0.5655638885686073,
            0.11588827261088587
          ],
          [
            -0.1431127724414639,
            0.5967798844074029,
            -0.20810165863691374,
            0.21193166019030493
          ],
          [
            0.4352404634799273,
            -0.3362051429406194,
            -0.7943529231664708,
            -0.06953468875586714
          ],
          [
            -0.9507728264759489,
            0.5042422770091048,
            0.09245499655664031,
            -0.42794421398800075
          ],
          [
            0.22210307427027529,
            -0.9707506352985096,
            0.139155285791188,
            -0.073540428376597
          ],
          [
            -0.5845066952977793,
            -0.0847393520633819,
            0.2202785608916836,
            0.08739860323714894
          ]
        ],
        "bias_hidden": [
          0.0,
          0.0,
          0.0,
          0.0,
          0.0,
          0.0,
          0.0,
          0.0
        ],
        "bias_output": [
          0.0,
          0.0,
          0.0,
          0.0
        ]
      }
    },
    {
      "fitness": 200.0,
      "food_collected": 1,
      "distance_traveled": 200.0,
      "brain": {
        "input_size": 5,
        "hidden_size": 8,
        "output_size": 4,
        "weights_input_hidden": [
          [
            0.3629853536582143,
            0.0013341380664396425,
            -0.7042682586023244,
            0.06820186458626092,
            -0.6260764915307473,
            0.005580930477564137,
            -0.4223639038411588,
            -0.3157432142409246
          ],
          [
            -0.2561336452830378,
            -0.020805625714988632,
            -0.0865051331115133,
            1.2168654810947288,
            -0.5167935530180352,
            0.4698721320727996,
            -0.12737016346865554,
            0.02732440769010493
          ],
          [
            -0.2754052987503147,
            -1.1901605741860495,
            0.10722996151666411,
            -0.7787832008290874,
            0.4584988987478421,
            0.2837472149805376,
            0.000243129287799534,
            -0.6993286695729897
          ],
          [
            -1.034832328503574,
            0.41516757287697303,
            0.6067967896079589,
            0.10812241241071538,
            -0.3374659054812076,
            -0.011934929009678373,
            -0.20004736710350185,
            0.8616263192958391
          ],
          [
            -0.27432564295835443,
            -0.06742434298075965,
            0.39661775675989086,
            -0.04408362960593185,
            0.11082205300363518,
            -0.5173627501537571,
            -0.5959205766611838,
            0.5881738147467426
          ]
        ],
        "weights_hidden_output": [
          [
            0.11400646071369919,
            1.3818880692288502,
            0.24701122748338616,
            0.4327549704452977
          ],
          [
            0.012234779832976541,
            0.044452239008338404,
            -0.2974504047290996,
            0.15980726313803423
          ],
          [
            0.35172714662086335,
            -0.21113227316973188,
            0.01616823508358211,
            -0.4765632609957245
          ],
          [
            0.12236625433288506,
            0.07998516802076368,
            0.28816622489720145,
            0.324647696005146
          ],
          [
            0.3602061270357899,
            0.7334878244887735,
            -0.16393208046982105,
            -0.4167262373807044
          ],
          [
            0.5949229900622487,
            0.4257961330532084,
            -0.14777929079830593,
            -0.7482234841099118
          ],
          [
            -0.12651005272029828,
            -0.7909993276920395,
            0.2969995089902715,
            0.1442529051553612
          ],
          [
            0.6795548083248347,
            0.07084199842644956,
            0.1451994160290109,
            -0.7186293474975427
          ]
        ],
        "bias_hidden": [
          0.0,
          0.0,
          0.0,
          0.0,
          0.0,
          0.0,
          0.0,
          0.0
        ],
        "bias_output": [
          0.0,
          0.0,
          0.0,
          0.0
        ]
      }
    },
    {
      "fitness": 93.0,
      "food_collected": 1,
      "distance_traveled": 93.0,
      "brain": {
        "input_size": 5,
        "hidden_size": 8,
        "output_size": 4,
        "weights_input_hidden": [
          [
            -0.5418671576457279,
            0.26141265476648556,
            -0.5879007512605976,
            0.16161542054676478,
            -0.6877483312448962,
            0.21365002603387284,
            0.5642193774908889,
            -0.3849287749143187
          ],
          [
            1.3575106369908803,
            0.016953168232783894,
            -0.49390375146109716,
            -0.14333851088407212,
            -0.8361208732520109,
            -0.016898758740559527,
            0.48577000021849337,
            0.015633808504371627
          ],
          [
            0.12741595920485563,
            -0.18382611459214215,
            -0.30661127223562623,
            -0.22897899730095753,
            -1.5994064558199348,
            0.37463917591008195,
            0.7302613971216307,
            -0.03460406206877479
          ],
          [
            0.3814283490700266,
            -0.10224221369649608,
            0.491344487985769,
            0.449270101371824,
            0.6582558646215009,
            -0.8577696451382277,
            -0.15064810768247702,
            -0.19347302399729643
          ],
          [
            -0.21146031972857848,
            -0.6100910405025187,
            -0.27350922761643603,
            -0.26593215944319315,
            0.3408344855923737,
            0.2678223684818706,
            -0.20628205244303108,
            -0.8405219317894967
          ]
        ],
        "weights_hidden_output": [
          [
            -0.36847191564976994,
            0.351710680672618,
            0.31470706686472055,
            0.3798104231061728
          ],
          [
            0.1410608281095438,
            -0.1888669021827905,
            -0.18877425304985143,
            0.3943735769101853
          ],
          [
            -0.14002843659987693,
            -0.8714683510979887,
            0.5655638885686073,
            0.11588827261088587
          ],
          [
            -0.1431127724414639,
            0.5967798844074029,
            -0.2083683359286759,
            0.21193166019030493
          ],
          [
            0.4352404634799273,
            -0.3362051429406194,
            -0.7943529231664708,
            -0.06953468875586714
          ],
          [
            -0.9507728264759489,
            0.5042422770091048,
            0.09245499655664031,
            -0.42794421398800075
          ],
          [
            0.15783481754719553,
            -0.9707506352985096,
            0.139155285791188,
            -0.073540428376597
          ],
          [
            -0.5845066952977793,
            -0.0847393520633819,
            0.2202785608916836,
            0.08739860323714894
          ]
        ],
        "bias_hidden": [
          0.0,
          0.0,
          0.0,
          0.0,
          0.0,
          0.0,
          0.0,
          0.0
        ],
        "bias_output": [
          0.0,
          0.0,
          0.0,
          0.0
        ]
      }
    },
    {
      "fitness": 71.0,
      "food_collected": 1,
      "distance_traveled": 71.0,
      "brain": {
        "input_size": 5,
        "hidden_size": 8,
        "output_size": 4,
        "weights_input_hidden": [
          [
            0.2334089484032345,
            0.3355521688974916,
            0.43401802428125374,
            0.38687484957603524,
            0.6840530952301447,
            -0.2522103632224623,
            -0.6684548702091436,
            -0.04855615332946791
          ],
          [
            0.9240721126651784,
            0.15462170446301085,
            0.21035704928092538,
            0.1719776376171372,
            0.09501437902926584,
            0.11389009312557452,
            -0.2088380831011014,
            0.30853044846978195
          ],
          [
            0.46849091695510575,
            -0.03220009751279976,
            -0.4637344674111677,
            -0.43518529459365896,
            -0.733327211105099,
            -0.11707234170508841,
            -0.16502992836232325,
            -0.006271792503667937
          ],
          [
            -0.3466190782188695,
            -0.11806963318142331,
            -0.7185508852584848,
            -0.23475177798476585,
            -0.7855621083316893,
            -0.9811775998169403,
            -0.36145404353446653,
            0.029741799348105537
          ],
          [
            0.009622050808413392,
            0.8577654409690731,
            0.006905211307322245,
            -0.6602031392022284,
            -0.04240954236773289,
            -0.09262177392829873,
            -0.12990004668686006,
            0.7630676586516049
          ]
        ],
        "weights_hidden_output": [
          [
            0.6793756380531443,
            0.32559921027792776,
            -0.209575859581598,
            -0.24732665507668763
          ],
          [
            -0.22790246880383822,
            0.8032506847679441,
            -0.08854283879883679,
            0.3049914055275601
          ],
          [
            0.03789754503573696,
            -0.6118966112481743,
            0.3726621642724687,
            0.09497319548345111
          ],
          [
            -0.859397717440575,
            0.6609657024741419,
            -0.10682004027927904,
            -0.45473037862255383
          ],
          [
            -0.30911948534910333,
            -0.24750437298694405,
            0.2547823954120582,
            0.460782195384166
          ],
          [
            0.31241244741160096,
            -0.4357816918459585,
            0.4471747138333636,
            -0.5277356179692538
          ],
          [
            0.4060340447145713,
            0.3854668230830138,
            -0.30251188052027994,
            0.6903908174519765
          ],
          [
            0.14802193437200473,
            0.060825781957462285,
            0.4286099614405561,
            0.7901425146640804
          ]
        ],
        "bias_hidden": [
          0.0,
          0.0,
          0.0,
          0.0,
          0.0,
          0.0,
          0.0,
          0.0
        ],
        "bias_output": [
          0.0,
          0.0,
          0.0,
          0.0
        ]
      }
    },
    {
      "fitness": 47.0,
      "food_collected": 1,
      "distance_traveled": 47.0,
      "brain": {
        "input_size": 5,
        "hidden_size": 8,
        "output_size": 4,
        "weights_input_hidden": [
          [
            0.25025429655604464,
            0.0013341380664396425,
            -0.7042682586023244,
            0.06820186458626092,
            -0.6260764915307473,
            0.005580930477564137,
            -0.4223639038411588,
            -0.3157432142409246
          ],
          [
            -0.2561336452830378,
            -0.14956293159575224,
            -0.0865051331115133,
            1.2168654810947288,
            -0.5544847439166478,
            0.4698721320727996,
            -0.011570287888650777,
            -0.05538871469997579
          ],
          [
            -0.2754052987503147,
            -1.1901605741860495,
            0.10722996151666411,
            -0.7787832008290874,
            0.4584988987478421,
            0.2837472149805376,
            0.000243129287799534,
            -0.6993286695729897
          ],
          [
            -1.034832328503574,
            0.41516757287697303,
            0.6067967896079589,
            0.10812241241071538,
            -0.40779869294548743,
            -0.011934929009678373,
            -0.20004736710350185,
            0.8426017254440434
          ],
          [
            -0.3104882912873918,
            -0.06742434298075965,
            0.39661775675989086,
            -0.04408362960593185,
            -0.03801612828903386,
            -0.5173627501537571,
            -0.6033557402478041,
            0.6942275629277255
          ]
        ],
        "weights_hidden_output": [
          [
            0.11400646071369919,
            1.3559445015184013,
            0.24701122748338616,
            0.32687746179788424
          ],
          [
            0.07952092407573086,
            0.044452239008338404,
            -0.2974504047290996,
            0.15980726313803423
          ],
          [
            0.35172714662086335,
            -0.21113227316973188,
            0.01616823508358211,
            -0.4765632609957245
          ],
          [
            0.12236625433288506,
            0.07998516802076368,
            0.3731290656873173,
            0.36598347296348144
          ],
          [
            0.33713067396378493,
            0.6214742012046973,
            -0.16393208046982105,
            -0.5357810163466539
          ],
          [
            0.5949229900622487,
            0.4134699231359817,
            -0.2020687700200521,
            -0.7482234841099118
          ],
          [
            -0.12651005272029828,
            -0.7909993276920395,
            0.2172439997151264,
            0.1442529051553612
          ],
          [
            0.7859008434036082,
            0.07084199842644956,
            0.18337938967071324,
            -0.8499560586158356
          ]
        ],
        "bias_hidden": [
          0.0,
          0.0,
          0.0,
          0.0,
          0.0,
          0.0,
          0.0,
          0.0
        ],
        "bias_output": [
          0.0,
          0.0,
          0.0,
          0.0
        ]
      }
    }
  ]
}