{
  "timestamp": "20260109_194623",
  "generation": 3,
  "step": 800,
  "best_fitness": 200.0,
  "count": 5,
  "networks": [
    {
      "fitness": 200.0,
      "food_collected": 1,
      "distance_traveled": 200.0,
      "brain": {
        "input_size": 5,
        "hidden_size": 8,
        "output_size": 4,
        "weights_input_hidden": [
          [
            -0.14190190774193415,
            -0.04960991994558802,
            1.1985143229217794,
            -0.6110256733713761,
            0.7759001421014587,
            -0.23368577045900327,
            0.21760038865612671,
            0.6448480311103097
          ],
          [
            -0.47941812856390487,
            0.06503707062854684,
            -1.0371795440176563,
            0.7519388889144883,
            0.5762796172850788,
            -0.3661868210231376,
            -1.1136000122677772,
            -0.21778239264966817
          ],
          [
            0.6000021221948489,
            0.6749083804987542,
            -0.19795230441380263,
            0.5307038487878074,
            -0.15347932322262217,
            -0.6102346739834985,
            -0.489911901520276,
            -0.12606635161182556
          ],
          [
            0.5142714437917651,
            -0.12911166642908842,
            0.17775764457134346,
            -0.6077839773188396,
            -0.1932818656273252,
            -0.6935762585821069,
            -0.1892783046418798,
            -0.584555752321823
          ],
          [
            0.21347173589656213,
            -0.09244408420823334,
            -0.196917476939341,
            -0.5499546692397781,
            -0.23054580879257794,
            0.23372522892191827,
            -0.5373661892096906,
            0.24505769830257212
          ]
        ],
        "weights_hidden_output": [
          [
            -0.3249139331083586,
            0.33030236026724863,
            0.24876994373987898,
            -0.6202389284036808
          ],
          [
            -0.3916011758232399,
            0.7199625164438463,
            -0.14763696676648366,
            0.44065826476766407
          ],
          [
            0.4979010551479977,
            0.5601215958404473,
            -0.5393867552283422,
            0.24590061320800266
          ],
          [
            0.6231144022794104,
            0.31723618019616356,
            -0.3540245210049905,
            -0.7839421850020241
          ],
          [
            -0.8787696980810329,
            -0.356791502841384,
            1.1011423471533648,
            0.295499680586843
          ],
          [
            0.1663017660448226,
            -0.04374080066888115,
            -0.6400915666514155,
            0.7063076068377946
          ],
          [
            -0.15991498334055504,
            0.1433099017351698,
            -0.4458682842989517,
            0.32480726140249877
          ],
          [
            0.34183999038593177,
            0.12562313694944985,
            0.5466019287536802,
            -0.03408771942936303
          ]
        ],
        "bias_hidden": [
          0.0,
          0.0,
          0.0,
          0.0,
          0.0,
          0.0,
          0.0,
          0.0
        ],
        "bias_output": [
          0.0,
          0.0,
          0.0,
          0.0
        ]
      }
    },
    {
      "fitness": 0.0,
      "food_collected": 0,
      "distance_traveled": 0.0,
      "brain": {
        "input_size": 5,
        "hidden_size": 8,
        "output_size": 4,
        "weights_input_hidden": [
          [
            -0.19905588132532018,
            -0.36922613483103006,
            -0.6740967529129743,
            0.08293869129290628,
            -0.22004240403907202,
            -0.5778551178673839,
            -0.38459368269143546,
            -0.3503792312361138
          ],
          [
            -0.11594276131152725,
            -0.5795589808614265,
            0.1815118439030409,
            -0.16654156214152754,
            0.5549911277902038,
            0.1651114009938563,
            -0.9079903898064317,
            -0.9135116515872597
          ],
          [
            -0.8396828097900665,
            -0.23684665580399306,
            -0.2409621577769322,
            -0.06807993510590536,
            -0.3258085598424551,
            0.43488833658445564,
            -0.4613362018527502,
            -0.30173463779558896
          ],
          [
            -0.11104874201561349,
            0.26916011965460424,
            -0.03543988685097839,
            -0.11772612543609917,
            -0.028429786658480588,
            -0.5670142353548899,
            -0.28868794185548496,
            -0.007715716824642845
          ],
          [
            -0.01212851522052518,
            -0.5643875624666416,
            -0.04734079336313754,
            1.4954285186533676,
            -0.5008254613980027,
            -0.24429725220233012,
            0.10774664472531506,
            -0.3404004768774413
          ]
        ],
        "weights_hidden_output": [
          [
            -0.09202752568520735,
            0.2883067009689222,
            0.47691893111050376,
            -0.14381806869102523
          ],
          [
            0.3964262191415024,
            0.22736597072181033,
            -0.12382790180550493,
            -0.6717101406903114
          ],
          [
            0.11646155885082617,
            0.051148925782695066,
            -0.09143441469138451,
            0.4136009222058128
          ],
          [
            -0.25862436863947674,
            0.353630183186836,
            -0.9496513187816098,
            0.08954619622318472
          ],
          [
            -0.3907585978817531,
            -0.0952217664416544,
            0.3947149758066611,
            0.07671140965001141
          ],
          [
            0.17264753075432465,
            0.17736402380890112,
            0.39548322671687136,
            -0.04506526067892844
          ],
          [
            -0.41585302652683215,
            -0.08959754382941194,
            -0.1359905115782059,
            0.529609784495263
          ],
          [
            0.04231038598997352,
            1.1116290630242283,
            -0.18928633301422113,
            0.5875681638435327
          ]
        ],
        "bias_hidden": [
          0.0,
          0.0,
          0.0,
          0.0,
          0.0,
          0.0,
          0.0,
          0.0
        ],
        "bias_output": [
          0.0,
          0.0,
          0.0,
          0.0
        ]
      }
    },
    {
      "fitness": 0.0,
      "food_collected": 0,
      "distance_traveled": 0.0,
      "brain": {
        "input_size": 5,
        "hidden_size": 8,
        "output_size": 4,
        "weights_input_hidden": [
          [
            -0.366655246227056,
            0.4925569197322018,
            0.728850236279687,
            -0.41699315292169775,
            0.3871144560583421,
            0.36161165034999304,
            0.7778038241772686,
            -0.6473522398900348
          ],
          [
            -0.4662788242736894,
            0.3815066297643945,
            -0.5925221235472184,
            -0.5599822011126819,
            0.5028010680987285,
            -0.6369525096823094,
            -0.48696849249633806,
            -0.19601098619853524
          ],
          [
            -0.1808513284532778,
            0.26293912371012534,
            -0.24933152049558352,
            -0.13019232375946327,
            -0.27874003667401,
            0.7910060082825446,
            -0.3147005543534106,
            0.3074138337868166
          ],
          [
            0.2839502096942998,
            0.3253833773335872,
            0.006442084338248586,
            -0.29726620027296696,
            -0.07967548050205285,
            -0.36649701022822767,
            0.6569362234984681,
            -0.4835595016335885
          ],
          [
            0.41820769611784697,
            0.23740364050803128,
            1.1998617855487064,
            -0.035171741704431186,
            -1.6372419596220458,
            0.7109914150297121,
            -0.3126908446490172,
            0.8968084391042671
          ]
        ],
        "weights_hidden_output": [
          [
            1.1403353039093078,
            0.035514088105648656,
            -0.9754726334514909,
            -0.511518253846941
          ],
          [
            0.8078555309127066,
            -0.37459335423336937,
            -0.22567095722086578,
            -0.5232821874926153
          ],
          [
            -0.07495147458551837,
            0.12666547866569117,
            0.13307080406492286,
            -0.0951579450833478
          ],
          [
            0.23962305892802152,
            -0.5292458812436339,
            -0.038385696079278324,
            0.17632887866012467
          ],
          [
            0.7134836462615827,
            -0.5957010153679153,
            -0.487565959219981,
            -0.7069569174363665
          ],
          [
            -0.4146595520744906,
            -0.1614572586168826,
            -0.44647816656719574,
            -0.005947657594791812
          ],
          [
            -0.12882600541132488,
            0.9814540777661125,
            -0.13171984700957845,
            -0.28273271440348496
          ],
          [
            1.300195368307312,
            0.10231412840393883,
            -0.016988917199020598,
            -0.01429992400776293
          ]
        ],
        "bias_hidden": [
          0.0,
          0.0,
          0.0,
          0.0,
          0.0,
          0.0,
          0.0,
          0.0
        ],
        "bias_output": [
          0.0,
          0.0,
          0.0,
          0.0
        ]
      }
    },
    {
      "fitness": 0.0,
      "food_collected": 0,
      "distance_traveled": 0.0,
      "brain": {
        "input_size": 5,
        "hidden_size": 8,
        "output_size": 4,
        "weights_input_hidden": [
          [
            -0.024894438654029356,
            -0.6500046536897909,
            0.17095943228453325,
            0.6031677795769684,
            0.0983941585836417,
            -1.0866918850814704,
            0.25083612081129697,
            0.6666274018169334
          ],
          [
            0.9676317581779913,
            0.7291754026969176,
            -0.5773369518192826,
            0.8857006761180536,
            -0.6426674565590422,
            -0.2755990965335793,
            -0.5823392110560045,
            0.5449565269721719
          ],
          [
            -0.170652700451159,
            0.028691423916226935,
            -0.1753989421017212,
            0.0010689622128772288,
            -0.09936052350801215,
            -0.6170085708767806,
            -0.47861542939421303,
            -0.39904193094178364
          ],
          [
            -0.07338093712346297,
            -0.38039145526383455,
            -0.5620316200317396,
            0.4538678626552984,
            -0.09616597213772804,
            -0.5798275334042239,
            -0.8177901158792141,
            0.22006874929215806
          ],
          [
            0.4275120680643046,
            -0.4274165328067404,
            -0.04329076960952361,
            0.4263556759315074,
            -0.03158341776590316,
            0.352507106587691,
            -0.3549906317569536,
            0.0024715001696900118
          ]
        ],
        "weights_hidden_output": [
          [
            0.15050043862574972,
            -0.006429484976975323,
            -0.06613663740691147,
            2.026034692247029
          ],
          [
            0.31875123706068126,
            -0.6110662667517022,
            0.10707264356929272,
            0.3158970779736377
          ],
          [
            0.3858190295530883,
            0.28800542745488567,
            -0.16486155554680976,
            -0.3306512365222378
          ],
          [
            -0.5407063572722901,
            -0.3558367328118057,
            0.20381459540148658,
            0.46303567409014157
          ],
          [
            -0.5244183310459868,
            0.7756021231679587,
            0.42483109974470873,
            0.3078444080122968
          ],
          [
            -0.46933014115351185,
            -0.05277636869041522,
            1.2100950237623243,
            0.6092944094988022
          ],
          [
            0.5664540044930978,
            -0.2503168185236785,
            0.04210759838521739,
            0.15674819771155213
          ],
          [
            -0.8135047139294548,
            0.5414133331514804,
            -0.04949124090652649,
            -0.22778564234730447
          ]
        ],
        "bias_hidden": [
          0.0,
          0.0,
          0.0,
          0.0,
          0.0,
          0.0,
          0.0,
          0.0
        ],
        "bias_output": [
          0.0,
          0.0,
          0.0,
          0.0
        ]
      }
    },
    {
      "fitness": 0.0,
      "food_collected": 0,
      "distance_traveled": 0.0,
      "brain": {
        "input_size": 5,
        "hidden_size": 8,
        "output_size": 4,
        "weights_input_hidden": [
          [
            -0.02016584886751908,
            0.4832906778710951,
            0.19169952574039675,
            0.2621451422320021,
            0.06638668119228072,
            -1.1850675071374517,
            0.7149626334264673,
            -0.3374111626010739
          ],
          [
            -0.10091908879636571,
            0.37663811729639185,
            0.19072653871169096,
            1.052033146065971,
            -0.047529548852421014,
            -0.0912716855792727,
            -0.05820758164434985,
            -0.4671184352215074
          ],
          [
            0.5872553001916591,
            0.7184351224698258,
            0.6013881301222012,
            0.49687606640749393,
            -0.4990333770959091,
            0.35037998079143745,
            0.6290907891605466,
            -0.06201461131642657
          ],
          [
            -0.7729690435424387,
            -0.016412232422442965,
            0.36367888747293586,
            0.6643835751424144,
            -0.3201946691140205,
            0.5256998324784947,
            -0.6229531243819082,
            0.05314191818603425
          ],
          [
            0.33190891602175615,
            -0.29844239839092684,
            0.051814601129934246,
            -0.3394242119378442,
            -0.7532346294018427,
            -0.056521628680811224,
            0.712113663116322,
            -0.3524283329336343
          ]
        ],
        "weights_hidden_output": [
          [
            -0.27273058709127473,
            -0.07912831904061939,
            0.15637202254244328,
            -0.10427381028727317
          ],
          [
            0.19392844443411236,
            0.6216344398338375,
            -0.3458093162448417,
            0.31043418955429586
          ],
          [
            0.9501602744399918,
            -0.6968960295750148,
            -0.7871417686013163,
            -0.20925299545604817
          ],
          [
            0.6101945260386014,
            -0.2311805760966314,
            0.021058467137483838,
            0.7102599840149321
          ],
          [
            -0.5133394112964429,
            0.25702505525394437,
            -0.28350532542181134,
            0.07750288091752491
          ],
          [
            -0.08182021458293373,
            -0.815126547494771,
            -0.33684014080883934,
            -0.950594766302129
          ],
          [
            0.06220954229025232,
            -0.0353341325513488,
            0.46058805397762437,
            -0.45162926188612
          ],
          [
            -0.1333726813100672,
            0.3724819983224798,
            0.1026785997535818,
            0.06602340601749125
          ]
        ],
        "bias_hidden": [
          0.0,
          0.0,
          0.0,
          0.0,
          0.0,
          0.0,
          0.0,
          0.0
        ],
        "bias_output": [
          0.0,
          0.0,
          0.0,
          0.0
        ]
      }
    }
  ]
}