{
  "timestamp": "20260109_194626",
  "generation": 5,
  "step": 1200,
  "best_fitness": 0.0,
  "count": 5,
  "networks": [
    {
      "fitness": 0.0,
      "food_collected": 0,
      "distance_traveled": 0.0,
      "brain": {
        "input_size": 5,
        "hidden_size": 8,
        "output_size": 4,
        "weights_input_hidden": [
          [
            0.25025429655604464,
            0.0013341380664396425,
            -0.7042682586023244,
            0.06820186458626092,
            -0.6260764915307473,
            0.005580930477564137,
            -0.3075729554077462,
            -0.5594889131497722
          ],
          [
            -0.2561336452830378,
            -0.020805625714988632,
            -0.0865051331115133,
            1.1065974819739866,
            -0.5167935530180352,
            0.44627156723099154,
            -0.12737016346865554,
            0.02732440769010493
          ],
          [
            -0.3444954089848876,
            -1.1102456099214435,
            0.10722996151666411,
            -0.7787832008290874,
            0.4584988987478421,
            0.2837472149805376,
            0.000243129287799534,
            -0.810432537060945
          ],
          [
            -1.034832328503574,
            0.41516757287697303,
            0.6067967896079589,
            0.10812241241071538,
            -0.40779869294548743,
            -0.011934929009678373,
            -0.20004736710350185,
            0.8426017254440434
          ],
          [
            -0.27432564295835443,
            -0.06742434298075965,
            0.4067596690086827,
            -0.04408362960593185,
            0.11082205300363518,
            -0.5173627501537571,
            -0.6033557402478041,
            0.5881738147467426
          ]
        ],
        "weights_hidden_output": [
          [
            0.11400646071369919,
            1.3818880692288502,
            0.14351599478559382,
            0.4327549704452977
          ],
          [
            0.012234779832976541,
            0.044452239008338404,
            -0.2974504047290996,
            0.15980726313803423
          ],
          [
            0.35172714662086335,
            -0.3020559762517904,
            0.01616823508358211,
            -0.4765632609957245
          ],
          [
            0.039455204879724516,
            0.07998516802076368,
            0.28816622489720145,
            0.36598347296348144
          ],
          [
            0.3087789219190576,
            0.6214742012046973,
            -0.16393208046982105,
            -0.4167262373807044
          ],
          [
            0.5949229900622487,
            0.4257961330532084,
            -0.14777929079830593,
            -0.6979481612196485
          ],
          [
            -0.12651005272029828,
            -0.7909993276920395,
            0.2969995089902715,
            0.1442529051553612
          ],
          [
            0.7859008434036082,
            0.07084199842644956,
            0.3135735766448884,
            -0.7186293474975427
          ]
        ],
        "bias_hidden": [
          0.0,
          0.0,
          0.0,
          0.0,
          0.0,
          0.0,
          0.0,
          0.0
        ],
        "bias_output": [
          0.0,
          0.0,
          0.0,
          0.0
        ]
      }
    },
    {
      "fitness": 0.0,
      "food_collected": 0,
      "distance_traveled": 0.0,
      "brain": {
        "input_size": 5,
        "hidden_size": 8,
        "output_size": 4,
        "weights_input_hidden": [
          [
            -0.31853028106981296,
            -0.1442255407831132,
            -0.2470755730305136,
            -0.700738556128014,
            0.37068286613457707,
            -0.6275835642733618,
            -0.312641777101621,
            0.04048828761714827
          ],
          [
            -0.18622152163742065,
            1.0628308380798952,
            -0.024483242084292613,
            -0.3351584105762967,
            -0.38512748315578954,
            0.11535147416778285,
            -0.005278215829772466,
            0.4095264289867125
          ],
          [
            -0.3473160897008078,
            -0.12421691997888937,
            1.102298815167271,
            -0.41886534455496355,
            -0.5579975804261456,
            0.6873106174980534,
            -0.47503553603017956,
            0.9392895985857406
          ],
          [
            0.4474797431608103,
            -0.3284259206751145,
            0.5248142955756511,
            -0.31707442689711623,
            -0.1296641616028639,
            0.654556900373273,
            0.5656051207811235,
            -0.10946173988078613
          ],
          [
            0.3505194094470594,
            0.3801237819370914,
            0.2820060042508135,
            0.07244853235220639,
            0.31457828480384276,
            0.1653980954687421,
            -0.17387969976628984,
            0.30134290446989676
          ]
        ],
        "weights_hidden_output": [
          [
            -1.0786562916345455,
            0.1591132059191259,
            0.8778296486559416,
            -0.07083387155423744
          ],
          [
            -0.21276848222234096,
            -0.6357207718756688,
            0.35668433781232123,
            0.30200644962759465
          ],
          [
            0.36117593225076994,
            -0.17991951438566905,
            0.45539130386917837,
            -0.1876433993785832
          ],
          [
            -0.43352450089218386,
            -0.31238102581746435,
            -0.8899058397048625,
            0.13155678355625053
          ],
          [
            0.6214504200144448,
            0.6788660764148614,
            -0.889344941319706,
            0.324238377724716
          ],
          [
            -0.1705059950255564,
            0.08087829135055576,
            0.15278406297055222,
            -1.0736336226778105
          ],
          [
            -0.1378855004646855,
            -0.6683679774635559,
            0.1070063248164871,
            -0.7947704948361791
          ],
          [
            -0.7779290530084326,
            0.488955003539528,
            0.3349423499081636,
            -0.08794171117537285
          ]
        ],
        "bias_hidden": [
          0.0,
          0.0,
          0.0,
          0.0,
          0.0,
          0.0,
          0.0,
          0.0
        ],
        "bias_output": [
          0.0,
          0.0,
          0.0,
          0.0
        ]
      }
    },
    {
      "fitness": 0.0,
      "food_collected": 0,
      "distance_traveled": 0.0,
      "brain": {
        "input_size": 5,
        "hidden_size": 8,
        "output_size": 4,
        "weights_input_hidden": [
          [
            0.08338452928525021,
            0.7735046108320631,
            0.4219476275982614,
            0.8271119843797009,
            0.1486005550763461,
            0.7489028027453586,
            0.3409110814774728,
            -0.850871175936164
          ],
          [
            -0.6013992124021077,
            0.3069722160107317,
            0.4681306115366763,
            0.3171498903091509,
            -0.2250315560487494,
            -0.2771182198567232,
            -0.05842672101646724,
            -0.3349325071441093
          ],
          [
            0.5407833075581461,
            -0.8708090015714144,
            -0.2411790962764176,
            0.41062374581079175,
            -0.39852268796554735,
            -0.18162170947380743,
            0.5557778464434576,
            -0.7868478975394868
          ],
          [
            0.38435034242204047,
            1.1312633059883108,
            -0.30282707831489647,
            0.43581958030934265,
            -0.09605363562075636,
            0.9444185711582869,
            -0.07348490931792657,
            0.3636830973453685
          ],
          [
            1.6671472864797388,
            0.19350405331480733,
            0.5991584516528491,
            0.09962024582214217,
            0.9381962855793416,
            -0.45861498046221016,
            -0.1934487908101089,
            0.20704508173253802
          ]
        ],
        "weights_hidden_output": [
          [
            -0.23851183436407594,
            0.8375878314302803,
            0.23400141376244818,
            0.1499482424551374
          ],
          [
            -0.2477284804669719,
            0.5866348512923633,
            0.37318928301847243,
            0.05074394142826684
          ],
          [
            -0.7734942942181835,
            0.7062019464934817,
            0.40862882025760644,
            -0.19119195626493668
          ],
          [
            -0.05431770175236762,
            0.8869659527644527,
            -0.1868051329457695,
            0.524515306161568
          ],
          [
            0.13210973300330173,
            -0.2904045398681354,
            0.3981933224065304,
            -0.506558231383895
          ],
          [
            0.14750277343816987,
            0.26659132099785054,
            0.7792788560026481,
            0.09445573007513279
          ],
          [
            -0.7489561785711294,
            -0.007648481063534878,
            -0.8472410429060888,
            -0.9374591952059469
          ],
          [
            -0.006732373257052949,
            0.10492237922580991,
            -0.11327697052379827,
            -0.026476509112735996
          ]
        ],
        "bias_hidden": [
          0.0,
          0.0,
          0.0,
          0.0,
          0.0,
          0.0,
          0.0,
          0.0
        ],
        "bias_output": [
          0.0,
          0.0,
          0.0,
          0.0
        ]
      }
    },
    {
      "fitness": 0.0,
      "food_collected": 0,
      "distance_traveled": 0.0,
      "brain": {
        "input_size": 5,
        "hidden_size": 8,
        "output_size": 4,
        "weights_input_hidden": [
          [
            1.2765169580127984,
            -0.14515294977550172,
            0.43939125106324844,
            0.6485290287416204,
            -0.748406725832773,
            0.1430728176218312,
            0.13690829756068842,
            0.5555601561475969
          ],
          [
            -0.017770014794339803,
            -0.500479133799522,
            0.23527529683324594,
            0.7295148026029435,
            0.468382633854099,
            -0.6779316348570774,
            -0.13179430652581073,
            0.26815909407180727
          ],
          [
            -0.2751151973628646,
            0.15757277016501262,
            0.01698867829627644,
            -0.5310364140865985,
            1.0378767761852568,
            0.4862310733813276,
            0.1654445764195681,
            0.43487155835879615
          ],
          [
            0.745550938096718,
            0.8007185050924651,
            0.9028231244772169,
            0.5189697645670337,
            0.5624346432091035,
            -0.13076989278076218,
            0.6497815493237111,
            -0.8068345786131023
          ],
          [
            1.0861227257336503,
            0.2501503958571062,
            -0.8234204744706057,
            -1.0948484593842909,
            -0.2666055883917271,
            -0.307490059927036,
            -0.34337537176148436,
            0.07737739772297353
          ]
        ],
        "weights_hidden_output": [
          [
            0.8144964553335675,
            -0.9725847095260389,
            -0.1950100919849752,
            0.8200552255285197
          ],
          [
            -0.22204965589811132,
            -0.169826185284999,
            -0.57908322041042,
            -0.13106935257465424
          ],
          [
            -0.05098641377996765,
            -0.1013976679937038,
            0.35010755000669186,
            -0.1083041726480385
          ],
          [
            0.9300746488989877,
            0.3140271095073515,
            0.9246731439695289,
            0.1308302108078385
          ],
          [
            -0.18405920013663182,
            -1.2674282646177413,
            0.31814476057865687,
            -0.7543164608618754
          ],
          [
            -0.4745725184332354,
            1.2673679190782785,
            0.7431685321139949,
            -0.975265115642551
          ],
          [
            0.19753107741498402,
            -0.2699873059663283,
            -0.31430325126975156,
            -7.741654935209033e-05
          ],
          [
            0.1099665100101953,
            -0.54471252342727,
            -0.23464500740400146,
            -0.7168612304525688
          ]
        ],
        "bias_hidden": [
          0.0,
          0.0,
          0.0,
          0.0,
          0.0,
          0.0,
          0.0,
          0.0
        ],
        "bias_output": [
          0.0,
          0.0,
          0.0,
          0.0
        ]
      }
    },
    {
      "fitness": 0.0,
      "food_collected": 0,
      "distance_traveled": 0.0,
      "brain": {
        "input_size": 5,
        "hidden_size": 8,
        "output_size": 4,
        "weights_input_hidden": [
          [
            -0.3585890608519194,
            0.10483888721710291,
            0.20512525444495333,
            -0.2089421120525878,
            0.16029621487169393,
            -0.18974770892412007,
            0.43564877520306816,
            0.04225621098522218
          ],
          [
            0.2343962893726635,
            0.5564773866462723,
            0.1069025013111609,
            -0.029560494347009744,
            1.0623079464717802,
            -0.4793043091601546,
            0.23148059232031695,
            -1.3789372782254636
          ],
          [
            0.40412955029813286,
            -0.45544585323724307,
            -0.7091717209992842,
            0.313831397857159,
            -0.05036039378035978,
            0.3521793074108225,
            -0.40885676288572637,
            0.0780399058097877
          ],
          [
            0.4711790202750609,
            -0.11498724183758778,
            -0.25915834307238705,
            0.29016346665994974,
            0.454646504681458,
            -0.0702952151174828,
            -0.45735063745033633,
            0.1068942111510937
          ],
          [
            0.21034606327229896,
            -0.11666168768199023,
            -0.6050690699746213,
            0.3772380515196112,
            0.09938468337481034,
            0.5418326942674963,
            0.03806530172110414,
            0.20551443756762547
          ]
        ],
        "weights_hidden_output": [
          [
            -0.41906253602633287,
            -0.24849342938502295,
            -0.35212770297874657,
            0.6275424566571162
          ],
          [
            0.1662867050627129,
            0.6583925561007761,
            0.24976809027202432,
            0.4543674980710521
          ],
          [
            0.3733916146095898,
            -0.9441707964233689,
            -0.32640104690435606,
            -1.0338642569810212
          ],
          [
            -0.2914813855608474,
            0.10149909213494433,
            -0.04606380230480091,
            0.5859774534252401
          ],
          [
            -0.04154823997234274,
            -0.14380488382911072,
            0.2714054343466186,
            0.01659484622400057
          ],
          [
            -0.051365591562233436,
            0.9118076774903522,
            0.68148218238556,
            -0.1729848927941118
          ],
          [
            0.3984188563191408,
            0.36330238378084256,
            0.8919827688552954,
            -0.15595318684131662
          ],
          [
            0.6052014183482225,
            -0.5912725720652197,
            -0.6937826523791016,
            -0.08395441096585074
          ]
        ],
        "bias_hidden": [
          0.0,
          0.0,
          0.0,
          0.0,
          0.0,
          0.0,
          0.0,
          0.0
        ],
        "bias_output": [
          0.0,
          0.0,
          0.0,
          0.0
        ]
      }
    }
  ]
}