{
  "timestamp": "20260109_194621",
  "generation": 0,
  "step": 200,
  "best_fitness": 200.0,
  "count": 5,
  "networks": [
    {
      "fitness": 200.0,
      "food_collected": 1,
      "distance_traveled": 200.0,
      "brain": {
        "input_size": 5,
        "hidden_size": 8,
        "output_size": 4,
        "weights_input_hidden": [
          [
            0.3847202684647536,
            0.08076253042409408,
            0.00883369635728618,
            -0.0698486570196227,
            0.5695657066452713,
            0.40700164626260926,
            -0.5626596690957346,
            1.3040580106081137
          ],
          [
            -0.28423402575171236,
            -0.6369968944090028,
            -1.0428251314896093,
            -0.7667180082197056,
            0.8105016921045908,
            -0.5442256741015663,
            0.46356430637542523,
            0.5428536263234182
          ],
          [
            -0.02842417333825461,
            -0.5473670202251404,
            0.8734447792958118,
            -0.0003211440395315748,
            -0.3021422439934635,
            -1.0987153238131024,
            0.0073081433580633555,
            0.41099102444938784
          ],
          [
            0.35874010698782643,
            0.33930371552886357,
            0.18975448122066896,
            -0.17512783882144517,
            -0.37347544376655106,
            0.23997650894978131,
            0.37829905816493464,
            0.003085375686199361
          ],
          [
            -0.03328320465588653,
            -0.945696082272813,
            -0.33938239725256547,
            -0.5882472390974302,
            0.2672316586081085,
            0.5642550963899586,
            -0.09607067979069737,
            0.6987634570387867
          ]
        ],
        "weights_hidden_output": [
          [
            -0.1912709506501661,
            -0.4585806259191348,
            0.14091818322190772,
            -1.2040307813006499
          ],
          [
            -0.6197989768095781,
            -0.34215708288432395,
            0.03418687240676349,
            -0.17696675458722988
          ],
          [
            -0.9263471699617378,
            -0.050742843720358796,
            0.3114925163128515,
            0.013606101702381738
          ],
          [
            0.09669913195944126,
            0.6701474693090048,
            -0.1838634516448769,
            0.682002718511155
          ],
          [
            -0.5701652562431868,
            0.5011127445390889,
            -0.31819865239271283,
            -1.0666333882890142
          ],
          [
            0.6831277206866724,
            -0.050019992799756566,
            -0.02024133038994992,
            -0.1476829107004469
          ],
          [
            -0.6879567010349914,
            -0.04025347694002837,
            -0.2178338499831026,
            -0.4627598510074014
          ],
          [
            -0.5770396877772985,
            -0.749916482446646,
            -1.103989808165534,
            -0.6263486702944105
          ]
        ],
        "bias_hidden": [
          0.0,
          0.0,
          0.0,
          0.0,
          0.0,
          0.0,
          0.0,
          0.0
        ],
        "bias_output": [
          0.0,
          0.0,
          0.0,
          0.0
        ]
      }
    },
    {
      "fitness": 0.0,
      "food_collected": 0,
      "distance_traveled": 0.0,
      "brain": {
        "input_size": 5,
        "hidden_size": 8,
        "output_size": 4,
        "weights_input_hidden": [
          [
            -0.06739118402591937,
            0.9419144631531,
            -0.7207844772247286,
            0.8784067254383597,
            -0.10235390366909958,
            -0.7417667733484151,
            1.2150138662902916,
            -0.02363333644222103
          ],
          [
            0.3997081759675537,
            -0.22348581649241983,
            -0.8848390372385204,
            -0.12651411777061652,
            -0.30794555468005497,
            -0.08606076781827468,
            1.2521241504251301,
            0.20549128289376772
          ],
          [
            -0.45181646881153964,
            -0.21838020775081377,
            -0.11024425097341359,
            0.1286547997138706,
            0.22238530439368676,
            0.3671395039842216,
            -0.15332220840324876,
            -0.21332793724427482
          ],
          [
            -0.2540886878469324,
            -0.37509017795359584,
            0.18242682308075242,
            -0.1445136413121028,
            -0.31008338721723916,
            -0.7651466309493639,
            0.44902394969340775,
            0.3772100994848096
          ],
          [
            0.30900597134180885,
            0.17382840268491553,
            0.07363966881959254,
            0.6587381181117814,
            0.043950659210513436,
            0.39977307939650136,
            0.2253283760352494,
            -0.5666437502890826
          ]
        ],
        "weights_hidden_output": [
          [
            -0.9462577081177233,
            0.32120221092361334,
            0.5214324943135912,
            -0.2676602785321047
          ],
          [
            -0.2815280149473443,
            -0.6717134276761846,
            -0.07869069208291647,
            -0.009248229178894618
          ],
          [
            0.5248285915535532,
            0.08450555319899798,
            -0.38789250951346493,
            -0.26504960042479436
          ],
          [
            0.28338758113888335,
            -0.28300122035843406,
            0.11832481866761074,
            -1.102289349698853
          ],
          [
            -0.15939855364646752,
            0.3393260931026127,
            0.4254649966426333,
            0.19802629130772892
          ],
          [
            -0.02231998212684028,
            0.12372201382694012,
            -0.41899696565904515,
            0.09209065198647041
          ],
          [
            -0.5828042568303266,
            0.12992690399833629,
            -0.045198013686944094,
            0.42063639182337065
          ],
          [
            0.4307966991269585,
            0.03368321632324075,
            -0.7710700204695398,
            -0.42269335654070384
          ]
        ],
        "bias_hidden": [
          0.0,
          0.0,
          0.0,
          0.0,
          0.0,
          0.0,
          0.0,
          0.0
        ],
        "bias_output": [
          0.0,
          0.0,
          0.0,
          0.0
        ]
      }
    },
    {
      "fitness": 0.0,
      "food_collected": 0,
      "distance_traveled": 0.0,
      "brain": {
        "input_size": 5,
        "hidden_size": 8,
        "output_size": 4,
        "weights_input_hidden": [
          [
            -0.14190190774193415,
            -0.04960991994558802,
            1.1985143229217794,
            -0.6110256733713761,
            0.7759001421014587,
            -0.23368577045900327,
            0.21760038865612671,
            0.6448480311103097
          ],
          [
            -0.5118765352373478,
            0.06503707062854684,
            -1.0371795440176563,
            0.7519388889144883,
            0.5762796172850788,
            -0.3661868210231376,
            -1.1136000122677772,
            -0.21778239264966817
          ],
          [
            0.5318546298016577,
            0.6749083804987542,
            -0.19795230441380263,
            0.5307038487878074,
            -0.15347932322262217,
            -0.6420471360285405,
            -0.489911901520276,
            -0.12606635161182556
          ],
          [
            0.5142714437917651,
            -0.12911166642908842,
            0.17775764457134346,
            -0.6077839773188396,
            -0.1932818656273252,
            -0.6935762585821069,
            -0.1892783046418798,
            -0.584555752321823
          ],
          [
            0.22682477707938078,
            -0.09244408420823334,
            -0.196917476939341,
            -0.5499546692397781,
            -0.23054580879257794,
            0.18610810409772224,
            -0.5373661892096906,
            0.5132000912234805
          ]
        ],
        "weights_hidden_output": [
          [
            -0.35705050836268154,
            0.33030236026724863,
            0.24876994373987898,
            -0.6202389284036808
          ],
          [
            -0.3916011758232399,
            0.7199625164438463,
            -0.019618984483156528,
            0.44381328773085493
          ],
          [
            0.4979010551479977,
            0.5601215958404473,
            -0.5393867552283422,
            0.24590061320800266
          ],
          [
            0.5373630293955838,
            0.31723618019616356,
            -0.3540245210049905,
            -0.7839421850020241
          ],
          [
            -0.8787696980810329,
            -0.356791502841384,
            1.1011423471533648,
            0.2254177279272356
          ],
          [
            0.1663017660448226,
            -0.04374080066888115,
            -0.6400915666514155,
            0.7063076068377946
          ],
          [
            -0.15991498334055504,
            0.1433099017351698,
            -0.4458682842989517,
            0.32480726140249877
          ],
          [
            0.34183999038593177,
            0.09408159241783066,
            0.5466019287536802,
            -0.03408771942936303
          ]
        ],
        "bias_hidden": [
          0.0,
          0.0,
          0.0,
          0.0,
          0.0,
          0.0,
          0.0,
          0.0
        ],
        "bias_output": [
          0.0,
          0.0,
          0.0,
          0.0
        ]
      }
    },
    {
      "fitness": 0.0,
      "food_collected": 0,
      "distance_traveled": 0.0,
      "brain": {
        "input_size": 5,
        "hidden_size": 8,
        "output_size": 4,
        "weights_input_hidden": [
          [
            -0.5626778625600284,
            0.8821444120765405,
            0.4857161124324203,
            -0.12134886453409431,
            -0.8611171025392154,
            -0.514776550862623,
            0.16466575502812722,
            -0.37073001982575665
          ],
          [
            -0.07577674166148662,
            -0.14059686481796105,
            0.004914601834903167,
            0.733112568730444,
            0.14163976806685868,
            0.26472349854211913,
            0.7577403837591112,
            0.8703499019534784
          ],
          [
            0.15971402658894776,
            -0.6423449211761587,
            0.5248338962489162,
            -0.577827826462751,
            -0.44368284028489857,
            0.15165006840012707,
            0.5510622537097344,
            0.14678190620911796
          ],
          [
            -0.33368095643930956,
            0.22215539882727534,
            0.6158935211272304,
            0.36877050523322047,
            0.23288654317201257,
            -0.5022203110194622,
            0.17618399310530716,
            1.3744524017123725
          ],
          [
            -0.05973247228240154,
            0.44202520826162806,
            0.06747655321488866,
            0.678509323021902,
            -0.07147211402826857,
            0.048002084313192736,
            0.08693893150554578,
            -0.7851588209105108
          ]
        ],
        "weights_hidden_output": [
          [
            0.08324863605644388,
            0.13645362301266734,
            0.5316767593310645,
            0.7497375499139415
          ],
          [
            0.01534976379675375,
            0.002162008005402171,
            0.9900361793104937,
            -0.9251121344747063
          ],
          [
            0.988644331499361,
            -0.22873266168843054,
            0.402619792665747,
            0.18579620806609434
          ],
          [
            -0.3793637638233635,
            0.17221388107756563,
            -0.2807879196521332,
            0.32219136868501774
          ],
          [
            0.2605919483053371,
            -0.08332723459375335,
            0.3068088702245531,
            -0.1064391664655638
          ],
          [
            0.007126144476113201,
            0.04943151956117334,
            -0.3039590200018997,
            0.6647577790876956
          ],
          [
            0.2338374020367806,
            0.7210218131691956,
            0.1843366107843831,
            -0.024259282298690853
          ],
          [
            0.31270141381891364,
            0.32417795441819375,
            0.5924501783813567,
            -0.04599198642982441
          ]
        ],
        "bias_hidden": [
          0.0,
          0.0,
          0.0,
          0.0,
          0.0,
          0.0,
          0.0,
          0.0
        ],
        "bias_output": [
          0.0,
          0.0,
          0.0,
          0.0
        ]
      }
    },
    {
      "fitness": 0.0,
      "food_collected": 0,
      "distance_traveled": 0.0,
      "brain": {
        "input_size": 5,
        "hidden_size": 8,
        "output_size": 4,
        "weights_input_hidden": [
          [
            0.9625337674429599,
            -0.14696670350341656,
            -0.831960470842312,
            0.400703307826652,
            -1.0137971027787631,
            -0.34035998168524095,
            0.3133621894541634,
            0.34999934806026467
          ],
          [
            -0.0249964437727085,
            0.16573821296087204,
            0.2184194808941688,
            0.040737362514132396,
            0.04024150636423927,
            0.09209427204312358,
            0.19905071416062411,
            -0.7313782153100647
          ],
          [
            -0.22053967453471907,
            -0.6947423305599372,
            0.15508903109149264,
            0.6251241060694006,
            -0.03169497655795622,
            0.19439308111354467,
            0.28743689489954577,
            -0.23271664138545264
          ],
          [
            0.36992499812112395,
            0.013169349112748632,
            0.8087751947069347,
            -0.23124192341529773,
            -0.25153777733717114,
            -1.0135782920306877,
            0.3805052251572407,
            -0.08565129727713065
          ],
          [
            0.7148543408352712,
            -0.1996751340123259,
            0.8545842021259825,
            0.06046314934643991,
            -0.08367903238704107,
            -0.8529132573872821,
            0.27889303776107904,
            -0.2570231904499491
          ]
        ],
        "weights_hidden_output": [
          [
            -0.11493173899385321,
            0.07131845063449661,
            0.11527121125177038,
            -0.25181617775195286
          ],
          [
            -0.45163145928515375,
            0.11126820737918042,
            -0.6278752212923848,
            0.5886304186287167
          ],
          [
            -0.4700512697220986,
            0.10468691985510034,
            0.22269460275654065,
            0.2644903309505471
          ],
          [
            0.5800573146722635,
            -0.1193216308793052,
            0.21566497224253658,
            0.5892381818181875
          ],
          [
            -0.1422845696627555,
            0.3575674120114356,
            0.270496762250975,
            -0.4288535488096021
          ],
          [
            -0.2584614637294513,
            0.07301855824212299,
            -0.02550738091572118,
            0.27007946261964627
          ],
          [
            0.47144064769067967,
            -0.3176235152189604,
            0.21659204579773786,
            0.7418415968269922
          ],
          [
            0.542177250075992,
            -0.8756822059872381,
            0.008804614028562927,
            -0.09801118820287065
          ]
        ],
        "bias_hidden": [
          0.0,
          0.0,
          0.0,
          0.0,
          0.0,
          0.0,
          0.0,
          0.0
        ],
        "bias_output": [
          0.0,
          0.0,
          0.0,
          0.0
        ]
      }
    }
  ]
}